-4.314845009987261E-4,5.161303819681995E-4,-0.6206233299217389,0.5373507504422915,0.3718733739328304,2.527353161205805E-4,0.5659326068106612,-0.40391168235686087,0.0030904682079075938,0.7533385051107011,-2.0466854930713935E-4,0.5372124917281136,0.10662895794846221,0.3067605073938673,-2.4586304269327472,-0.8333839329690602,-0.4118001999398863,0.4117417111598144,-0.37052026218896417,-2.5273531612066374E-4,0.9154263449132732,-0.11613861011629446,0.8791228150488731,0.6130406540827036,0.8627556664991322,0.8627556664991322,0.15062867922026557,0.816727634177846,0.21196136144604416,1.2669474259503402,0.6285639173451342,0.35036065316671183,1.6149007399494605E-4,-0.4197813534490567,3.456890866478967E-4,0.15503733785905038,-0.21842411074384321,0.11437124446381725,0.11437124446381725,-0.5765621729069863,0.002612636450208227,0.8582968033042395,0.15740810204395342,0.15740810204395342,-0.6114099367339567,0.7956464689751108,-1.1345130767257072,1.8560314527799346,-0.06415944537866668,-0.06415944537866668,0.19349182957139588,-0.21164022540564859,-0.6055630783446806,-0.6055630783446806,1.453498412155652,0.5610802243703753,0.47601828875722807,0.48371032362523025,0.2993794395690814,0.48371032362523025,0.4131496672029146,-1.0628440877894385,0.926108928698574,0.22570839072914317,0.22570839072914317,3.8102189526480353E-4,0.7780278411677611,0.39225912105106947,-0.2547318229739359,-1.1782956035579895,-0.17711048961167064,-0.17711048961167064,2.3738692879251273,-2.35808010126441,-0.18055851559232122,0.26201851381838936,0.1866951250324402,3.016148879278705E-4,-6.728099050677286E-4,0.9676556701385601,1.6688407954013767E-4,-1.411342829313099E-4,0.18470443891152663,0.4087635255753967,0.9676556701385601,0.9676556701385601,1.7505732963145992,0.15359381708142233,-1.9781820706962446E-4,-1.9781820706962446E-4,-1.0356459430937388,-9.224245291274939E-4,-0.5374013481511133,-0.5887100673287575,1.2141769535689326,0.7164953685224293,0.7164953685224293,-0.2865990402555066,-0.5703571726593327,1.2405260398887312,4.28075918530405,1.9749247847601177,0.5924963694928354,8.831830843284327E-5,-9.758678047975004E-4,0.6190393270804135,-0.27517414173678323,-0.27517414173678323,-0.3801700754281402,4.9152341840765E-4,2.2866184528230727E-4,-0.39754615919175523,0.6190393270804135,-9.017415813488067E-5,2.9450198822786535,-0.7361793456890025,-0.0624973030936675,-6.700833545923453E-4,-3.2431753983656756E-4,0.677052821516264,0.0176393154788241,-1.4041066881066653,0.7113772581045005,-0.27212907433622024,-1.891544174871834,1.1334961175209814,-0.19593580134953945,-0.0909369523360242,-0.9196029218561358,-0.9196029218561358,-0.3323248185168932,-0.016738849791307096,0.24808717055057605,0.2755977340722519,1.8820350158075974E-4,1.8820350158075974E-4,-1.7374062062487978,6.505199042364831E-4,4.1613957277355227E-4,-0.23051015022438137,-0.30218097148568446,-0.30218097148568446,-0.28579639216776465,3.358047570209038E-4,-0.31213954850042425,-1.0689265485324793,-0.7441710321017089,-0.7441710321017089,0.6046355421600431,0.18149074073724084,-8.290805474125844E-4,-2.3928849105963647E-4,0.23913461966166674,5.775875408548798E-4,3.873854291313388E-4,0.6522590164604951,-0.1631259777262943,0.24170043778514272,-6.883021452661832E-4,-0.7997425076706492,-0.7997425076706492,-0.7997425076706492,0.4091038191446491,0.5302548033684784,0.333623103338825,2.416741516468189,-0.9115653001230083,0.4841859862016922,1.1217904255116693,-0.5044204439969092,-2.366946613777981,0.1878621194606841,-0.09415044162356659,-0.15260099811235314,-5.823488266794481E-5,0.08242910379021928,-0.11878916701031948,-0.4176523821936014,1.5498074496598526E-4,0.5346346223357137,-0.024176304575109185,0.07346151643194644,0.5931347288832339,0.2239742892387111,-2.2197995432535444E-4,0.17821089274972582,1.693484463338301,0.4047337651587048,4.095300348031644,1.7785292978648437,-0.027486056989172176,-0.21547853527966304,0.2969452146618991,-0.11969704657626323,0.40054538151934993,0.2595346945744218,-0.03825648912383988,0.19860808330865407,0.2341937530479557,3.231372171461967E-5,-6.629288084776166E-4,7.766402514094509E-4,-0.43015963070624447,0.3591939596103368,-6.940733181604277E-4,-6.723466551898959E-4,7.592377918801629E-5,2.2313380197216503E-4,-4.0519527591601216E-4,-0.5902284716481677,-0.027378077274156386,0.3713027237066235,-0.4381152917430573,0.6182944156941513,0.1528415245518017,0.2503955406382804,-1.8418242574099494E-4,0.20260822122429492,0.6693906123668047,1.0262290787003283,3.6619681688699777E-4,-0.5788320919043046,-0.029530926737335796,-0.591745531020737,-0.16158172624270553,0.444553248478044,-0.3308079358260174,7.135174113153465E-4,-0.02848521795711307,-2.1851682644705834E-4,1.4558528675657524E-5,-3.6383688293445816E-4,-0.5604082969930361,-0.5012973833520815,-9.822712816906208E-4,-0.09354592959748259,-3.008772101955016E-4,-4.089831227702032E-4,-8.509602692930362E-4,0.25647087407230396,0.3262701648738699,0.25322243322590837,0.4257092495231486,0.28937868134898004,0.2651825583435132,-0.38601586262941656,-0.07575246031004867,4.715174123594648E-4,0.8311270629936722,0.5203170596241262,1.0269743968262897,0.16688310432642128,0.4192633971800262,-0.11662859475108012,0.20076789110952414,0.7102875219570565,-0.0886836607676383,7.899606549983777E-4,-1.0579603189024697E-4,-4.300937299159047E-4,0.4785921366648165,-0.6475947439339361,-7.12571356340154E-4,2.889322255004575E-4,-1.3093223010796767E-4,0.27679799435926355,-0.6471098239591088,-0.45352709978765005,0.5830484029969856,-0.030346235533996346,-0.28282553764504503,-0.3437883416098858,-0.3040472907348024,0.02612872908013091,-0.18812298124387974,-2.3932948131312752E-4,0.1185437874368806,0.4327982599211613,-0.5535715419997993,5.004346131428723E-4,-1.882441673210379,0.8784262694575936,-0.5603850411940346,-7.287422364190177E-4,4.905963343153375E-4,-0.03337212457270425,0.2657682265107351,0.3651248055133905,-0.5174754516754989,7.525043642358678E-4,0.16570827939128532,0.19028518535494876,-0.21925736911413618,1.4280018505776937,0.06337717254976873,0.47664994247383297,-0.409845918271558,-1.1596011690843152E-4,0.4189342208482543,0.8926251697290551,-0.18705772444206378,-6.96441960449377E-4,8.8831374279697E-4,-0.35182281637511764,2.190260105135905,0.14438964669261062,-0.05812022194426619,-0.25004915979786996,1.3224559930999987E-4,-0.20349122741702383,-4.439774814051148E-4,-0.20184710750100043,-0.25702329915960465,-2.1254971578031716,-1.0055938956699968,-0.11511437781683327,0.9966456877743249,-2.3994703013156577E-4,0.16194260750862394,3.575417013433266E-4,-3.1523204749627355E-4,0.2086919902858506,-1.6014308612433397,0.18658266350437872,0.1547602122262727,-9.749864982982713E-4,-9.749864982982713E-4,0.7845486890243345,0.08622600014170251,-0.038551371912095886,0.07841185957406796,1.2194982656843554E-4,8.805639764297801E-4,0.4135860624987661,-0.8353532247697326,-0.06503102115883501,1.667219560177297E-4,0.4135860624987661,0.2694324041890481,0.2694324041890481,0.6767007581040897,-0.16173490126037565,-0.07834775664215632,-0.0759199411467711,-2.5125099141385014,-0.16240607841241106,-4.206374908137349E-5,-0.4521856552574527,-0.07148888521132307,-1.3670672664402328,-0.6797149323774687,-0.18102379436791896,1.158266153153382,1.3481343607531906,0.259376081912076,0.15078872647145963,-0.12350556406210984,-0.5933703293997854,0.32640893889881684,-2.520308715990094E-4,1.8010955460602225,0.4624377525473635,7.745094772573676E-4,0.15618540107504003,-2.5034514572465404E-4,2.8519279904419504E-4,-9.462059400077911E-4,6.817702176701521E-4,0.9623251893944523,-1.70453341963358,2.153450619878793,-0.033059420300489,0.9353677423261654,-1.6588940938152634,3.726456924134147E-4,2.7764461247835994,1.341381313027201,1.8015383700189526E-4,4.225161811580464E-4,1.6758591304613901,0.6055900806547602,-0.37422643715477405,0.3639105901777441,1.2791336789835002,0.2622586037599623,0.039506796674328534,0.41936253361281045,-1.9350609497878966,0.07236856698943604,0.11796162840086577,0.2780780139596526,0.40643063527759576,-0.5895742067847524,-3.4283813154226825,3.082022116181992,-0.10734113004101285,0.6019351418223806,0.7760727266598374,-0.15726282470951097,7.741547688647579E-5,1.78019147232971E-4,-1.3296173210530302,0.08178403133282873,-0.7231638373440332,-0.24078209292746483,0.2727957111845443,0.216560169653421,-2.835649614623979E-4,-0.12481486688606515,1.2150381452414152,1.019843446071558E-4,-0.008613353028662157,-0.4000599714759119,-2.0779084970681514,-0.7084977279621334,-0.3579843119350866,-0.22314639966521718,0.2556901411058582,0.07829625467929031,-0.08349405350454928,-0.02489852377223172,-0.06324432684791598,0.03264167950426328,-0.23493427149301227,0.02006476983689815,-0.027655089659062826,-1.5614393089076584,8.390658265256814E-5,7.185590274603837E-4,-1.6430333775281933,0.5336786039090379,0.7287048360166515,-3.009007181767367E-4,-0.9238640156281787,-1.7454564524947784,-0.4026786066547728,-0.9244804151614296,0.6525151717640549,-4.039794653668982E-4,-4.039794653668982E-4,0.761069880013561,0.17251819269027827,-0.19406191822799293,0.02499056086250185,0.5169078567974869,-0.08269522143698282,-0.05121946890097612,0.38344990091392817,0.9428383101024825,-4.7499473212555415E-4,0.10837713816740979,0.10837713816740979,0.42326578378872803,0.4038569319464545,0.12163102110202997,0.3731063558503415,-0.12200885537656539,-0.12200885537656539,1.8658475796445406E-4,-4.7169379186535245E-4,6.845425279081506E-4,-0.3898049348341601,-0.05329604368322685,-0.05329604368322685,-0.12737486168924464,-1.3993726381487188E-4,-7.35611575438255E-4,0.24363918062347242,7.032113593999301E-4,0.47320455879626105,0.42249950535286496,-0.06801852105823332,-0.020457394763714172,-6.205495060677547E-4,-0.47398805315386294,0.44358472960191625,0.44358472960191625,0.16885063451589707,0.11692344123080467,-0.33506890666769534,-0.04526032868556873,-0.3210228409593503,0.8315910026161109,1.3628768398740487,0.03363515616194451,-2.693510865131904E-4,-1.6126313655710542,-0.14261132295684975,0.38068261488907107,6.221120473382481E-4,0.11870342864353181,0.04581539076407184,0.04581539076407184,-0.2523052602569934,-0.020375732367673892,-1.2509622711740637E-5,-0.4700488039382545,0.3546834270544946,1.8159344392854353,0.23336431941724764,0.2366412731609857,0.6512589311646743,0.6512589311646743,0.6341515763639975,3.532781444175919E-5,1.1795733685761822,1.1795733685761822,0.20176409160149486,-1.5063025965973557E-4,0.17705178042193997,-3.054304764449681E-5,0.5016547270469303,0.4284272251653154,-1.9704799274251764E-5,-1.1963124812075203,0.6867146800901784,-0.042333275676776166,0.20517177614837748,-0.40068795207209423,2.025908876473974,0.03182446758756535,-6.264987677320912E-4,-8.699123991446267E-5,0.9639455807534102,8.946596668111516E-4,7.542572689188014E-4,-1.1060552430870885,-1.8672632411533419,0.9639455807534102,0.9639455807534102,-2.1187084303542467,-4.060468692327656,-1.2378774920297222E-4,-4.708591907699271E-4,1.8126539616847555,0.3706387572415728,-1.2947710834285477,-0.7856099514446664,-0.40514047792496166,-0.40514047792496166,-0.2309819529776257,-0.25962431908145356,-0.9965054060167163,-1.0065201610216974,0.38906833842426375,1.9220135252230955E-4,1.9220135252230955E-4,0.7139430364716549,0.07233315557641573,0.07233315557641573,1.9186125347527327,-5.441349279872164E-4,-0.37680017497681,-1.4179638518003959,0.7139430364716549,2.0069869542920906,-0.002918499802590611,-2.876064241769986,-1.4869356257683693E-4,9.992169629882432E-4,-8.680233129544348E-4,-0.1808003108803118,-7.090948665334223E-4,5.692087406326759E-4,-3.416011232803243E-4,-0.1808003108803118,-0.1808003108803118,-0.1808003108803118,6.506987486499224E-4,5.4260410061738673E-5,8.020059125554199E-4,8.998463332695033E-4,-3.3406358869841117,-3.61427986559992E-4,3.8534939712015414E-4,-0.20404173088764313,-0.6203228409084204,-0.0693816812417357,-0.21277895877928182,-0.3167970535926806,-0.9438367940066736,-4.971481022496437E-4,-0.08186743884527822,-0.2946911059887549,-0.26934685427211225,3.530844763860474E-4,0.2161120905967062,7.374612737065407E-4,3.5823953517383276E-4,3.530844763860474E-4,-0.588840506941776,-1.8346206801683773E-4,-0.004255004016511833,4.201754561556451E-4,-7.192843134356976E-4,-0.8680764701634566,-0.5823664035878808,-2.654381716646663,-0.07711444443096205,0.003579716078577631,-1.9693070451553846E-4,8.80208798733525E-4,-1.2895185834909615,-1.880647566508616E-5,7.911779935328796E-4,7.911779935328796E-4,-1.158987263507195E-5,8.032843790369677E-4,-1.5758913067861469,0.24644259569301344,-2.0297527387077317,-0.08897391280167756,-0.37969632102281814,6.062164849232102E-4,1.3709605131939844,-0.12075344282980474,-0.9673596062022735,5.509904490583331E-4,6.704609606250657E-4,1.5594932040095127E-5,-8.57353995715426E-5,-8.860516877844129E-4,-0.9280521230361058,-0.9280521230361058,2.861854221237388,0.8119324519283322,0.5738031829422499,1.5980039591434745,0.9396961011102938,0.004051589538064717,-0.4106311699924651,1.6432651778570058,0.5830979610429045,-1.2010353848143485,-7.918590078446142E-4,1.0445552343959221,0.6227735796375419,1.822430345475846,0.15900176641278044,-5.699038953759218E-4,8.406339666597988E-4,0.9781273421694704,-0.0035175981113139345,-0.0035175981113139345,0.5871406294521629,0.2543481233611194,-0.013741236774854244,0.06513366896563387,0.07573972604057505,0.07573972604057505,0.4164929066416629,-0.11760917222544352,0.14901502986969045,0.46164240656352173,0.46164240656352173,1.8321852932938212,-0.4745120367202218,-0.88214674135839,0.700207931742806,0.5848367981433162,0.5848367981433162,-1.3918457142755698,-0.10599657461734874,-1.551667166641408,-0.09464010642456243,-0.24138100320413333,3.1963488388678197E-4,2.7237270816749264E-4,-0.9749325877801367,-0.9749325877801367,-0.9749325877801367,0.09471094673260716,1.0240628439534578,-0.6064258293113662,-0.6064258293113662,0.16769893583309256,0.26030492834216723,0.09227885503993538,-0.10691898617416275,6.316573127072557E-4,-1.044730226336969,7.405525883461212E-4,4.3075709519541474E-4,-6.412837924517009E-4,0.3416346160576446,0.023804448889576193,-0.14220853437821393,-0.14220853437821393,0.05387686148116705,0.3540353787965387,4.313960486820419E-4,1.8673720532894582,0.20714522047126113,-1.4989142784153482,5.8135047524758985,0.3037790083135159,9.913198682841729E-5,-1.307461810936742,-0.7631844246963378,-0.9641625211071784,1.0581325725956827,0.820572636015901,0.5796913781534226,0.6771940162028762,2.6843366625530515E-4,-0.4100809072668497,-0.13018181050440347,-8.413913273709093E-4,-0.9063696851294627,0.027329783127752392,0.42764360478496555,0.04736456565037876,-1.2216142050989884,-8.355153223959169E-4,2.4393432915109593E-4,0.33557184423955616,-0.4420514870992197,-0.48561261691643415,-1.2018269317029018,-0.5031543565030552,0.49557205497112744,5.912313043062932E-4,1.9630626742036996E-4,0.043090023059398366,0.38722689533977744,0.7751756103561058,-1.1970220653154717,0.36307818596928093,0.060940600823446205,-0.2604762009849096,-0.30092692803564863,3.495009907588737E-4,-1.284811936199342,-4.926075565418833E-4,-5.008025868548162E-4,-0.2269118338723293,-4.4586550967035425E-4,-3.0578644317636296E-4,-0.3293567783359159,0.3780540052254145,0.061679794189682155,0.7451746083089669,0.2804290006439281,1.5519700112024013,-0.6650534718140667,-1.8876765076223192E-4,0.18906987635168382,-8.708106161972083E-4,-0.16932286026326998,1.2770619756035198,-8.585421090394888E-4,0.3141455828650961,-0.5175300015317922,0.1306468325996646,0.07460591088774346,-1.4078290692119166,2.692794120654673,0.5578801815916228,-0.06840831414632112,-0.008158107986645013,-0.1001798462247482,0.09592047402708415,8.967914114218903E-5,-0.022716672027669964,-0.17011982548826696,-0.04081655245820604,-0.04081655245820604,-9.094621302143733E-4,-0.8656615487430301,-0.21044265094338832,-0.5909185150898671,0.26159509666982733,-1.5529787921166556,1.1473144879822386,1.415739697449404,-0.09052584583791304,-0.8551087833443869,-0.04610190637040165,0.32537476978745644,-0.6263579795501865,0.3513870284610299,0.6223772705273203,-0.9938350175298665,0.3301808382347867,8.515346806010609E-4,-0.325747528222961,-0.4355471549870015,-0.6728544414436708,-0.057454519907760356,0.5319435567047895,-0.20060955146714268,0.21594232038861835,0.0645354314000056,-6.613456146856751E-4,-3.951074111431925E-4,1.3905408387598905,1.3905408387598905,4.688036885425707E-4,-1.6462024614220332,-0.42290870365833405,-0.3237654193974321,0.43619417315007547,1.244051712191294,0.26589206310405555,-0.5906901925339008,-2.501970780673618,-1.2699062567710748,-0.5206267827450228,-1.8988451489891146E-4,-0.8270825481832786,-6.442308325284239E-4,-1.7660547381661185E-4,-3.00773318421122E-4,4.246645823000433E-4,0.4664491473408907,0.2675111014541637,0.23074805731215844,1.401976608393655,0.41260729604540214,-4.948894479702699E-4,0.1397983703738972,1.401976608393655,0.20511950610426935,0.20511950610426935,-0.10135901544344803,-2.617536611568038,-0.2418034308303672,-0.2418034308303672,-1.1085463526216066,-1.46045166559787,-0.37692395653423516,-1.381552481344527E-4,0.2798609600819322,-2.6846835729026384,0.9593365219159375,4.848625942987486E-4,0.09104333918107463,-1.352407211943703E-4,0.3222776501451215,-0.5544572193352241,0.5530413259639719,0.010186572981467142,-0.5436018462230152,-1.6823170578743938,1.1280885492683037,-0.04199488484089297,0.11768396759654269,0.3169759110115316,0.27903112941693375,0.35469858954534206,1.025033023606998,-0.29165646308916093,-0.3441120322244168,-7.680097696308019E-4,0.2571581361274619,3.9897234540979467E-4,-3.981603215446592E-4,-6.261663740173585E-4,-5.887143874801339E-4,4.382539786734282E-4,-0.2300652494149868,0.29498802518001943,-7.671137123459945E-4,0.42963829550192495,2.2094500814788125,-0.41208626028272266,4.78375962667061,2.1499490825229746,0.7330183462274881,-7.129962060916166E-4,5.903002486190435E-4,-0.5667322654530489,0.2080980443572454,0.475630277844349,-0.10744299894843368,0.16271313108898083,0.035548303878516326,0.8079384010810091,0.8079384010810091,2.527265660586036,1.8069559620467361,1.1272374955937723,6.328885740188102E-4,-6.576872008517748E-4,-0.0038610218203458282,0.7926146879516229,0.4600762299099474,0.39416552666207777,6.422546126530265E-5,4.3133047070850533E-4,7.80229271152148E-4,7.80229271152148E-4,-7.785252132008043E-4,-3.684351885278646E-4,-2.225675908041312E-5,-8.265729827040026E-4,1.3911493669972719,8.031161659725474E-4,9.804655910021194E-4,-2.3669571360563778E-4,5.843534761527709E-4,8.970473252611917E-4,6.999648149503613E-5,6.647919550225685E-4,-2.2072259742375697E-4,-0.10694732181092667,2.666243788925683E-4,-2.0071173064407867E-4,0.025549930940622568,3.529524784230304E-4,-9.11649796363811E-4,6.819906478125991E-6,5.873482521592179E-4,-1.1080115570631583,4.191380747655217E-4,-2.8264131220185164E-4,-8.859152000281151E-4,-4.8620099136555627E-4,4.8129795386719E-4,-1.9716857156710696E-4,9.762014339105274E-4,4.538052641585792E-4,-6.601913910948202E-4,9.586122932120675E-4,4.537807659685659E-4,-0.27787669691816763,-0.07811802256706323,0.2853460038269439,0.9715276972910936,0.030241675838327896,-0.1348951469659741,-0.08801166125207825,8.633442491381376E-4,-0.3229990897252934,4.4774928769446515E-4,-1.0169592730639157E-4,2.720635558095066E-4,3.3813665519022884E-4,1.355085693859392,0.11655359099989299,1.3197844707508685E-4,0.5776704103299741,-6.284527160519411E-4,-2.6881750489533493E-4,-0.08584515921588393,4.00631775522866E-4,4.00631775522866E-4,2.0311388323999654E-4,3.7340356484847704E-4,4.993672429660083E-4,0.3508445248095191,4.6683002763218593E-4,4.6683002763218593E-4,-1.8383192359864737,-0.41312376334702605,-3.5770324335098456E-4,3.0033347484184235E-4,5.162167375007632E-4,4.4636369028215335E-4,0.2522380159968143,5.416398652857983E-5,5.345285247135469,-0.29981976102760954,1.5695971154277622E-4,-8.845286317155326E-4,3.6299186396345315,0.48133560406925613,2.1245361841959127,-4.995972225307132E-4,0.5991785422088163,8.375325216365886E-4,5.581534525286092E-4,-0.0010885895728358803,-2.052476525841308E-4,1.2613324674083342,0.5401966384691254,0.13050454183519786,-1.2972614083434695,-5.633424840470692E-4,7.594848412381637E-4,0.33210546037161504,-2.773869181729244,0.056709613444380275,-1.0066018974427706,0.019287408443327318,6.298619510441562E-4,-4.5089722053696533E-4,-3.0930349905543806E-4,-4.384055525808461E-4,-0.0881276739475507,0.13564142929380232,0.19313534334296928,-1.2962407905583153,-0.21797441812538007,-3.0608892499418134E-4,-2.0401965589707954E-4,-3.2541159101148325,-0.45134707846866157,1.8547744063449672,-0.0016929086637835849,0.9615948232295384,-0.16680209748298536,-0.31360143491383285,3.930154463980349E-4,4.19513393007365E-4,-8.606974801053983E-5,-0.3941750972440168,6.062172920486874E-4,-9.319267547127434E-4,1.4699362808554667E-4,4.924909077829903E-4,4.1395046157134E-4,0.7924339773013984,0.7936565805096089,-0.35863545919516193,-0.0060918993358171376,-4.6961857521210515E-4,-10.272457391301725,0.5433573037530822,-0.16555482574932281,0.037667275403741235,-1.7977067751079938,-0.4930222419264222,0.7207554211906474,2.1633138403934638E-4,-0.865140731937802,-0.288464377499575,3.9070759632664407,-0.2411261284766917,0.6407595925251923,-0.77942021184942,0.6674487956599859,-0.47830855227156244,1.62640939641207E-4,0.0737473505966169,-6.52869979934224E-4,0.675516818589551,-0.721816399781636,1.7597803246860444E-4,0.132437382568541,-0.032766465190985895,-2.296693549180052E-4,-1.3537222097131962,-0.07787389509959604,-6.069715532308496E-4,-0.9160333184613364,-0.22496645330598194,-0.10654008198296008,-0.11183115209830052,-5.880444088130944E-4,-0.09838245610493883,0.12718860401339951,-0.40893319164338554,-4.720071409379384E-4,-0.08197010243689475,4.137118193137557E-5,8.595932549784137E-4,0.364479578387297,-1.233802095228353,-0.08197010243689475,-0.08197010243689475,-1.559042667144607,-0.07084269132189329,2.03950858871536E-4,2.03950858871536E-4,-1.0071436068635582,9.241751423677163E-4,-0.5316829052789764,-1.1425326083462741,-0.6746793186268587,-0.6746793186268587,7.25342525912881E-4,-0.04877355785518133,-0.3341112584474823,0.22996608556274994,0.37857834312182287,-1.3769154382374028E-4,0.2658882063344433,-6.152698429378185E-4,-6.152698429378185E-4,-4.529943275639099E-4,7.945071926317296E-4,-7.74014636124788E-4,-0.880118693572602,0.2658882063344433,0.2926721082133969,-0.15722046113066424,-1.2498202968792111,-1.5318935454321713E-4,8.553491510175687E-4,-2.2413348267281356E-4,-0.16690899505804657,8.979259007695192E-5,6.105328763364633E-4,3.8155047794947994E-4,-0.16690899505804657,-0.16690899505804657,-0.16690899505804657,3.7769818306779474E-4,-6.309594822287944E-5,-1.115196522075636,-1.1047209975241332,-0.13129003745123022,0.4019750381191197,-8.205174886053259E-4,2.4029759823434436,0.993575150752322,-0.7595771912837165,0.39360239649180306,3.0749671774773276E-4,-6.346577259567802E-4,-3.2087426291792383E-4,-5.525421411017037E-4,-0.6207052780823763,8.496032474953141E-4,1.3032365921319375,-0.015580901302496949,8.496032474953141E-4,8.496032474953141E-4,6.404375253323742E-4,0.4294503054476481,-4.8798709686239327E-4,-2.3374070690885976E-4,0.46757024924440843,-0.016802225368425024,-0.4566675910432609,-0.034980438659126596,-6.618980451676937E-4,-3.532804033484499E-4,-2.1105724034280616E-4,-5.552807660830669E-4,-3.131276008696399E-4,-3.131276008696399E-4,-1.1841583094097583,1.3233747579276258,-0.32810857626404444,-4.4481344523762364E-4,-0.23100698934884187,0.0045466325432139566,3.877001638556135E-4,-7.906793211528163E-4,-9.618149765172365E-4,0.2834095600518034,0.2834095600518034,1.3307142824368684E-4,1.935100496573167,4.5102840950500783E-4,-0.014560489514908192,5.669106811821579E-4,0.40951972939926795,-1.5253416565921118,9.167072350936807E-4,0.1890425682921854,-0.0010293948764676791,-3.1114952536112866E-4,9.343755780332134E-4,-0.3186775192951012,-2.1867426580409366E-4,-7.128910494623789E-4,-4.8824521411460625E-4,-0.3186775192951012,-0.3186775192951012,-0.3186775192951012,1.0193837288498069E-4,-2.9199484698300626E-4,0.26474793618869435,0.26474793618869435,0.3406195760302314,-0.9830681525170184,-3.1757692580701425E-4,1.241786361914571,6.572819915893438E-4,3.8736206982031623E-4,-3.4713350284775065E-4,-7.580941810866305E-4,3.555457819231114E-4,-6.781411408820067E-4,1.0561112104897112E-4,-2.2005905101173076,-0.5411103071506949,-0.1118797820775426,0.42559912664066046,-0.7096940316014775,0.0012906813551894145,-9.301620574982336E-4,9.258695706331665E-4,2.4177926769225813E-4,-7.492317812683486E-5,2.042584819814525E-4,-6.534238943029766E-4,6.879763767508177E-4,-2.0138448533361768E-5,5.216076946875661E-4,-4.8245364172832525E-4,-6.986196467193035E-4,-1.2360236243006025E-4,2.8214128252235194E-4,-2.0514115262520657E-4,8.38114988608094E-4,3.0355432411577495E-4,9.84094702576186E-4,-6.163354418724647E-4,-2.137519642911327E-4,0.40521817097167867,-0.0691122347628779,-4.2248836251737533E-4,-7.294045929210636E-4,-7.294045929210636E-4,-7.619395553989486E-4,-6.690801079726268E-5,-0.4469299281664503,-1.4830982882639305E-4,-0.7747085789299369,7.963764638336725E-4,4.402136874930081E-4,-7.36042348777255E-4,2.3771947595856743E-4,3.253916987020764E-4,-0.0032450725280403856,-3.9531968365978676E-4,2.103819983063583,0.2243621149021623,2.4029062045889562E-4,0.3070702639362289,0.4128286647966608,1.1461377130362305,-0.17212150664136092,1.4887963744663653,1.1824517486875503,-1.679547737034779E-5,1.0338230055835966,5.900083618058514E-4,5.900083618058514E-4,1.9028891827095173E-5,1.9028891827095173E-5,-8.495615513755429E-4,-8.495615513755429E-4,-7.820968549566679E-4,-7.820968549566679E-4,-0.10117635519474669,-2.275468035804222,1.3855404121152501,0.30500378127619626,0.3280601487746067,0.3355312492935035,1.2122218055319764,5.28808691586023E-4,-0.15583215519681815,4.021986116320064E-4,-1.0513151640567455,6.995438613871371E-4,-5.47576398068292E-4,-5.47576398068292E-4,-0.3532364561041577,-4.5082049890019524E-4,7.729516148805167E-5,-4.4804018995055076E-4,-0.3532364561041577,-0.3532364561041577,-0.3532364561041577,7.960705927627806E-4,-8.077016956079436E-4,1.2734159366635826E-4,1.2734159366635826E-4,0.07756351099702598,1.371177923636626E-4,-4.5713718652831627E-4,-0.28646091287883985,5.553089418496259E-4,5.553089418496259E-4,-0.37170361520120987,1.0328199085972645,-0.28646091287883985,-0.28646091287883985,-0.18131055005478203,-1.476965196449858,-8.658577189121086E-4,-8.658577189121086E-4,-0.044501085485498894,4.527738370374921E-4,1.330404613151886,-0.9084888714463959,-0.44095064927274535,-0.44095064927274535,9.411460483370198E-4,2.982166150044855E-4,-0.14824751336484782,1.6501874592306595E-4,2.900860923466908E-5,7.192038277918321E-4,0.20416238701318892,-7.765365315567057E-4,-7.765365315567057E-4,0.14936822335834257,-2.265547277754314E-5,2.662798158961288E-4,0.33653294222039054,0.20416238701318892,0.3794217181961365,0.1116393771288234,-0.16273366932038383,-0.010763620094299625,-4.5912607911090947E-4,9.656525847494104E-4,-0.19816117065516525,-4.5034467664946485E-4,-5.009139344002131E-4,-5.9168327705477405E-5,-0.19816117065516525,-0.19816117065516525,-0.19816117065516525,2.290210461916944E-5,-0.025553156419553826,-0.050150567593773565,-0.050150567593773565,-0.42070081776928914,0.3362797708149469,-4.388965213822836E-4,1.827395407938826,-0.08224778617500629,-0.5202130478712311,1.0036193957445533E-5,2.2864637604311732E-4,-9.67001469809646E-4,-7.953780606688855E-4,3.9617427298732427E-4,0.3663560292413704,1.2010606922542208E-4,-0.34168216884371266,3.251213029147732E-5,1.2010606922542208E-4,1.2010606922542208E-4,-8.152903747872611E-4,-8.433961788243346E-4,-8.433961788243346E-4,1.168363891197999E-4,-0.19159676004539328,-8.201300166255294E-5,-0.2836485512756123,6.928994113097777E-4,9.302900683612516E-4,3.4539751305277735E-4,8.741579740993001E-4,-0.025448915747512138,-7.951672538098582E-4,-7.951672538098582E-4,0.10371651925192103,2.4563794621569786,-1.733951454292845E-5,-4.3479281125078403E-4,3.13966268255191E-4,2.790466107156417E-5,4.280942555202206E-4,-3.469556716581627E-4,1.6239345569135492E-4,-0.03587560590751087,-0.03587560590751087,2.2768279635758555E-4,-5.746110029165384E-4,4.617412723180057E-5,-7.678276107799969E-4,4.957749061649215E-4,-8.249449281174395E-4,-1.6850836437888144,-8.64318480419791E-4,-0.05756894341704482,-0.3982161339538267,8.614926045445925E-4,2.6929866823717985E-4,0.156689023679978,0.16729948751007237,-3.024171880690813E-4,-3.024171880690813E-4,0.156689023679978,0.156689023679978,0.156689023679978,-0.06439574342005691,-0.8698734176481336,-0.03813308991311068,-0.03813308991311068,0.2984543793144781,4.713269848521072E-8,-8.351718520219667E-4,-0.0584298112249107,-9.832533454072164E-4,-9.270008033134595E-4,-2.754951934934767E-4,-5.267652906210594E-4,1.8362083951951554E-4,-3.752208053862929E-4,0.306430123940191,-1.775912959727979,-0.2254824113352577,0.36074421049693817,-4.224261735621877E-4,-0.3320201662392027,5.156581639516843E-4,-0.22621520043541637,-0.22726867308376036,-0.036691125899732696,-6.44656203689125E-4,-8.523166181254645E-4,8.28594737957099E-4,-1.1934814299663777E-4,-9.086720803969388E-5,0.02059430533995464,-0.07295624946234165,-8.536915395207642E-5,-8.536915395207642E-5,2.2132128893146048E-4,2.2132128893146048E-4,5.699952157867922E-4,1.1551389062528276E-4,9.242774608920774E-4,-0.04900852675662361,-0.6408204830075714,0.617392222156026,7.552684831303291E-4,7.552684831303291E-4,-9.274782963079388E-4,-0.02415265050378801,-1.5628864695922016,-8.209046404728707E-4,-1.149554414657851,1.4761613573774108E-5,1.5826083941478043E-4,-0.042298122607145376,1.1904618448642388,1.2216381982843647,0.42133639881640006,6.019713751393431E-4,1.341635539766024,0.14328384974305994,8.836216159922236E-4,1.3484812469589071,8.624320296321962E-4,-0.08107719958398446,0.13977035955147757,0.2786084712163463,-7.530012700139202E-4,8.012058975214852E-6,0.0850505897920106,-0.25221056210568754,-0.33495623435139243,4.6489273766760317E-4,0.0850505897920106,0.0850505897920106,0.0850505897920106,-1.0117832167306373,0.4009561213460622,6.384675026467838E-4,6.384675026467838E-4,0.16784416429944998,-7.265806367497277E-4,0.36484506566365305,9.886743511498103E-5,-3.946404923454689E-4,0.011499179774164207,4.130276878690849E-5,-2.837741923280232E-4,3.989338359248226E-5,1.7962850764881668E-4,0.33000792950830593,4.977456059924612E-4,-4.3410208253362404E-4,6.828788962300525E-4,8.77728163839942E-4,1.6980270440981058E-4,-0.11296932073987628,-0.11296932073987628,-8.000621145849908E-4,-6.783777203733391E-4,-3.542553369866035E-4,-0.16291563121704408,-0.008560956732118716,4.7028347760409727E-4,7.005190591539067E-4,-0.16291563121704408,-0.16291563121704408,-0.16291563121704408,1.7364579608933448E-4,1.1257477362226981E-4,1.942091472768141E-4,2.412381265630534E-5,-3.6675792586881445E-4,-8.378255627959602E-4,2.0914670933987103E-5,0.4136996011107472,8.914488583562741E-4,-9.121648776553066E-4,1.6676911047630106E-5,8.82824558427179E-4,8.716109078286199E-4,-5.841734525942415E-4,6.6046392294349075E-6,3.3736304667552654E-4,-0.11676174863792069,2.8407994151562546E-5,9.154183171880953E-4,6.994339057557744E-4,-9.443853456945618E-4,4.273520196039456E-4,-1.4577932613585743E-6,9.827608289740863E-4,-0.10780742083238844,7.056138862186445E-4,8.627644382447936E-4,-0.6787352580504815,0.233067371001265,-0.041909240649365714,-0.6278736770745462,-1.2316087120530081,-0.06057412539606119,3.839624352893268E-4,1.8952484269150978,-0.06935974068078767,-7.82273067678565E-4,0.058356147005906384,-0.12741475385659198,-1.9837239403901782E-4,1.7090323594567267,0.07685960086698806,4.5549955194198327E-4,0.30212405389495833,1.7090323594567267,0.973466786995205,0.973466786995205,0.8839542444642423,2.789360302299902,6.514218532534344E-4,0.3732099671223744,0.45001467083127883,6.501987402519349E-4,-0.011315246366600092,-1.4520429433383586E-4,0.5974233908091783,0.8405032516988552,-1.6115708673684228,0.4304415261560382,-0.10166882637353508,-0.10264423429808041,-0.8664932013265003,0.7359390692300866,0.1843639173680934,0.18380322545997962,-7.220354961901985E-4,0.08754133177336147,1.5237390625457576,0.3528900328707867,0.8017299058361418,0.27465919958616636,-0.4055471051352498,0.5632606493520378,-0.7105490191532003,3.3956956743361535E-4,0.011289703538046184,6.360272237242541E-4,3.373483676685625E-4,0.22362306613548535,-0.09271423563705536,0.18202147155331688,-0.39085854506739304,0.1792236880170182,-0.4415977979856551,-6.98860248319149E-4,-0.95536646935799,-0.95536646935799,-0.95536646935799,-0.38407815301206794,0.16157666818843117,4.219675398148988E-4,4.219675398148988E-4,-3.2911585258207877E-4,-3.2911585258207877E-4,-4.59721991691555E-4,-8.253932486547385E-4,2.1252504390000504,-0.215940978673215,-0.6760546449074204,-9.634416294824232E-4,-9.103664973613856E-4,-1.5220160455687575,-1.5220160455687575,-1.5220160455687575,-0.103998110162252,-3.437655000861265E-4,-0.037582980356136456,-5.122008861450085E-4,-2.685118098195916E-4,1.2249083179885554E-4,1.6739848115603908,1.710226959994087,-1.1322696991336565,-0.8767870298001308,1.3496384667896197,1.5356125195393047,7.140152498313885E-4,-8.35724450098891E-4,7.140337773796885E-4,9.335381885879266E-4,-3.8711676153152183E-4,-2.539625616438929E-4,7.280371235257931E-4,-1.447290714988982,8.233446303699034E-4,4.568508025915548E-4,0.34899670546196254,-0.22568683972466225,0.15394904789511413,4.719620124311639E-4,0.5494086946232208,-1.0164967410785492E-4,4.076154211505537E-6,-1.3224077858821023E-4,8.716516676013165E-4,0.155471840657397,7.523823638819053E-5,2.6035727845765495E-4,-3.163246041080122E-4,-0.07573341799411273,5.203262638524719E-4,-0.3259743076264566,-0.5450066736909522,-0.1265146093260362,0.460425936794217,6.14625612111775E-4,-0.1555672514883401,7.941375740493262E-4,-2.5492544036685E-4,3.854508754175981E-4,3.854508754175981E-4,6.731037987954025E-4,6.731037987954025E-4,0.6725201790007067,-0.1721671741370988,-3.925595732983448E-4,-3.925595732983448E-4,1.4040393717604123,3.8684596741846313E-4,8.26158084035435E-4,4.1737343011718836E-4,0.15864410909474236,-0.004583602434149631,-4.944348675454408E-4,0.862580055114307,1.3462457278135183E-4,0.1310531542011586,-1.9185969191897812E-4,0.5043724269329646,5.258903637941673E-4,4.6082985056704784E-4,5.78444160519103E-4,3.0461624912423097E-5,-0.11629156932280511,-7.518771675163671E-4,-2.864530051540571E-4,7.44660862852815E-4,-2.634274668894943E-4,1.6598541836289576E-4,0.14514678013696972,2.370260601267354E-4,-0.16122879903871817,-1.4541350618764504,-0.26558467145735193,-8.734961233351894E-4,-0.343733448897698,-0.11553317259982471,1.466403112380139,1.9504900759583381,-2.2824524299758838E-4,0.24148937830319728,0.24148937830319728,0.8224401623466886,0.8224401623466886,1.5970019630419992E-4,0.17199450015277482,-3.526946757828075E-4,0.8822546517612496,0.04338701111165835,1.0817636303285012,0.03654353011480165,-3.878242635022033E-5,0.9306486672329096,-8.498748810131015E-4,2.3213083427513497E-4,-5.760189060174392E-4,-0.02773022643413104,-3.948265426449877E-4,-8.993911233422071E-4,-5.526823907093527E-4,-0.02773022643413104,-0.02773022643413104,-0.02773022643413104,-4.986940151992671E-4,-0.004814668217681896,0.8863743822440809,0.8863743822440809,0.8282235564311057,-0.0541673890951364,4.0526437508500734E-4,-0.7700026985634917,-0.343951752282686,-0.21515634993332938,-0.34097145389290473,-0.3940096102957182,1.9765240595736877,-0.013072379490249806,-0.0906604769519416,-1.8300410589953462,0.27608462904063746,0.5207164310078367,-0.29770126604090663,1.058858238395966,7.225683505784651E-4,8.855268820341298E-4,4.197276696178878E-4,-6.735848984165155E-4,-4.977075786011174E-4,5.285316794207847E-4,9.746087759851913E-4,8.104655817609845E-4,-9.857184375078871E-4,-5.624631379211666E-4,-7.17665243285411E-5,9.171924994826944E-4,9.91347943553465E-4,-5.147268990900239E-4,-7.31683299711589E-4,-0.16588885474190584,6.734933778880167E-4,-0.1451337064164232,2.797807678728906E-4,9.562717831218819E-4,9.562717831218819E-4,6.585970683478659E-4,0.8526186699100015,0.05148783581200174,8.193030988383862E-4,-2.2332567906305787E-4,-0.3968374812110986,-0.39287031948336426,0.016074435376111404,-1.6017324134540937E-5,-0.03710898813016083,-1.4936909987443717E-4,-0.676989576304441,-3.2421189395846187E-4,2.8076083276507187E-4,-6.924163979767758E-4,-0.009096208168096039,-7.362555332352252E-4,-6.715113120305444E-4,-4.802366497691866E-4,-0.009096208168096039,-0.009096208168096039,-0.009096208168096039,-1.772172819912909E-4,4.8643819373086214E-5,6.863379176868911E-4,6.863379176868911E-4,-6.774899168913778E-5,-3.225865225236909E-4,-5.134701099343033E-4,5.132795628068115E-4,-5.634993698204302E-4,4.0289596282527346E-4,3.468032906327412E-4,8.670709395746322E-4,-9.064959040720223E-4,4.0289596282527346E-4,4.0289596282527346E-4,4.0289596282527346E-4,-9.240110032111199E-4,-4.244360546710297E-4,1.2984361565823764E-4,3.9481376448127325E-4,6.909082949175579E-4,-6.718584058355345E-4,-6.144161451894715E-4,-5.817503348880728E-4,-1.4786788891902746E-4,-4.799742541120864E-4,-7.229758661162114E-4,-9.288029857103455E-4,-0.25346723402491156,-0.2540850902567786,-0.5537555907136754,-0.00864357971995595,4.87777529420077E-4,0.40217143084042056,-0.7014706611613416,-4.2613142387590275E-4,0.8615299630707411,0.32526763502859857,0.7425684646542633,-0.6149445408099188,-1.5845323859865572E-4,0.04729350014687094,-0.09727691214628008,-4.429186881420397E-5,-0.08186764017703362,5.467956261117824E-4,-0.34736713433981925,-0.039833491399355034,-0.40963373264820846,8.695853183264368E-4,0.10153858013451064,9.390206884032802E-4,0.17733904616071777,-8.059236844298133E-4,-0.16697312675670545,-1.3584337660200054,1.4330097198511171E-4,-9.441533598002352E-4,4.434766256883973E-4,2.0089752292008398E-4,-0.0883803165039845,6.909006300947123E-4,-2.098721854143701E-4,0.27746309754749804,-2.1419888480924537E-4,0.6440832365962836,0.16174804013019436,1.0164470201565075,1.1464238962916686,1.3881130180802639,-4.1144491954702507E-4,-0.9910951982419339,-0.34610437483359635,-0.34610437483359635,2.7313248247377994E-4,6.336965121249948E-4,-0.06858438786571788,-0.8696264522367513,4.535576081825943E-4,4.535576081825943E-4,-0.41534966709135435,5.9618150769515576E-5,-6.266354114990755E-4,-0.7503253984385945,-1.3805893904252062,0.030784470408966133,0.10409190493927978,-0.39634612479696635,-4.8082421230581955E-4,9.373856955828213E-4,0.7420683436203667,-1.5280344165083382E-4,-9.919295533435493E-4,0.917441192317447,-1.330286799193018,0.7420683436203667,0.7420683436203667,-2.3630060211285726,-2.9914224113572354,7.282392914815211E-4,5.786144092054577E-4,-1.822307549572234,1.8124722931915388E-4,-0.6787412121746186,-1.60912262586989,-0.0018290437943494567,-0.0018290437943494567,4.5914256146103874E-5,0.7193381021931791,0.1364477232590138,-0.09648342165994253,-0.41812016599250484,-3.1279053534627845E-5,0.29917266055380565,2.522368457221844E-4,2.522368457221844E-4,-0.42291154995871266,-1.9282771561304432E-4,3.7859235553850323E-4,0.022747409614601432,0.29917266055380565,1.3367120442568665,-0.1357148229177257,-2.656144766147628,-6.175065294781092E-4,-6.92068077390988E-4,-5.435247553702636E-4,4.904209736380667E-4,-6.206979307177298E-4,-8.640384346860262E-4,-2.2008705575816186E-4,4.904209736380667E-4,4.904209736380667E-4,4.904209736380667E-4,-6.621976178351266E-4,-2.667548759628732E-4,-2.5640932345019425,-2.564093166345213,2.274822287792207,0.17027698577314987,-0.011694062510863485,1.6376703339665062,-0.9636948189634414,-0.8141661977236396,1.5599661708624397,1.5599661708624397,4.612832589353344E-4,1.0742876108562585E-4,-0.380456249443708,-1.0312522217673268,-4.7800798114340515E-4,0.5298167250145581,-0.0449676284567002,-4.148600644046578E-4,6.602906236031095E-4,-3.9501035710503185E-5,0.5401162632994778,-9.98951082484378E-4,3.352143270175291E-5,0.5670103544229702,-1.9251902613929701,-1.2900045165584222,-0.2885454346339525,-0.3492997483013367,-7.461252478732413E-4,-6.460354300422002E-4,-7.899266963860436E-4,-3.04537783091114E-4,-3.04537783091114E-4,-0.03101835565394035,0.9871970616676963,0.791184614619913,2.0209665459927596E-4,0.31437266313017975,-3.4599810618794703E-4,-9.535654528051633E-4,-6.734124824953253E-4,-5.206370476155822E-4,0.3220604761238475,0.3220604761238475,-0.3677697313981612,1.3081369789794064,-8.423910649000693E-4,-0.5328351525995034,-2.6251202117936676E-6,-1.8685915951343572,0.062381207208442355,7.996350987085751E-4,0.6937500178679694,8.941298306002377E-4,-4.3627728878614994E-4,-2.7466703208418874E-6,-0.12126750356305539,-2.7714428753658114E-4,7.08741737769336E-4,7.08741737769336E-4,-0.12126750356305539,-0.12126750356305539,-0.12126750356305539,8.826363816576872E-4,-0.011653967858695595,-0.48269192642760206,-0.48269192642760206,0.6088156131014586,-0.05270207942550529,7.680302227667889E-4,0.43585755704309975,-0.23482242442475576,-0.1545787075354821,-0.8122110138251105,6.916719449487178E-5,9.047153787761632E-5,-0.06041606331917057,-0.03595338685195955,-1.8924381508053707,-0.3260372781607296,0.7585862667946632,0.45374201661097835,0.019274072560130053,6.046403268742946E-5,4.5301775945036957E-4,5.445870412048867E-4,4.889284497908616E-4,-3.904397731420583E-4,-9.151036748525067E-4,1.2553723308248766E-4,6.655309226205559E-4,6.674439053208155E-4,3.084433765261741E-4,-6.554488618694033E-4,1.2196808942681596E-4,-2.3448598944172602E-4,-1.992063622829382E-4,-4.4460929330884574E-4,9.110866605758605E-5,-5.142293409070839E-4,-0.8281496801062388,4.7256513787776084E-4,-2.3072790598441576E-4,1.1428684863057012E-4,2.1426547646953141E-4,-1.1218724061630825,0.11736072121560476,1.0895077158954033E-4,-3.4705134351482143E-4,-8.511710475380261E-4,-7.241895851527118E-4,-0.23750356249577237,1.2855628257979175E-4,-1.3090774823999387,0.5235861677719886,9.98528674502913E-4,1.121245891734531,-9.346327935758702E-4,-9.497836295523315E-4,-9.530823582137324E-4,-0.05730013568250812,0.015402565722198678,7.905836664584272E-5,-6.659916122567825E-4,-0.05730013568250812,-0.05730013568250812,-0.05730013568250812,-1.0816989016413617E-4,-1.889934135900357,1.1349061503684258E-4,1.1349061503684258E-4,-4.1749859237749307E-4,-1.3503082230036773E-4,-8.60898437661587E-4,-8.60898437661587E-4,-7.955104541621816E-4,5.38512554977966E-4,-9.741714161519215E-4,-8.756995745662919E-4,-7.955104541621816E-4,-7.955104541621816E-4,-7.955104541621816E-4,9.711110522392268E-4,-6.80436349601627E-4,-2.2031257447440626E-4,6.603269306627553E-6,-3.2332700384730246E-4,-7.651520147046318E-4,-5.90599028651707E-4,-8.983788754768618E-4,4.746615808700193E-4,-5.624085946805339E-4,-6.557327030781029E-5,-4.1296627128913034E-4,5.485686535304263E-5,-0.19256084096643164,-0.664673251681792,-0.9021476511063647,-0.6755961923432777,-1.8852814400419798E-4,2.465452530305643,0.09800296025111073,1.971482576983046E-4,-0.2724188890164885,-0.8983917568904404,5.146109314255272E-4,0.29268139382849295,7.853089048432557E-4,5.231961120868585E-4,-2.630861074146446E-4,-0.29254218689666506,-1.51977994390677,5.293917956375173,1.9169382449541559,1.8504804597307984,0.8764525724674137,-8.018183718837284E-4,3.945807258010326E-4,0.38401603407147794,0.4708553875383589,0.12657331525338197,1.5215362810033821,9.031152168311367E-4,9.031152168311367E-4,1.5006856494133314,-0.0030860193201270193,-0.0030860193201270193,-0.4016507195146667,-7.715169992223513E-4,-7.715169992223513E-4,-0.16499795315775992,1.0556326158544529E-4,1.0556326158544529E-4,0.5097067488848595,-0.15047201059376078,0.16441197721984477,-4.720409936400273E-4,-4.720409936400273E-4,-0.19698623697071438,0.9382451759298804,5.755242707703345E-4,-8.58583661511762E-4,-8.58583661511762E-4,0.4680318266759758,0.4282899427023791,-1.3421461244800046,-0.2627512026223906,-0.4137665290920771,0.10238403151078229,8.573801453756668E-4,-0.5297966764385624,-0.5297966764385624,-0.5297966764385624,0.25915106049456244,0.48207081214230757,-0.07258481303153622,-0.05278574681748135,-2.0442957127593555,1.7553595518228833,6.698921631398814E-5,2.1060411894772155E-4,2.236150387003124E-5,2.236150387003124E-5,1.4046677364173542E-4,-7.102914373856696E-5,4.576856626116966E-4,-3.7940360789786833E-4,-0.09953050957960762,-6.556741580661778E-4,-6.556741580661778E-4,-7.039927873875044E-4,8.992436573734235E-4,-0.0999085870582232,-0.0999085870582232,-4.6077534431901315E-4,1.2320941722600545,0.18155988447571864,-0.015210002905915128,-0.015233235800447815,0.8154679925942107,-3.6944583441932846,-0.5711842814816914,0.825855748786409,0.18604158941809074,-5.929181532500729E-4,7.557827152853075E-4,-7.946964134919324E-4,4.601482384498155E-4,1.3204780638039206,4.832676790873309E-4,-0.019064749492085094,-0.6892815211613658,-0.9537574555821784,7.623828261362561E-4,0.14271850532753916,0.4104736583531262,5.6417540039452405E-5,-0.4031994335678464,-0.4031994335678464,0.9349409710575352,0.2461764704735291,0.021677354098169024,-0.16159089836940377,-0.4325577003305348,-0.4325577003305348,0.6551663062329931,0.30999215642998673,0.6988165342757278,0.2526884711603439,0.030782774389124884,-1.0831202245059211E-4,-1.2277765091025512,0.4264034364483682,0.04114633441939654,5.693211590951505E-5,6.975891364678129E-4,0.37183663826603225,0.3266642134771056,0.15738115709747152,-6.975891364674896E-4,0.628102196305455,0.04945116801321828,-0.5387087773348547,0.16534275678984142,-0.44265829991239236,0.44668840938682475,0.4945566850511385,-0.04795290901800245,0.5902886609452274,0.3968136588787127,0.06813403624523258,1.1159289044023976E-4,-3.1322032372684537E-4,-6.763336274840109E-4,-6.763336274840109E-4,-6.5108442080256E-5,0.07441920694240209,-2.343602594480245,-3.04730558533914E-4,1.2875940842085578,0.4402961795081138,0.4377681686623758,3.3221424935759203E-4,0.23831515811400883,-0.185844812500148,-0.44792665344076854,-0.5973515035400521,0.8266723580936868,-8.461306608152446E-4,3.1851504012045373E-5,-0.5143951193791231,0.4357245281181325,0.7665326378043744,0.7197297079725274,6.363264259427407E-4,8.889887069346149E-4,0.3641458095712495,5.816163438275656E-4,1.169961695101317,5.4291043503215E-4,-5.297539429388711E-4,0.2971724441779897,-2.0847314813732167E-4,-0.3090813743200864,1.6487841561568838E-4,1.8537934324890852E-4,0.31761575313933854,-0.12066943962514695,0.21093508622918095,0.013978888938020795,-0.06748300981389983,-0.054390815366924604,4.5918479552661817E-4,0.2426197644780872,0.43900792741199157,0.018254343919466218,-0.10693504602259718,0.1571401467205866,1.9794518537519581E-4,-0.23296981826789914,0.39391600712308505,-0.08675863605117681,-0.20624439129331967,-0.1689679859429806,-3.5989809390039136E-4,-3.5989809390039136E-4,0.3588598419672437,9.810144149451246E-5,9.810144149451246E-5,-5.097462628406687E-4,-1.2500805781380542,-0.1064704804819508,-0.7895579967076876,0.3588598419672437,0.3588598419672437,-2.787965097475432E-6,-3.808297687218617,-3.8478882498062207E-4,6.036124018139817E-4,-0.24809060611795714,-2.231416603339194,-0.39410883234056543,-0.39410883234056543,-1.4590673759090116,-8.869741791888638E-4,2.8640002856270875E-4,1.7611614803453035,5.557484892961431E-4,0.23506766870794432,-0.3150061556811733,-0.9293037948346994,-0.05467333170904262,-0.10738702182061176,-0.030066854069380262,-5.984339445288677E-4,2.096295609180243,-4.635866226945167E-4,0.7438904368731942,-0.04162959520007743,-0.20469434801243175,0.23919212365569953,-5.461808990413938E-4,4.444479164544986E-5,4.444479164544986E-5,-1.1841114724431767E-4,-4.0153587060503875E-4,3.9156769926965715E-4,3.9156769926965715E-4,-1.1841114724431767E-4,-1.1841114724431767E-4,-1.1841114724431767E-4,5.316140862925793E-4,4.23931732810477E-4,2.0533917319729453E-4,1.4116118289242916,0.61932894694139,0.16842838605438998,-1.1029448678653602,-8.056983040898872E-4,-8.056983040898872E-4,1.360303542790662,0.2999734242468593,-0.21549293554970317,-0.6045876912386436,1.4274933729729617E-4,3.506603077132515E-4,0.34608113022100345,4.0399440964785814E-4,1.381472547576898,2.9288300377014473,1.4562252706308083,-0.012654237198979141,-0.012654237198979141,1.5222866480309237E-4,-0.033262597594324234,3.604085953239102,1.98640651834955,-6.350420156795052E-5,0.911598886297463,2.8798195550881283,-0.6824134662154878,-6.750752594067996E-4,-6.750752594067996E-4,-0.06173096915919958,0.30081380983071265,6.897832806505595E-4,2.9198692795084924E-4,2.3473163697117173E-4,-6.696762069039268E-4,3.959231682470663E-5,4.174956876754557E-4,-0.2250473272238503,-0.4383779375755158,-0.4941039519396137,1.7756035740582239E-4,0.9948023448602213,0.6331680119316593,4.719510478960111E-4,4.719510478960111E-4,0.9948023448602213,0.9885841197665772,0.9885841197665772,3.6509058668878756,3.989876017125485,-8.742437300690033E-5,3.008563400890181E-4,-5.646252081702746E-4,1.0832078684051243,6.787552276946876E-4,-0.639966368325616,-2.2630683477178198E-4,0.1051603894778696,4.6305223771465486E-4,-0.167411266884356,-0.5869814724949475,4.780112633870142E-4,4.780112633870142E-4,-1.0643673084364804,-1.0643673084364804,-1.0643673084364804,-0.059125879812379496,0.3860638113077148,0.056345787438439515,-0.0714957679851023,-0.1399277878651829,0.028733306488670986,0.13709356961247382,-5.49579374904817E-4,-4.3871680701596666E-5,4.2389552200455664E-4,6.695080597299628E-4,6.695080597299628E-4,1.709632770336109E-4,-1.7713359102292786E-4,-8.355924210596453E-4,-1.0574013922590546,1.0340167864083163,4.904998681265916E-5,-8.308228659310748E-4,0.519508655055199,0.519508655055199,1.7945632166494128,1.779889646557834,-0.4133831049074274,0.2461711481094847,3.510767613465818E-4,0.9644443484888516,-0.3276526829349276,-1.7288853522292756E-4,-4.7307633413061923E-4,-0.4323674431540301,7.229309618786617E-4,0.01644125079975518,0.01644125079975518,0.11596607610499408,-3.8647003714261047E-4,-0.4243076635039079,-0.057211340200414504,0.08920977475354355,-0.11202160744393308,-0.08535068001196781,6.833859054423443E-5,2.5082174797578095E-4,0.44313098729839473,-7.156103258117597E-4,-0.05388654321214888,-5.7862802275609007E-5,-0.22311164960749796,-0.11544655272378086,-0.04046319425896925,0.9430262531936993,0.6400655577026906,-1.1879889117730777E-4,-0.06974433229218777,-4.37625973621205E-4,-0.06838078783153993,-0.3932640925847108,-0.37535892135860166,0.7782406367662298,0.08814967595544267,0.2794606270244428,0.4651398711614954,7.100446511347275E-4,1.0216223390244607E-4,-4.2737593526718804E-4,-3.557011463175513E-4,-3.185399828943788E-4,-0.26138054531280114,-7.956559546241465E-4,0.04354252776126884,0.1452983275751494,-0.41335709657524833,0.3421662401575353,-0.08856258618946256,1.5666692214703992,0.6703838512800254,-0.25177753806401637,-0.047354196029492986,-0.025993391484782694,7.840680678106001E-4,-0.5963648352385932,-0.5963648352385932,-0.08319037546664265,-8.676442863067547E-4,-0.2515220099065264,-0.15586910547884228,0.2986486069858584,0.8313915800738961,-0.03492744627739196,-0.24443374870995055,0.1082567026822181,2.621502429970093E-4,-0.24993584619748338,-0.24993584619748338,2.7307052777092444E-4,-0.24272316456050366,-2.0979017462842764,5.095856317392996E-4,-1.3215554255865367,1.131483918631336,-5.910319539739118E-4,-8.228789792522707E-4,-0.45368441015982985,0.44247578756309786,7.183293668980286E-4,-1.8630033931042928E-4,-0.12151347902527466,0.3710118577496066,-5.738567652535899E-4,-7.564363549916517E-4,-8.880219364445693E-4,0.34127730513263355,6.763908819537887E-4,3.7374516673377076E-4,-0.4689940043880357,-0.2530346128448622,4.963438987020704E-4,-1.6141526685394198E-5,-1.1682751588778465E-4,9.834747864677993E-4,6.56764246363905E-4,-0.024937278576199116,6.894737366760248E-5,9.641623874634718E-4,9.641623874634718E-4,-0.024937278576199116,-0.024937278576199116,-0.024937278576199116,3.883816455710928E-4,5.9823319235902E-4,-2.205562531027187E-5,-4.683455639230673E-5,-9.673041847032629E-4,-6.377665784468665E-4,-2.0881736272880014,8.505938428643041E-4,-6.055438260516542E-5,-7.282395716952113E-4,-3.051485163957702E-4,7.327811640117209E-5,-1.0713804516345213,1.9823416891897282E-4,0.2225017034677365,-2.4320015356540416,0.5560087262272653,0.04584449913349746,-4.218981961969649E-4,-0.0020227420293438382,-0.689600081834145,-0.22457465560030118,0.6408576869523288,-0.09238277029157863,9.528831316919782E-4,8.487630463394435E-4,-0.4536612596506524,-0.2797517731805128,-0.11679480879086619,-0.10689977206022032,-7.488979484288367E-4,0.6283086175334032,1.5745695390248802,0.692200739487217,0.5314276681028659,1.4625463231783937,6.811119802584782E-4,-2.041370440825093,-0.10371651973328315,0.6403192589385983,-1.416095903675197,7.88099508949802E-4,2.0601563821093455E-4,5.010267700594842E-4,-2.3110622457882203E-4,-6.11860303155641E-4,-0.009663214088500599,-3.56772267916212E-4,0.09203898381564443,-4.4696455985493715E-4,2.0029959196584555,0.047983455680820304,-0.4360884911001361,-0.07522349768150244,-0.2722177881551403,-6.263931298231587E-4,-6.263931298231587E-4,-0.029012673312557996,-4.710686986569711E-4,1.515410235275941E-4,-4.710686986569711E-4,0.056413842298251554,0.019296990908657122,-0.11463738237987951,-5.047522342244242E-4,3.719085220802831E-4,3.536036581656087E-4,-1.3498416306751901E-5,-0.10468381611507013,-0.044567013561151156,1.604718187759736,0.090524266648038,0.5463751061329555,-2.0998303384829557,-0.6345042442362778,3.974773785281288E-4,3.782119627255738E-4,0.11831011922397716,8.887331748330277E-4,-1.9005539487555647E-5,-1.0030615813575697E-4,-1.1532156516676348E-4,-7.984833263442996E-4,-0.04829241906677374,9.870526220552703E-4,-4.103279457600971E-4,-8.159552102173779E-4,3.8277918578227244,0.5536051117103938,-5.853749249110363E-4,1.6753082934359515E-4,-1.1791290191560913,1.3537822741767234,2.8263020341999317E-4,-0.3476311321264818,0.009275216552195417,9.850666338590737E-4,5.029580033319404E-5,-0.422489948941175,-0.19775557645216388,0.2760724631214645,7.973724084024295E-4,-1.0338776243230775E-4,9.164032627799216E-4,5.302923949465073E-4,6.049844638231579E-4,-0.8477965485180221,5.295799156000947E-4,-0.06123314185929503,0.26175230042356523,0.36889829470728575,3.673226767050625,-0.20318068926562644,-0.20198928638901167,3.118379948022133E-4,-2.8235866410862597E-4,6.503187324069524E-4,-6.685629783957012E-4,0.1884061218098419,-9.137020831052551E-4,5.947973120389408E-4,7.742370435156996E-4,-4.747806132166833E-5,-1.288685741609862E-4,8.488500532153324E-4,1.2268835328357592E-4,-0.1686286489977955,-3.5670033989972625E-4,-2.6743214711739364E-4,0.3690211192990056,0.31023604161734497,-6.888093076138171E-5,7.389898589444247E-4,-0.01703335004083235,-5.451986923068205E-4,-0.017175978865423647,-0.2062537466997226,0.06676247883968074,-0.13750740726996324,-0.4395104329034058,0.2561577563547615,0.26666069727587094,-8.100098394972758E-4,1.3476122168657248E-5,-2.1104393283428449E-4,1.7342771058141855,-0.2414716118506434,5.260151952657904E-4,-5.611407141401785E-4,9.693345283732015E-4,4.2747519015422664E-4,8.453806654751803E-5,3.8280616975581213E-4,3.8280616975581213E-4,-2.4071679196179256E-4,-8.876933093688258E-4,3.719042596411566E-4,9.576402633960881E-4,1.9651705989452475,-0.19134210131001606,-0.40207509793225854,9.895694271192985E-4,5.489019270990466E-4,3.6398900013061205E-4,-5.048036532905062E-4,7.077274508118794E-4,0.5473538938594049,7.821433114706193E-4,-1.6448242488948948,-5.766949289027566E-4,-0.07590144884219456,4.3660348441710824E-4,3.599643307226354E-5,-3.164298295432592E-5,-5.262360634927469E-4,-1.2440108607809897E-4,0.4573067941273907,-0.18375987560741874,6.415141611576932E-4,-7.269699663592278E-4,-2.6216721403823633,0.24361278175130754,1.810730676049211,0.2568719739861993,7.19787280003538E-4,-5.421558320274839E-4,-0.7466039502554055,1.4409286124074253E-5,8.995409517186057E-4,2.229255351043995E-4,-8.527067200347197E-4,-0.08504476399132466,8.992153749065292E-4,-5.207017422616588E-4,-1.8572669975718805,-2.515040441397707,-8.343742394316563E-4,-7.316726469553293E-4,3.408287671749288E-4,-3.6573047539219315E-4,2.1437497884824815E-4,2.1437497884824815E-4,-1.6087979684943925E-4,0.21311727181154974,0.4591101576341447,6.650247579174373E-4,0.33945883508197394,-0.9646920780669689,-0.21937230565075047,-2.566584210359304E-4,9.199897079746374E-4,-0.06408059405217247,4.3780250518122427E-4,7.405241651484561E-4,0.23092942064631905,-0.007020243481482096,-1.2837381174347516E-4,-6.197318109493572E-4,0.23092942064631905,0.23092942064631905,0.23092942064631905,-8.680569304295908E-4,-0.16079062226168442,-0.11044245272891541,-0.7301633320880985,-0.005922103563635464,-0.005738533629649715,-4.757065288609006E-4,-9.99194051983831E-4,4.763429270258728E-4,4.763429270258728E-4,-0.1013407817483056,0.7475216814268981,-3.258919079044916E-5,1.6148798903101072E-4,9.744142768320207E-4,-5.552062932257752E-4,-3.640992214550505E-4,8.194296189657985E-4,-3.814360527628212E-4,8.1628864523041E-4,5.403684107394444E-4,-6.688753716247457E-4,0.4220179609008989,6.955594033251145E-4,0.42408331871763066,-1.2198487002668785E-4,-9.612945216266671E-4,0.4311526854575316,-8.900971900991357E-4,-0.018237055147677678,9.252861357950933E-4,9.252861357950933E-4,0.4258583375814308,-6.441257282067134E-5,-1.6860175788389236E-4,-0.040880105043736854,0.13978762290549362,0.26907101241267156,-2.8868214251622122E-5,-9.214848065090119E-4,2.669350757088327E-5,-0.017456488869473413,-1.0152733046297244E-4,-5.489006224145308E-4,-6.212111397855313E-4,8.122999920756738E-4,0.2322250875701486,1.0360483908199964,2.8269322583755415E-4,-8.706016904515823E-4,-0.3489871419624316,-0.0072834532016473,-0.007055252545056473,-4.0824412480306566E-4,-5.380684134320048E-4,-0.001973625764239973,-1.1618819795994816E-4,0.25818875674312547,3.591152196885177E-4,1.1200221574471294E-4,2.550658069374698,0.2535559386617348,0.20448894913666435,4.1418358882688443E-4,-0.4281316710211251,-8.07360737360069E-4,-0.04586795136860135,-9.281946305117526E-4,-3.4320232423220567E-4,2.640080095573619E-4,0.4898638135402126,-0.061455592373327234,3.867329718120093E-4,7.551382366217979E-4,-0.9860835011510467,-0.4760701583351987,1.049133827713629,-0.6628421977105118,7.718617579345697E-4,-6.759406154956038E-4,0.7048927655586872,-0.5399269526531374,-0.46186273461854777,8.593817665200672E-4,-0.08572646469376871,1.2865900257482554,3.0647580218918363E-4,-9.26972316864016E-4,3.7944105631663007E-4,6.445500234471912E-4,6.445500234471912E-4,2.1410069635292882E-4,-0.04994779352790281,-0.37451510981956665,8.44529649844758E-4,9.227919639026198E-4,-2.4245733685245616,-0.46834544873252926,0.3856759318510364,-4.3778079804232344E-4,4.254833867807335E-4,-3.606449207076909E-4,-3.606449207076909E-4,-0.016831775636471875,9.16383799244949E-4,-3.5396659223329023E-4,-3.5396659223329023E-4,-0.016831775636471875,-0.016831775636471875,-0.016831775636471875,-2.5856614193780494E-4,-0.008579396452711845,9.160202016865156E-4,-4.9199207814752156E-5,9.135775952202464E-4,-0.05523862591708595,-1.3748601561474056,-3.9009810284567985E-4,9.95387365582915E-7,4.1746932390919E-4,7.917363807206049E-4,-1.5079240886096672,-1.345000090158275,-9.775798479825367E-4,0.22289524238376743,-1.109026830741972,0.6070555216275613,4.0227057500153394E-5,-2.990655961551999E-4,1.0321346555094502E-4,1.0321346555094502E-4,6.155880747757105E-4,-0.9581994301163625,0.04272939165632857,-3.85388978888082E-4,2.1020729586694142E-4,2.1020729586694142E-4,-6.3478619407373975E-6,4.564123824575355E-5,8.683418238671925E-4,-0.040430852082862644,-4.071469131326543E-4,-6.659691467812395E-4,5.679512476587171E-4,5.461385394555832E-4,9.284480194985527E-4,-6.004438170873934E-4,3.6086482152106604E-4,4.614761428677461E-4,5.569267263423651E-4,5.517076637430892E-4,-0.23894986017938505,0.57874729241201,0.19865370598025847,-0.0035944598363317967,-7.202958468556916E-4,-6.751942358103062E-4,7.024326482724425E-4,1.48639975647521E-4,-1.814208342402131E-4,1.0317105038818775E-4,-6.883346091706221E-4,2.9307062530903674E-4,2.643623445602576E-4,-0.4860820805973427,-1.956498147166455E-4,-2.370206345816868E-4,-8.120792334783012E-4,-0.2708398799562196,-0.7868058039450444,7.687752357293158E-5,-0.0918441923514395,-5.846871507365841E-4,-6.064546481110895E-4,3.395238229087429E-4,-0.2057780217946883,-0.00666463555595263,-1.3318815697365349E-5,-7.444337339859949E-4,2.6109304643718895E-4,0.9862361738081291,1.1033645325895876,2.8981051485132714E-4,-4.9178904797373725E-6,1.99754053584376E-4,-0.0013020647628517493,3.6716920613139763E-6,-7.416303493630392E-4,9.060600399778095E-4,3.938798288769475E-4,3.052526844583778E-4,-0.07960087045524303,-0.00841504331468888,-1.384740109456672E-4,5.449847281874395E-4,-5.367485066256465E-4,4.721622408578221E-4,2.074881794353414E-4,-0.003208529522606073,4.32005648145778E-4,8.230539582308781E-4,7.935942266762315E-4,5.348554700523091E-4,0.2345734675186326,-8.820134769532583E-4,-8.938751904903476E-4,1.060856296986191E-4,4.814096009809489E-4,-1.526683029422131,0.41853884773097916,-4.2028450653888087E-4,-0.42352516374890115,3.491660237294274E-4,1.52987441011229E-4,7.437311463532404E-4,4.090008286055211E-4,2.1644041687626412E-4,8.573273455415914E-4,0.3228215683975117,-0.37635856488896197,0.8279577652215281,0.09878385194793617,0.4359607755970714,-1.7785808460797192,-0.6784534335115543,0.7216091021318719,-2.873745752323849E-4,-3.0625614030843E-4,-6.262137058956353E-4,-6.740023016515214E-4,1.6079027534844853E-5,-1.1254841083087124,-2.4355980074056887E-4,5.859004484927435E-4,3.9458433387232813E-7,0.6068775767035626,-8.077521714171061E-4,4.3039824998745545E-4,0.6453687818098903,-0.3308940658785805,0.4789771104152176,-1.0977464470163765E-4,-4.252444648634296E-4,5.837368714500097E-4,-8.443731528924404E-4,-8.443731528924404E-4,1.3901680768153737E-4,-1.290548492539499E-4,5.059841768432422E-4,-0.3382339102648296,-0.0968841397097638,1.1633271039217083,0.13332973071697096,5.0984813398407126E-5,3.5679652518330954E-4,-9.849535914364402E-4,3.012580531878413E-4,0.5388347768267246,-0.2803917854553792,-3.8608564471567883E-4,0.14410904726913235,-1.1382467549577433E-4,4.7740859981717674E-5,-9.364748497978843E-4,-9.364748497978843E-4,4.4018030232531114E-4,-4.617243331700492E-4,0.41916508088183796,0.5492823350256737,0.5492823350256737,0.3892084675615104,6.048068825855589E-4,6.048068825855589E-4,7.478552165606661E-4,6.239627145060323E-4,6.239627145060323E-4,-8.675010861877308E-4,2.3432682115707613E-4,-6.819038179420229E-4,-6.819038179420229E-4,6.612350855800343E-4,2.5269925486758824E-4,2.5269925486758824E-4,0.20419093400998406,0.46522488550444296,-0.36202437859461234,0.09295083208049819,0.09295083208049819,0.2917329022325961,0.685190196319886,0.3668438467392417,0.05294068354078917,0.05294068354078917,0.020361478873543337,-0.15904132176161104,-0.09055691351678709,-0.8624480989325309,-0.4717236049426477,-0.03386073162948913,-0.03386073162948913,-0.14334355714910538,-0.7023106653302047,0.9267549889707196,-0.24896839000870588,0.25353516357880823,0.22520670305449644,0.43148876886834675,0.43148876886834675,0.2729967271601589,-0.3574941710549359,-9.05691483265884E-5,-1.5084970034098157,0.3495042379537482,0.856572831171922,0.02470221465286945,0.574120137984884,-0.03579159563391812,1.873651091243221E-4,1.873651091243221E-4,-0.007516953966062606,-0.09297327678817474,-0.05008151045848182,1.2537930324397706,1.2806906082504428,1.2806906082504428,2.97452349810703,0.11989095081334569,-0.12244930545130822,-7.266083496098056E-5,0.025028148849388445,-1.730341948559669,-0.4697157684836711,7.557955731118285E-4,-7.860188307488195E-4,-1.1451523995644066,-0.19653393518053316,0.027164029481466297,0.4331758013326159,-0.5561272212268483,0.5488443990358406,1.7760667154443775E-4,-0.1244927997431278,6.257605873919603E-4,-0.8453829207953163,-1.6348793475718508,-0.15111512660177961,-0.4032199223569133,2.6251048817763314,1.9257061419302521,0.2542089900726729,-0.06009941566726404,4.270541056625683E-4,-0.23703328737829277,0.24911656334847398,0.8444555956966335,0.814978086427515,-0.42920390748687687,-0.027521036194068475,0.06549455228745597,0.9176399023904748,0.5576053513426158,-0.06307928573788586,-0.7802475331619505,1.0699561952763887,1.2514355078630488,0.6598902611421009,0.6316175723029823,1.0699561952763887,1.3183959093842414,1.3183959093842414,5.3867226686795995,1.5165115138102567,-0.020132624203934774,-0.052090750093649815,-0.02871163670593929,-0.13232066998327732,0.32184125543750497,4.516279105534688E-4,0.8812040861357149,0.1992868022145756,-1.6309744216061135,-0.4531522038350599,-0.18299274920806194,-0.12153968902426868,-0.5753493793581675,-1.5876822603241554,1.4814884197669906,-3.640522154451612E-5,1.4882863900830096E-4,-0.4642689395953756,0.03261912636593346,0.0011471961079366896,-0.18460173607588556,-1.4447045200562114E-4,-4.721454819715961E-5,8.093854994168189E-4,-2.8014475371740057,-0.39440606606365874,0.17193580940659603,-0.690619839604434,0.4000571338615714,-0.2321575575278349,-0.007104193855238939,0.7860974561967076,-4.6378073419972923E-4,0.14731948933761807,7.870110575280074E-4,2.311384225927634E-4,2.311384225927634E-4,7.465726014462652E-4,-2.6763678400471425,7.61880839621528E-4,-5.455864990486876E-5,-5.455864990486876E-5,-0.5568591417765312,1.561011037306151E-4,5.613960779860367E-4,0.47284491320431016,0.5814035142840903,0.6364849493829619,-0.011928656456356906,-0.012563840032368344,-2.0284151595156537E-5,-0.13283256134746585,2.503521805799632E-4,9.681612620232093E-4,4.569208437862071E-4,-0.13283256134746585,-0.13283256134746585,-0.13283256134746585,5.209134844134874E-4,-8.426272214760164E-4,-0.003247955903961826,0.18397684623110971,2.644947060197241E-4,0.36024163669925585,9.412632084087076E-4,5.77004858194775E-4,3.456578867681694E-4,-4.896423975946239E-4,-5.7439126313707E-4,8.85673427314542E-4,2.1788741984686535,-0.16145907438034002,-0.4256015992023361,-9.155430215014738E-4,0.22764262674468244,-8.41910342051359E-4,-0.3573421158581218,0.09507271602885146,0.00468888757549465,-8.749949790926514E-4,0.9084535698022582,0.9084535698022582,2.8729588091070646,0.08513847365364191,2.24417874053473E-6,-0.328295882203744,0.011582973654836258,-4.7536231526937355E-4,-9.246160316089985E-4,-6.261267339443731E-4,-4.079964826458095E-4,-9.788137174625074E-4,4.668580013685379E-4,-8.231925134687857E-4,1.6724349656672467E-4,-0.042399479592288486,0.5074680499628589,0.5074680499628589,-4.330623697499014E-4,-0.27574314613415674,-0.5095450962302016,0.2758425729085719,8.412834232847477,-0.1878417915880998,0.3423350129865533,-0.09562277714484924,7.093494521612518E-4,-3.3068956547292793E-4,-0.09732982941141541,-0.38610278559789246,-0.9800866306921777,-1.6243855906759688,-0.3558177507882018,0.18957095447644964,1.1397250745588612,1.1733552485073375,-0.18804862779358913,0.4983221703258,-0.23074532873724066,-2.0601359377573254,-0.394657859031861,-3.148498662951439E-4,0.44149050223591857,2.151797835623088,-0.0025227131628364,0.2268749810108815,-0.4864907561014547,0.013158919539889943,-1.892831858947997E-5,0.0629739936677623,6.027758752161542E-4,0.1425767938632671,-2.5720953493859304,9.658184206718101E-4,-0.26574695484846456,2.6782320624880096E-4,-6.663119237458998E-4,-0.8612760691176755,-0.008542913605713739,0.27287901440057677,-1.0973004110662603,-0.34541498594105513,-0.9139887339747296,-0.7533785591396065,0.24991352935411767,4.7510627011279226E-6,-1.476485038429973,4.959147696196983E-4,-2.4396326798445042E-4,-4.219919630562719E-4,0.6126367333350127,-0.077305355487917,8.515852142392194E-4,-4.4145255100853736E-5,7.956301915113112E-4,-8.652232848290942E-4,-9.049751699552434E-4,-1.1411930109381045,-0.4865071248733917,1.290334230284226E-4,-7.71875687322529E-4,-2.09954848675846E-4,-2.228198493048225E-4,-0.01671420373706,-6.734443325785093E-5,-6.734443325785093E-5,-0.10705021837215072,-1.297062273684351E-4,-0.30759797694745183,0.050501488689526274,0.050501488689526274,1.0190313729046905,0.4700536497854622,7.4462913425177475E-6,-4.6704762780581217E-4,-4.6704762780581217E-4,8.35867103827642E-4,9.761008479840137E-4,9.9326777884327E-4,0.10023158463532626,0.36331583899608944,0.24283575818695582,0.24283575818695582,0.03314343808104975,1.0217075601597785,-0.24149417027610157,-0.00531589160537356,-0.00531589160537356,-0.005296628898955583,-0.560116658400348,-0.0468054716889589,-0.004218908165359693,-0.18012669728102648,-0.11320612059644153,-0.8481089647652137,0.9992951977621278,-0.20400028822098423,-0.035031511196474865,-0.035031511196474865,-0.4524465102029219,-0.02138131272544123,-3.108287766027463E-5,-0.03911659592565728,-0.03574164341822672,0.1268391750526955,-1.2064365043365541,-1.2064365043365541,-0.01580247647399281,-0.04915706966906507,4.5175441184859685E-4,-1.1432174643059674,-0.12774298972527565,0.08973354798445218,8.600515640913039E-4,3.211110090039685E-5,3.211110090039685E-5,0.15613163810112574,0.11190223864726707,-0.5002006135342713,0.551959225263208,0.5505985855836962,0.6172038287736912,0.22814283793248885,-0.27071038840459555,1.095067134304676,0.03855452940649675,0.04049814454293414,3.2806402155270687E-4,-1.0709286182040985,0.04832986952089885,0.08426683875210127,0.05039603606165406,1.3158365281046595E-4,1.3158365281046595E-4,-0.014691142663658605,7.375075823589845E-4,-3.8428880597256017E-4,-2.0728230529077404E-4,7.166460892570521E-4,-9.105375739990318E-4,3.2891200775532156E-4,-1.1262003385969066,-1.1262003385969066,-0.59628757916504,-0.0067530295487397765,-0.01735145228604172,0.3525678668945415,0.05616010064938358,0.01355588404465263,-5.945564297121513E-4,8.350314414563212E-4,-0.055111986948454456,0.3831932198912385,-1.3592620989781596,-0.11343083930007,-0.5221135777553786,-0.0914079092090862,0.023114379808839132,1.5481311400276674,0.05112910576790607,-0.5823940443731144,-0.1104333278429343,-4.395283142116762E-4,-0.9403802777783472,-0.08978634365877666,-0.5655976809570692,-0.043084729410382036,-0.043084729410382036,-1.0657502557400989,-0.7393531601145615,-0.9084862869026812,-0.6270631072152082,-0.017983315272966895,-0.6654400139821689,-0.007915719643925586,0.012798229170859883,-0.030755777463729577,-1.3576342619523937E-4,-0.015878492984006523,0.49852240164636596,0.49852240164636596,0.5604232689650943,0.3184657008013061,0.12816727379285106,-2.1682684519336033E-4,-0.6818921210627241,-0.45527151659530957,4.972914877112324E-4,0.7732177935399172,-1.0377514630171618,-9.70460174115363E-4,-7.016983708204211E-4,-5.409449460357248E-5,-0.24356301774498695,1.5019148434063114,-6.066356149059446E-4,-0.20743815099396362,-7.969696665838834E-4,-0.015310126046451029,0.8391366755495094,-1.3742594688103316,1.406876462237001,0.5104127593870181,2.6609515240154593,4.723419401850154,6.725663270147966E-6,-3.909797381073054E-4,-0.24757756659855049,8.256810495480228E-4,4.067093361686115E-5,-3.320836497511351E-4,-6.014901728396084E-4,2.825775178951186E-4,-2.473641065584024E-4,-0.7296337446674637,-0.7296337446674637,-0.17588578337972322,9.443410730614112E-4,0.2611188554917762,-0.11243316960718916,2.240715039751892,-1.971327899681247,8.536759534726426E-4,0.18739897760087243,-0.056640662490793164,-0.018745846724782116,0.09392942425038901,0.09392942425038901,0.7265810269235663,-0.7707475205356751,-0.30780795494011015,0.8807259326042025,-0.26331420230513514,-0.26331420230513514,0.33120748225169594,1.0522807021047573,0.2863935804669256,-0.4327053740006242,-0.8419079993101434,3.025659050572706,-0.20947758314563433,-0.11058599093096574,0.1410335489801206,-0.0488162785656165,-3.3159221763659355E-5,0.289163142938993,-0.0411629826516744,0.04317406179628569,-2.3819958293595604E-4,-7.569551807325233E-4,0.4274140944989714,-0.026269284281097108,0.6076816711150568,-0.3254108905601745,-4.7062222679579153E-4,0.007741793712149853,0.007741793712149853,0.9240836888879813,0.009183699355689589,0.007320919914466783,0.17676296891816093,-0.829888721341582,0.7561138418083205,0.7561138418083205,0.4022713547200944,-0.528481176306523,0.40471534506557194,0.8054261136642852,0.13510283778541016,-2.0798847522539364E-4,-2.0798847522539364E-4,-6.578964146265129E-4,4.398983437605146E-4,-2.0798847522539364E-4,4.898496261894587E-4,5.264721546612632E-4,-0.3409646160390966,-0.3409646160390966,-0.34125855497580687,0.3642905724803586,-0.3409646160390966,0.3636146407425529,0.10825351962533247,0.4006551903709275,0.06390109195051215,0.3855494150616813,0.19731302154978186,0.023494427002371424,0.0904860849318565,-0.21071069065636394,-0.21071069065636394,-0.5197516688762153,0.8690097496989295,-0.14304727262064196,-0.22276840187159658,-0.0212244877759944,0.043988549094983065,7.345974813980677E-4,7.345974813980677E-4,-3.8494519937434324E-4,0.6869576792567658,-4.464167048886526E-4,3.472995770818256E-7,-7.297336157170007E-4,-7.297336157170007E-4,0.037985477434203094,6.190116293386929E-4,9.292070524626844E-4,7.296401676630372E-4,-0.0972949644225565,6.242788675468393E-4,-0.39572909236269066,0.20847646641826587,1.0492179165676792,0.35907729819452033,-0.2655720691833003,0.38722809019966076,-0.1405168720861466,0.35907729819452033,0.35907729819452033,0.35907729819452033,-0.10886667541106508,-2.3935050821508628,3.1321412846065165E-4,5.680974869469078E-4,-3.306652613500852E-4,5.835046605437567E-4,-0.04400504403980885,0.35731041957622844,-6.21305139209322E-4,0.0870313876836772,3.2618949979667557E-4,2.196038673563149E-6,-4.401211028283742E-4,-2.177555142242331E-4,5.249269283104973E-4,-6.984641843524727E-4,-9.408003494290737E-5,0.26616485583120664,-0.3581233720662087,-5.851708624309786E-4,-0.35459713303081664,1.2179973633235936E-4,0.06696273720291805,1.3716691930585603,-0.03950005027976021,-0.32171865971458513,-0.09330294138935914,-1.935238923152702E-4,0.19788399898294537,-7.476477894156759E-4,2.717847147966966E-4,4.99257646132769E-4,0.35581889506392256,-0.013216346819340023,-0.3530557681896347,7.982450533286283E-5,0.15278057028262773,6.000044315003026E-4,6.883555882299087E-4,0.07562175394045546,-4.1079145735662586E-4,-3.753859284059414E-4,-2.539407431798587E-4,-2.539407431798587E-4,0.18170507004738023,-2.6692260718274837E-4,1.2271844606454778E-4,1.6042207772210288,0.5485254498350688,0.13041948262351136,2.0952828625517497,-0.010173959288223969,0.24676480951187893,0.09938349896952393,0.056469612429205375,-0.6031000204601704,1.6059985709024035E-4,1.6059985709024035E-4,-5.997715125900011E-4,0.39264172836577094,7.782404071253011E-4,1.5950085750173208E-4,-4.2224024692943994E-4,5.658107025184752E-4,9.255775053426321E-4,-0.1357504264664831,-0.6317043052027477,8.848324551490741E-4,0.9187901811532965,6.693756416726649E-5,-0.060796732682210204,-7.228311951642836E-5,3.0237976130740804E-4,-3.971805444704442E-4,-7.760392946824003E-4,-2.901735473675134E-4,0.30656845389072745,-0.08748728134782235,0.4672759911113447,1.175885151038411,-3.758136435217869E-4,0.6487357388488134,0.06874856438956839,7.380235037842721E-4,1.272291017736801,0.6012629758850587,-1.9126462839452003E-4,0.256977972179123,1.272291017736801,1.1623386602078312,1.1623386602078312,2.6677339177325496,1.9988005042005135,7.570960237087502E-4,-0.06537386026351723,-2.1223823695697434E-5,-4.491808187283676E-5,-0.9371487763679025,-0.3024718917539946,0.6023537563271691,-4.590497951088146E-4,0.03517926362504409,0.20368461314868486,0.0956038683450119,-0.014797853005391262,0.3989196733717286,0.8081492588812491,0.8081492588812491,0.31274463057486873,0.10817950120663579,-0.3339321344868957,7.79562547737347E-4,-0.1768435392130679,-1.6516264661162292E-5,5.099486268948302E-4,5.099486268948302E-4,-0.10745687192879946,0.025173575751962555,-1.3025209217770197E-4,-1.0740579569594393,4.009207142106723E-5,3.022746711532938E-4,7.690358503117203E-4,0.24014288290564834,0.5462675108500276,0.6656201755527046,-6.801189863012132E-4,-0.1688167722974004,-1.115314478946381,0.12493459364364726,0.9409529012779465,0.1664267957828289,9.882444759769964E-5,4.3321433635321624E-4,-0.6238186161136244,7.146887215791188E-4,0.08138835456126847,-3.753748806096006E-4,-8.113264134425517E-4,-4.808543057719741E-4,0.16331238519957864,7.873783544488451E-4,1.8539579522266277E-4,6.144984118913086E-4,0.14047832379945852,-0.01327723142716324,-5.159848469757252E-4,-0.0016070158427228596,0.14953301114593545,0.14953301114593545,0.6147321189337114,-0.2717207483517447,8.115805546085548E-4,5.874164741668848,1.8555627378426038,-5.972990887066576E-4,-0.281259500050971,-7.433716433548603E-8,0.7105260852443168,-0.13409321114623315,-3.11852863875891E-4,6.301388277078035E-4,0.63870815614028,-0.20196431147692234,-0.0517600360333137,-0.8972360081104579,-1.0150821145632168E-4,0.021092930319279446,-0.13879763356393765,0.28526598516912993,-0.09002978204361604,-0.13716037479108198,-6.360605878441506E-4,-7.44355905003605E-4,0.27464844002302785,-0.05778427194467681,0.21779861082884588,0.7443628691642428,-0.9387742806643204,7.831345130418823E-4,-8.56066038708798E-4,0.8044198550121018,0.6447805757485036,3.306156906587107E-4,-9.144453557126388E-4,9.873898380086772E-6,-7.737667917154744E-4,-7.105380578639763E-5,-9.657348411687499E-4,-2.839229504027069E-4,-2.011779431262961E-5,0.1337969616244971,-5.130438678635343E-4,-2.582862101310735E-4,0.05522878889955373,0.7308677100348787,0.3275091433617716,-3.509001366576539E-4,-0.2125863434094007,-1.5835887586425736E-4,0.0024349782700954182,5.283164393736976E-4,-3.6355112545080235E-4,-0.19727400902744813,-0.8260465525511836,-6.489327676208338E-4,0.3408954054840753,-1.6140966489040852E-4,0.14151502783780134,0.2726781503193573,-3.377902373641701E-4,-2.3011127120565436E-4,-0.08741015630481314,-0.3270800903235132,-0.687155988842712,-2.1521295457980886E-4,0.11546116349066338,-0.70192161286352,-0.34811192998736873,0.03918019301834731,-0.4942924846975707,-0.030843493491936855,0.48851505631991543,0.36956358242912396,4.011637735760877E-4,-0.05570919920470956,-0.3037608476827024,-0.06178599576921952,0.2062169547477727,-0.5185565330703491,0.009648316891815736,0.34939568463874937,2.9745029534947805E-4,0.9635096510976734,0.23080062534764673,-0.11769939478522522,-0.11769939478522522,0.5158234002424604,-0.5481333887383365,0.24691551103166767,-0.06297753767350656,0.4631322522793987,0.4631322522793987,9.230512185911084E-4,0.4109976119858018,3.4762345962712654E-4,0.38309496293624745,3.2701920447849686E-4,3.2701920447849686E-4,-5.815658310225394E-4,1.2821354063907058E-4,-5.815658310225394E-4,5.691541798942378E-4,-0.09146428342560022,-1.6732068778452194,0.09271406561646435,0.09271406561646435,0.25426795213664277,0.10892492706000709,0.25426795213664277,0.5797319816421906,-0.05858788001120312,1.9525754684013492E-4,1.9525754684013492E-4,1.9525754684013492E-4,-0.01996639098782295,1.9525754684013492E-4,-0.4214321494626923,0.8444284538993924,-0.03158566288953898,-0.03158566288953898,6.769905999570191E-4,-9.456036146086703E-4,-4.8542961366256836E-4,-7.949636453896302E-4,-0.04489601755536313,2.959988958713322E-4,-9.200209162001538E-4,-1.2132647550485356,-1.2132647550485356,-0.8186818377172915,2.4139963452120402E-4,-0.06393544362240766,-7.139744504826503E-4,-1.0319618367177056E-4,-7.50644868590955E-4,-3.080618608551108E-4,4.810987365635555E-5,0.7267439020890288,-0.15562467841511618,-2.625530010232041E-4,-8.140411798785514E-4,9.176727009828642E-4,-8.997601136876937E-4,-7.855948193294218E-4,0.3609490082015704,4.829619552824446E-4,-6.232121392960343E-4,5.033538854105462E-4,9.511924857189837E-4,-1.6282647869199245,0.4580240130217916,0.2907691719257434,0.2907691719257434,-0.6296474248698528,1.342866548686092,-0.40321413812980983,0.1472844004725461,-4.364990707272988E-4,0.5407630293477653,0.5407630293477653,1.2582569723377677E-4,-0.7176981512580275,1.1140861879810229E-4,-0.04362693209365551,-0.04362693209365551,-7.753628612630584E-4,7.33355175841314E-4,3.0160464687804724E-4,-7.205466499698524E-4,-2.583485083183275E-4,-0.2752863992964328,-6.94339373584699E-4,3.6335191181683735E-5,-1.3372984027824018E-4,-0.42021300723765126,5.307813982224196E-4,-5.483318812909395E-4,9.064226687575808E-4,-0.42021300723765126,-0.42021300723765126,-0.42021300723765126,-1.2965337630606376E-4,-0.01526586706147504,-0.09947661419083605,6.303272532854061E-4,2.7915791404340166E-4,-0.04985217352899565,-9.639172329067912E-4,5.178514416788853E-4,6.838118647703256E-4,-1.902013186620352E-5,0.15317761661090007,-1.1781345805241081E-4,-7.952674772158337E-4,8.656588941678505E-4,-6.571408696612129E-5,5.505334894099963E-4,-8.284188670738747E-4,-4.114981216795765E-4,4.1218060290797815E-4,-6.709010160573486E-4,9.009885966752803E-4,-0.1795493255317229,-0.04197491911449183,-0.373009739520321,-5.001934073139661E-4,-0.04802859721485507,-0.20546591415603468,3.335004736962604E-4,-6.692651402733455E-4,-9.574015817701855E-4,6.83268086346307E-4,-3.7144513868980105E-5,-2.678841708316003E-4,-0.16447877559636315,-0.16447877559636315,-0.2097611539342278,0.3737397576551424,-0.24555082417346324,-0.33386544433718346,-7.720192506211793E-4,-6.473418303608119E-5,-1.19658359294089,-6.732330020778906E-4,-3.1545959770232267E-4,-3.1545959770232267E-4,-5.142990182795668E-4,0.006924750326014215,3.2543117819976283E-4,0.1820092416582514,0.6115989588607561,6.405999244954038E-4,7.806918322213314E-4,-1.3177458058905164E-4,7.905884212058768E-4,2.054147794051535E-4,2.808318806305878E-4,8.012328749132486E-4,-7.270794621759098E-4,-0.32946591989775936,-7.168079891651446E-4,6.553022585116631E-4,2.968408421710169E-4,-2.998348570379644E-4,0.08926940733499013,-0.3284521958588465,2.8903199944512294E-4,2.8903199944512294E-4,-8.33756963607139E-4,0.04978163432506774,1.5673244611501362,-0.7125383560652561,-0.7125383560652561,7.51551459008556E-4,-0.7463803744222657,7.51551459008556E-4,-1.6860018469632796,3.2790968304558707,-0.21760010332789567,-7.626652767339973E-5,-9.668719040106986E-4,0.43312075711391385,-0.8957555095414764,4.728314890710591E-4,-0.05619322382581052,-0.026113148010709134,-0.24304665987125443,5.575178359188477E-4,-0.15257982820420893,0.9171612465958717,0.9171612465958717,4.942393265881921E-4,1.3114595818773385,-5.991852557638427E-4,-0.38742382809842485,2.020656241235703E-4,-0.008146156694191333,-4.360950423300282E-4,0.5802848053937874,-0.28232991525158013,-0.02100502786802417,-8.590741431128782E-4,-1.247285882253643E-4,3.173173409141039E-4,-6.0961563873858956E-5,0.13611333889041574,7.6840062978718E-4,8.571822632114224E-4,-1.1728358967960824E-4,0.4957338582049462,-0.0798825423352476,0.02111957699662736,-0.7842790808765349,0.006330018848792449,0.6932889817747624,-0.13151580941035032,-7.48247976654209E-4,0.140104707885608,-0.19886965657481456,0.11485935529610092,-6.362098601376458E-5,0.13747933613141208,7.979348182857015E-4,-0.5316270974096906,-0.4036507436421447,7.498405866441264E-4,0.38990715855296754,0.32808949905108475,-0.037677445690143266,-0.12436353213833626,-4.964060601525748E-4,0.10692340282863204,7.943140903182407E-6,-9.433898678295333E-5,0.3338361458778443,-4.813615646595149E-4,-0.8177276987016922,7.447019887375255E-4,-4.4296151420425336E-4,-8.914732689635131E-4,9.416076654292184E-5,-0.6114828967533058,-0.33168687330065,-7.793057824254852E-4,-0.20090161635278436,5.248043274863525E-7,-1.4580204018852904E-4,6.189634658265921E-4,6.189634658265921E-4,-0.28158265412436057,-4.3940466886784404E-4,6.166816702757355E-4,6.166816702757355E-4,3.154034814314053E-4,-0.15025397902744297,1.4018350191281111E-6,-7.755334858390524E-4,-7.755334858390524E-4,-6.913686465496337E-4,-0.07168994596778716,-4.805612633117908E-4,0.03113600226383669,-0.4736966440957667,-1.530979060156408E-4,0.2952996028608564,-0.6299836485595393,-0.012763655245680308,1.2249521161274415,-0.009454613845722194,8.756260098429639E-4,-0.07395800226951059,-0.4403480551691904,0.7109603540870478,-0.01410834544968122,0.01984954115914142,-0.07069371485690068,-6.451199364865901E-4,6.330253335193675E-4,0.9761030056407072,8.450309258538408E-4,-1.5689767739873919,0.20218708555096132,1.8050816951582966E-4,9.517799165077483E-4,-0.5177916097347539,-0.20053271205525267,-2.006035371368564E-4,2.480139075117533E-4,-1.048790269067095E-4,2.7680045108390656E-4,7.93198693567939E-4,-4.2105195687310894E-4,-6.414644908310055E-4,0.2348147395437012,0.3525091863050634,0.3120860192804877,0.17648921214276464,-0.630210176466675,-0.7713133524532909,1.7552463795707838,0.4197983354275595,3.078091851146784E-5,-0.12550358576308,-0.21042025272326656,-0.14611161417647994,1.9129030804766875E-4,-8.980742054979142E-4,0.1808036310165151,-0.18199294825627338,0.3414676031951166,0.40555600515811524,0.04354100789841819,0.2561978334680114,0.01646212612066114,-0.04386824784395579,-0.2530927392426673,-0.02081930288394833,-0.019101797778545086,2.363102587950484,0.01999941517720016,0.018343439645790244,-3.025975809829901,-9.55642053800211E-4,-2.793171696488726E-4,-2.793171696488726E-4,8.877717045610291E-4,-0.8339621135863415,0.5667723470987094,0.3570218437996821,-0.34845340494276406,0.14160730795436852,-1.1121119130805951E-4,-1.1121119130805951E-4,2.4596747292219417E-6,0.4365805601838913,5.667566951873463E-4,4.713087399538089E-5,4.713087399538089E-5,8.413702801293286E-4,0.7337525575380403,4.713087399538089E-5,-4.587365239040459E-4,-5.88675190143311E-4,-0.5050593842541673,-8.64269469466913E-4,-9.343101048994244E-4,-5.67250765044522E-4,-5.398114414934499E-4,1.5743288047513604E-5,-6.812152788696934E-4,-4.196130266538602E-4,0.26912524785221875,3.0526757270824976E-4,-4.3380352004380454E-4,-6.032150089320338E-4,-0.03123456832031106,0.03144759134921437,-6.038058270407943E-4,1.6948987484336495E-4,-8.054903962781471E-4,0.14517398351930588,-1.1903093246110827,0.7930683274663487,0.7930683274663487,-7.307712895722449E-4,-3.5772053700441626E-4,2.5166929087203516E-4,-0.11475642390476073,-4.0463915203311487E-4,-4.267161152242656E-4,-4.267161152242656E-4,6.098778976141236E-4,3.653172773631087E-4,-0.4033624174222926,-7.995071201291008E-4,3.649933507255279E-4,3.281873004598434E-4,0.06298099689447542,8.632382308664608E-4,0.44560600559714403,-1.0264561034849755,-1.8888707243369283,-0.8452882679467618,0.07920163810471066,2.9794326662180053,-0.05343486247184091,-0.1434256778072183,-3.060465746448698E-5,-3.4312683727020545E-4,-0.6250684816542583,0.3283962162611086,-0.19144074972476774,-0.4120284210960776,-8.078784630738638E-4,0.15013489771244132,8.722943141696987E-4,-0.14034711770251845,-0.17883005536764066,-3.104965494037644E-4,5.310353223259372E-4,-0.059584920809427955,7.428307863965238E-4,1.5869189886928599,0.6808906627708865,8.145316611721564E-4,0.08436262258384744,-0.20536749292686873,-0.17166086625750746,-4.854484436455121E-4,-1.0233448199437598E-4,0.7963074010464608,0.38833959403084095,-0.32839962529556244,-0.04505654795422414,0.3253606068726063,0.19944253305402823,-1.069283493123122E-5,-3.4994674550326726E-5,-1.4043348616782695E-4,-0.05085925456964806,7.717635948295918E-4,4.206418472742057E-4,-2.011669266066483E-4,-8.916066487559682E-4,1.8874140137716682,0.42301021352870244,0.42420197447099756,-0.34359582831413904,-0.16171689481297952,-9.315135847575155E-4,-5.661883708983459E-4,-0.2940406054293478,0.29294709430658605,-5.552796574171965E-4,-6.107237245678721E-4,-4.03647913315404E-4,0.40448852720321676,-0.033594674361368974,7.236065589585066E-4,0.24141428441896,-2.591124678981147E-4,9.456880549810425E-4,7.627349814030668E-4,6.012545178922246E-4,1.0551342649608682E-4,2.7856627455999903E-4,0.057798503688526466,-6.576327195029103E-4,0.26377414421115375,1.4131767266848685E-4,-1.3979215692964714E-4,3.6754192624989046E-4,7.515483267182036E-4,5.234099165735754E-4,0.25087797937955414,0.25087797937955414,7.005366686391272E-4,7.005366686391272E-4,-8.590197151698921E-4,-6.359395230458944E-4,1.0335189960193731,0.19789312423658478,5.869127190464222E-4,-0.21347065607295854,-8.575216252146717E-4,-0.4253513394920722,-0.12364672869066487,0.7525832507114375,0.38937134516546695,1.0241113916416422,-0.03738321473265299,-8.089501389439332E-4,-0.08866939227578229,-6.758303570635525E-4,-1.246650642686485E-4,-1.940082496881346E-5,1.4597455499396354E-4,-7.520360554963478E-4,0.3840729330161388,-0.591170552931983,-0.3812334055449641,1.2409022749185745,-0.604924262034127,-0.18436361884253868,4.470297516863701E-5,-0.35244237119425054,0.48835386289566596,-0.5343353704170374,0.14970151812884291,0.14970151812884291,-0.16676654924133388,-0.03602502026841142,-0.1427417819248152,0.03358628922012185,-6.83715256321065E-4,-0.2808183424552075,-0.12302118048992296,-0.002221967670944692,-0.002221967670944692,-5.525900327798042E-4,1.7200464966400826E-4,7.062742707048691E-4,-0.13519723393825842,2.349571505494214E-4,0.7844810019452219,1.7408330919787602,-0.3186036165829313,-5.359936182487417E-4,0.5647859690779574,0.7147604978497257,-1.312842050510134,-0.1342890422210051,-0.1283807324111094,5.788048396357663E-4,-0.15848784015158993,-0.15255120251435414,2.6898964460922057E-4,2.6898964460922057E-4,-8.328761825441848E-4,-7.084129277229458E-4,-5.878704796663891E-4,-0.31005440111792754,0.002581757142125757,0.41926839281074013,1.3343441634254913,0.6718675090867671,-0.3813067697352541,0.02510666059118479,-0.060749338547720855,0.08605579954961404,-3.4532523017662435E-4,-1.5412991623559632E-4,-2.2855168953348328E-4,-4.424383650773068E-4,-2.267788179179382E-4,-3.466955525639724E-4,0.5267259154367891,0.5267259154367891,7.152695169159937E-4,0.15430146180882442,7.152695169159937E-4,-0.7287906012273832,-0.06567545092145873,-0.06567545092145873,-9.85763373054227E-4,-3.703895849089E-4,-4.651805386922044E-4,2.801830447503866E-4,-0.53406119829894,-4.125245447274034E-4,-1.8910010962019507E-4,-0.5450548105444335,-0.5450548105444335,-0.022355200230871567,4.504563805169954E-4,-0.6225302991472214,0.6907565215830348,0.07051579154007766,0.49704749788256425,0.1517536961870498,-8.008312415381468E-4,-0.3577834510451214,-0.07688467289740858,6.152055258252908E-4,-1.6786057160101213,-5.002831057614404E-4,-0.034176972445712085,6.905787981475992E-4,-5.707277985936999E-4,0.7960550276855768,-4.0839897069958053E-4,-0.04227245896488288,-0.14843402256679647,-0.008760761237002866,7.048238781755538E-4,-4.125651053823623E-4,-0.12407466483612352,-0.12402426870915109,0.20093168067001024,-0.2960704475088828,5.750721016521286E-4,-4.0184105433826664E-4,-3.7964465555108027E-4,-0.0183090676322702,0.18906020885001798,2.115539441367531E-4,2.115539441367531E-4,-0.0021048229457638957,-0.3039591065157656,-0.2081381555692644,-0.2081381555692644,0.20990153666632333,-0.44598186965239284,-0.8520124486997375,0.024877796945125846,-0.39218358667809233,-0.4750263584194654,0.1608938569041335,-2.6376891371420754E-4,-0.3686793657203634,9.53703207989993E-4,3.007655812615974E-4,6.241386575984199E-4,1.9867328995356367E-5,-6.699433683530695E-7,0.6515255229578103,0.38092050122227455,8.17933728669614E-4,7.369453290460877E-4,-0.03778550050159768,-8.343236735917618E-4,2.2496027006182497E-4,-5.09597090424268E-4,-8.876893940432671E-5,-0.4092169218094274,4.219865128228886E-4,-1.0454582743814793,2.9523943416533355E-4,2.434416945443861,-0.08151296795806746,2.655396194769942E-4,5.856443740819119E-4,-0.20861089709343913,0.5193678703193475,0.004192517883324585,-9.451420177454685E-4,-0.24306564544732293,-0.2838748285798679,5.747805597709655E-4,-6.704693754643062E-4,-6.704693754643062E-4,-2.554350806365306E-4,-2.0038446477754594E-4,3.64885003736545,1.3320103819435343,6.935106335465407E-4,-3.478574406220094E-4,-9.613205427416187E-4,1.0427655523645983E-4,-8.09518909310705E-4,6.035619930183987E-4,-5.50700159495295E-4,0.2725093333702677,-2.72878179025375E-4,1.2476064743374693,1.6360044289808894E-4,0.26879762151326514,-1.3214379953744497,0.47153524165205907,4.1074041873127463E-4,9.179649917586082E-4,-0.2584227558987747,-0.25926774893744375,-0.23469071065289043,-0.2337910260466597,-6.880990901049228E-5,6.517780164455222E-4,0.8469550235652757,0.4152435137749452,7.548428351487647E-4,2.58862515009621E-4,-7.916667488705562E-5,-7.916667488705562E-5,-7.879967776616535E-4,5.106961860080832E-5,5.772227374007002E-4,5.772227374007002E-4,0.5788949354829341,-0.4145404900894652,2.5527170007029996E-4,-9.109785759651534E-4,5.614316010574984E-4,-0.4599736060309839,-1.117023121984375,0.41599781483126425,0.33580432891918566,0.8239745073364679,-0.1380948213728955,2.129773695099596,2.5521075207401425,7.676156795126368E-4,9.314725563488199E-5,-5.7039019894812E-4,4.280715455844523E-4,5.370966716116744E-4,-2.1290879429701698E-4,0.04452860334738683,-1.5908520536697932,-1.3272949266707125E-4,8.76967114757799E-4,-0.13094980941132933,-0.8377531912697985,0.04718201849569739,-0.018428939835240566,-0.18419298650740665,0.29258338000846756,0.27088470186753066,1.9339535182072085E-4,3.0831988634670983E-4,-3.1273167164859277E-4,0.6706865884260617,-0.6944388048926773,-4.329155339174886E-4,-0.13481488982718867,7.843175480987274E-4,-0.1646532702275196,0.17879241183201197,-0.10074957212044007,-1.774477903148877E-4,-5.776511181958802E-4,0.08486087569795739,-0.026527432474990453,8.404477497290409E-4,-6.249978317931867E-4,0.32397970112412156,2.634113785000982E-4,-8.014656360463639E-5,0.014425578447738382,-0.11057273879272556,-0.10470934641507623,0.10954990381794538,0.10389801043767875,-9.819172179501294E-5,5.501639300761773E-4,3.133325851626265E-4,-6.579931682727723E-4,-3.4973681604108617E-4,2.1799327244476378E-4,-2.750039386511888E-4,-2.750039386511888E-4,0.0032566123755911076,6.360913091345348E-4,0.1073128179315557,0.10906051016490817,-1.5242420042020017,1.4718429015644612,-8.035245228064367E-4,5.113033098998571E-4,5.951165606560407E-4,2.701998495651948E-4,-1.3086190811476884E-4,-4.471812416983354E-4,-6.345507773143242E-6,-7.839653201419481E-4,9.543287095629096E-4,7.896463442060072E-4,3.823031938703439E-7,-5.571871878013923E-4,-2.6115463238723913E-5,-4.292980605773221E-5,3.327143810081658E-4,-3.467561370525045E-4,1.8706019412240095E-4,1.3800757772628656E-4,-0.44714835312503254,-0.06003373347422796,-0.3345297967561942,-0.08934053182497864,0.00255142995070916,2.01857085841146E-5,-0.04537880507053868,-7.853045955686106E-4,0.17866936611551307,9.211283238944889E-4,4.115960443910906E-4,0.17719855599745968,-0.03269315121262536,1.1832425808803971E-4,0.1538759255924689,-0.7310391966634561,0.3109550510444031,0.8293827012225565,0.4040658543108509,-0.41114812661787903,-0.35589790849216596,-6.744718565103262E-4,8.674880178674067E-4,1.394272201758948E-4,-8.5439077415351E-4,-5.019134076802315E-4,9.803034240558912E-4,-0.5185176718162826,-3.659883251734596E-6,1.4031662899370773E-4,3.639632077912714E-4,0.8702717303631372,8.963315979047893E-4,-7.377539205818862E-4,0.1582738407080684,4.6494081182968557E-4,6.1857144650849E-4,-2.3015293187390396E-4,-6.002300632196192E-4,-0.7075931145000052,0.4160073118900752,-6.263673080890036E-4,-2.513363543876898E-4,0.1190735616166625,-0.7313868488348161,-5.98505328032347E-4,-9.301187951776312E-4,8.076664918762195E-4,-0.11272493420820866,-8.368482986948567E-4,-0.6228757491828258,2.2118615561400926E-4,0.24215033002247668,0.9426157385794601,5.18665303877719E-4,-1.0432802386544964,-0.07593464162830273,9.15401296626886E-4,1.2655142397772947E-4,7.856396758338091E-4,-9.928504563808769E-4,-2.5783170066578313E-4,-8.853792281683284E-4,7.451059244550387E-4,-4.841106388621488E-4,-0.07873091922817267,-0.36326069984073384,-1.6994389442725165E-4,-1.9992883713629045E-4,-4.814672579851573E-4,0.6287667325392228,-4.8286266639134003E-4,-4.564800895705669E-4,-7.710353110724159E-4,-1.3580385073397013E-4,3.6809255538223183E-4,0.19062974391453663,0.14396383703810484,4.978841847830375E-4,8.336268524118133E-4,1.04141812987048E-4,-5.85709629876721E-4,0.039949712975918435,-2.8605977285609766E-5,0.3665141336489754,-3.4416824340352276E-5,-0.2749285178028221,-5.861396583546948E-4,0.12648201635489248,-1.1967721375340545,3.649703827061448E-4,-1.464577249059866E-4,-0.4769026765808321,7.483310669550735E-4,-1.0178328214115694E-4,-0.056067631158380565,-3.540301265643844E-5,-5.067266509433755E-5,-2.0038942895642933E-4,0.12054291220651275,-1.0988888587452044,0.01281319832954013,-0.1956415212169149,2.9603181335301557E-4,-5.918675479493625E-4,2.495760124564152E-4,3.297538240773796E-4,6.369177987066675E-4,1.831691233279419E-4,6.791877725219493E-4,6.75798971617727E-4,-1.331233928331233E-4,1.3228134625764315E-4,2.5472402035863206,-0.010125376452363105,0.473216389829325,3.8040086076029586E-6,3.0959501379258824E-4,8.20705433354804E-5,-5.226155420372892E-4,9.05993335564468E-5,-4.959039571651986E-4,-0.0669012455437377,-0.4670839868497998,-0.006297770994839819,1.4495565165728606,-1.8598136173529048E-4,2.4822177824285923E-4,-2.966284405957559E-4,-3.5964304977164415E-4,-2.480930373750223E-4,-0.7732230442024156,-0.23134641783440857,-0.2695798675313993,-2.342098645318944E-5,-3.346198826530752E-5,3.470421849004722E-8,-0.10206953566710968,0.21164762446195076,0.7192174171391582,0.017161469580273224,-1.214946643884776E-4,-1.155685289590411E-4,6.978297865715809E-4,5.450670702219277E-4,2.9119899193503227E-4,-1.0526134777328559E-4,2.3722409744308102E-4,-0.43076492580366654,4.5809600653257555E-6,-5.118756209915281E-4,-0.006446248932713578,-0.17666253313501518,2.8512669617095153E-4,5.109871737170567E-4,-0.11652745151280541,-0.38241444590370877,-2.671039799008458E-4,-0.29711387535310285,8.015847042262022E-5,3.8914738960985204E-4,-0.05792455313636258,-3.083541960066426E-4,5.853771289096022E-4,0.2365867074058972,0.23906974139388382,0.3511769705705174,9.465876639220378E-4,-4.9638134012892215E-6,-8.708654363205398E-6,-1.4924359540896114E-5,5.025620662462912E-9,-2.97020400107568E-5,0.8358625884251788,-8.883390042383503E-4,1.1141631499318283E-4,2.701667134400968E-4,4.938324403049195E-4,4.23011086370754E-4,-4.195467683040132E-4,-6.873747193765901E-4,-0.002472177467514127,-5.9271488611491E-4,0.0048904466872118635,-0.48517917240710734,1.4018187283841837E-6,6.362111116277677E-4,-0.24933031460658622,-7.54423530065053E-4,-3.810593712024891E-4,-9.36707400437194E-4,6.312237538313558E-4,0.16859053548620037,4.914554955585523E-4,0.2644352593495333,0.2585710884009095,0.11104088050636349,0.31218623469865203,0.28544787269471406,0.28544787269471406,0.2653156377440743,4.3715175300138725E-4,-0.01648516715165943,-1.71032390977122E-5,-1.71032390977122E-5,-5.134539759292945E-4,-0.23590185444281506,-0.03302887559583606,-5.566686883930064E-5,-0.5150827342552897,-1.9648474626765035E-4,7.695785138498629E-4,-1.3321775364266177E-4,-2.590789471754011E-4,-3.0186883340666427E-6,7.432406163143791E-4,-0.04055837492600674,9.255388097716404E-6,0.1583292524507922,0.1583292524507922,-0.26571331653812086,-0.26571331653812086,1.7939853190332877E-4,1.7939853190332877E-4,-8.372217495251233E-4,-8.372217495251233E-4,2.900967180191128E-4,2.900967180191128E-4,-9.438851445562571E-4,-9.438851445562571E-4,0.2781293447182009,0.14656536615434645,0.15617674197264542,-0.5186315947465471,4.323627421616603E-4,-0.2738077646358043,2.999126728557187E-4,-0.9569904534873926,0.17203333423443812,-2.9991267285559356E-4,0.16489153850299415,0.4338740535758138,-0.2614660780824396,-2.3224548703498402E-4,1.2197111727337608,-1.3147371604391669,0.2614660780824396,-0.6273606671115664,-0.3608181681485269,-0.43615774928004053,3.473194528422313E-4,0.6480092846893336,0.7850999387225309,1.0805035589679879,1.480503037704214E-4,-0.4437511338609743,0.32908650000194234,0.3574114736722541,0.7388886086269832,-1.0464084260898088,-1.4805030377053959E-4,0.7499408129672809,-0.3172518272350527,5.105346260357536E-4,6.105503809560476E-4,0.19170301981177434,-0.14254382815313107,-5.548286605348495E-4,-8.806967197287348E-5,-2.913909566089767E-4,0.5726721482941187,0.5726721482941187,0.02411561484315269,1.5624692198838784E-4,0.3347599051295688,0.22760729288533257,-8.14842599773184E-4,0.2034727069734475,-0.31581856846430195,0.12279135110731758,-0.31329246987756465,-3.8219031594843096E-5,-5.040221191801395E-4,-1.3182663584340943E-4,3.9849996031463626E-4,-5.170532519456857E-4,3.501304480213322E-4,1.1489364112049895E-4,4.961187291049158E-4,-0.0576747434317266,-8.878457759851978E-4,0.2372653208188743,0.2984424841525183,0.2984424841525183,0.9379242988370158,-1.562469219884364E-4,-0.4832323659132352,2.2221355391987254,-2.4012476274945266E-4,0.1686500753041545,0.1686500753041545,0.14585858675932115,0.15783691958678667,-0.2069089416222539,0.6784234832274949,-1.8037568881359411,-0.25705321291234523,8.529076715337936E-4,-0.501164170891455,0.9599902450961781,-0.15473940859689425,-0.10224850643319999,0.3514516346714199,0.3042833415906017,2.3672990592749218E-4,-0.020536170389099447,-0.3101313737212037,-0.3101313737212037,-0.303213942507987,7.488170530872616E-4,0.2579904380742256,-0.8802812421797926,-0.020536170389099447,-0.020536170389099447,-0.35300676667003744,-1.191606426634247,-8.119078251191342E-5,5.664487763399438E-4,-0.011861796408846038,-0.06108632224598547,-0.9752198551153186,5.272232003972804E-4,-6.100166503605342E-4,-0.9081001789740066,-3.1810772793781916E-4,-3.1810772793781916E-4,-2.8121060147453343E-4,9.482639235102392E-4,8.397478406853778E-4,0.11327619753314097,-0.299034501564919,6.739990246760852E-4,6.739990246760852E-4,6.739990246760852E-4,3.903404013854598E-4,-8.262859079604886E-5,-0.46214426138570436,0.1473495239219924,3.7962090101678766E-4,-4.844556025010187E-4,