1.4472644871072469E-5,1.2971135559232991,0.3750913837567764,4.194662577203051,7.939602276331085E-5,9.049940985846058E-5,-7.308138848797848E-6,-6.204241384088928E-5,-0.40997536789071115,-0.7720458274146038,1.9333104080543052E-5,-0.2187565234301202,-7.998972693798787E-5,-1.5567474113366009,-3.534143078363449,-3.0584140038350007,-0.7381617287736616,-0.524532875306457,-7.991172027341418E-5,-9.049940985847782E-5,1.0224101221380149,3.59290983086539E-5,2.3691955840701064,3.131046475280363,-0.14034031404376995,-0.14034031404376995,-3.58072602048401E-6,-0.15073065914610098,6.873762605370123E-5,-0.7398128955921176,-0.3513515359103773,9.408456013112446E-5,2.2029057228288733E-5,-4.458660490399035E-5,-9.099881526698157E-6,-0.7463816790516672,-1.077339645222221,1.4388419959637855,1.4388419959637855,5.4517627127064776E-5,0.6870354302476732,-0.0012390144100888898,-0.0012390144100888898,-0.0010060130392399445,-9.585750984765135E-4,1.5883978192442015E-5,-0.5985917839531351,-6.437246199237178E-6,-2.9778444529257275E-5,2.7575470346460584E-5,-0.720201614155203,-2.6076078840528667,-2.6076078840528667,-0.09029904463744311,-6.113008054873159E-5,5.65173942333312E-5,6.640828334698539E-6,2.4995041687434985E-5,6.640828334698539E-6,-0.30559472834156476,-0.5724357445626053,-4.331266180498656E-5,-0.20892955605090247,-0.20892955605090247,5.041108109746117E-5,-3.798989151142934E-5,-1.4354525024054971E-5,-4.6799952130251415E-5,0.7966270061297795,0.7966270061297795,0.6735246435358622,0.0037905854743203607,0.05816850505831903,3.3650527332649416,-0.23751971585494613,8.18801983554551E-5,-4.1716828403151894E-5,-1.4693061442759079,-6.550121884471704E-5,-9.506016984878001E-5,6.482727053120321E-5,-0.31167628844068274,-1.4693061442759079,-1.4693061442759079,-1.2040948480220186E-5,7.419373006173314E-5,7.334393947133295E-5,7.334393947133295E-5,-1.5024179702864755E-5,-5.8073580440346216E-5,-1.8954343818626513E-4,-0.22053607129614394,-4.617903712076242E-5,-2.597987926120979E-4,-2.597987926120979E-4,7.10107537977207E-5,-6.579174868256505E-5,-9.549578475524835E-5,-2.730003208287642E-5,-4.1385256176612904E-4,3.360120931015522E-6,-4.4974722776498544E-5,-0.8032318403288448,-0.001401839472307334,-0.001401839472307334,-0.0011240753259847995,-8.115112248007609E-4,-4.378980582446951E-6,-0.042365423459797796,-0.8032318403288448,-3.909331380175892E-4,-4.1569757435526276E-4,-6.725179340757455E-6,1.936736886370119,6.157930019033506E-4,-3.42836516638443E-5,5.475846191382666,-4.1759830245185825E-5,-7.17780852444404E-5,-0.06851508368774858,7.35003097387661E-5,9.343453651935194E-5,-0.6640147864068917,-0.30436671812626614,-0.30476097051216655,-0.46523327805572023,-0.46523327805572023,2.0921727101155013E-5,-0.06957633976278249,-0.29742212950549407,6.533141863036013E-5,6.533141863036013E-5,5.5641383774634025E-5,-1.464721849912836E-5,-9.437877032868067E-6,-0.3529068250254814,-0.0032958991219219124,-0.0032958991219219124,-0.003457381198235947,-0.0034421811072730944,-3.805957379059122E-5,-0.9379727753855089,-2.466033597341713,-2.466033597341713,-0.21574256206177372,4.119377677197457E-5,-2.656456351004833E-6,-8.492753972546253E-5,3.548903430858329E-5,-6.085315318596374E-5,-7.966396284274488E-5,-0.2441712865738804,-0.3292980057441747,-5.773297827224779E-4,4.893735759760943E-5,-2.0852152228928422,-2.0852152228928422,-2.0852152228928422,-0.11505666747753676,9.25330888277629E-5,-8.459417514193884E-5,-1.577915409357747E-7,0.8709198885777588,-7.107462047614726E-6,-6.857644847231296E-6,-0.0013950476801445808,-8.907685546920868E-5,-0.23331957887419658,-0.27940393459525664,-1.6513075841877905E-4,-1.9312968726554723E-5,-3.303477086009591E-5,8.29951852716416E-5,-1.48602597372359E-4,-1.791233350135155E-5,9.053990487197705E-5,-2.0330738223404678E-5,9.711189325393459E-5,-5.506727567860738E-5,-0.22187204342660227,5.624632075869908E-5,-2.347298806061043E-5,-0.4012790821124141,1.2939853338096632,8.689647096708937E-5,1.9767512533044833,2.4678104405858995E-6,-1.3897374023201766E-5,-6.513390274393318E-5,6.355911139612635E-5,-0.4560581957734014,-0.18701076758817772,-6.16577901736432E-4,-6.348610725508921E-4,-4.284793625252597E-5,-1.1150101402575057E-5,8.449620182743597E-5,-0.026690309484730758,-5.876875914914284E-5,3.771471857578939E-5,2.8148419085991146E-6,-2.730992583003951E-5,-1.3405101929613904E-5,4.181630689765732E-6,-2.506105269403457E-5,2.1462206913383E-5,-0.2977468814208909,9.428320480175577E-5,-0.31114291907348,0.05468021160398291,0.00834407334885106,5.443083606908673E-5,7.20846625510061E-5,2.469620555685114,-8.481864152014716E-5,8.948688520371918E-5,9.958007207374738E-5,2.4247049059529917E-5,1.6009354921411273E-5,-0.45018164025574686,-0.2292238366923699,-7.724516241821823E-5,-1.0170038807642598E-5,1.5851203929891902E-5,2.316055326212138E-5,3.2089075215983856E-5,-0.08202659742684057,-0.003248889592059341,-4.56849207393788E-5,-5.565176409111336E-5,-1.1081553752912364E-5,1.7425443104512355E-5,-3.968970581378763E-6,-0.034862560205305274,-3.677281486291412E-4,-4.4585265669880024E-5,-1.279572382282114E-6,4.060583058078374E-5,5.2219287312012244E-5,-0.6130145601639516,-6.0851315685356576E-5,0.15517525542931312,-2.3790365502441018E-5,-3.3457805261889994E-6,7.650887606352526E-5,1.1584689361286888E-5,4.0802935122589545E-5,-1.6623458092629984E-5,-1.3388435243576016,-0.21302677079826496,7.422354373200617E-5,7.927219259173261E-5,-7.702814677776904E-5,-0.6520945746683326,-6.836325847236768E-5,-5.1625982018919654E-5,4.001907285794969E-5,-3.659850036998014E-5,-0.5741397353948551,-5.78723353307874E-5,-6.0108271256057575E-5,-4.888204900761924E-5,-3.821227777310331E-5,5.2268918853463845E-5,-3.853594297544186E-5,8.023360141738263E-5,2.2936861636815186E-5,0.18559626630448864,3.21517627795074E-5,-0.21807743321455816,-1.8017873264604696,-9.673115496148179E-5,6.486453523517966E-5,-3.4453678312921745E-5,6.837818619228803E-6,-2.996073035047013E-5,9.113355967736983E-5,-1.0285259752604788E-5,1.6036279837181226E-5,-6.639432325137036E-5,6.282024877495062E-6,1.8737086347629595,7.717760446274995E-6,1.9324525486258043E-5,5.845326607836513E-5,2.336096756748663E-6,1.8751349151298176E-5,-1.323887515594386E-4,2.1939675927608773E-5,2.8873944805084137E-5,8.894630608955598E-6,-1.677711197142835E-5,7.264534205356037E-5,2.4661942259522564E-5,2.1169883527342014E-5,1.4117026040210624E-5,1.0518719648201189E-6,-1.1404135226278757E-5,-7.676814562511438E-5,-1.9183916465793306E-5,-0.364807624087657,0.7267786027418561,0.48759490073807177,-2.8396378519935316E-5,5.3689158718228854E-5,-5.933423160695566E-5,-0.6139203954808586,-4.217487566549353E-6,9.289810304200619E-5,-9.813430557579385E-6,-0.7631446601282178,7.92653428409246E-5,-0.11984225910656611,8.866845165081286E-5,-7.314148716491073E-5,-0.5147801885046401,3.433797816129191E-5,-9.228362137991814E-5,-0.2588386462857091,-5.344587829434338E-5,8.833512955044502E-5,-0.8253104264255765,-0.0013479250838057456,-4.1533853390208537E-4,1.1737782679936256E-5,-0.8253104264255765,-0.4264900834101063,-0.4264900834101063,9.055434826534475E-5,1.8359870402669053E-5,-3.4179827010120134E-5,-9.280935616883467E-6,4.55323103950499E-5,-8.766379990870728E-5,-2.6936078538056024E-5,2.238841587609096E-5,-7.929305966083208E-5,-5.9326874937082136E-5,-3.434750885603202E-6,4.8072761940345666E-5,-3.9448250257204105E-5,-6.771763788978336E-5,4.3526094067095154E-5,6.104430513861919E-5,-1.4578295751526755E-4,8.819219367342395E-5,5.5496736824836366E-5,4.1234309998561386E-5,-3.855319540241947E-5,-9.598531165961527E-5,2.5496911105868825E-5,4.16870438096483E-5,4.127205307129264E-5,4.613644485769515E-5,-9.580695916169883E-5,-8.913099943144164E-5,9.647842382710428E-5,-3.16076344831123E-5,2.9987013408171447E-5,-4.788847110647973E-5,-9.950940294960042E-5,9.767913924208842E-5,3.127524083720848,-2.0594381528001127E-5,0.575162062511643,-7.303936803156432E-6,-0.30547219263068554,-1.0918244599779538E-5,-0.4054826657000979,-4.640693925533171E-5,8.142928267444887E-5,8.2226082023664E-5,4.9449966259151956E-5,-1.3002068206255113,-1.4716688956018049E-5,7.035988965213309E-5,6.466736532875375E-5,-6.887476773140096E-5,8.074396289999907E-5,-1.3543724620053156E-4,-2.9883307230005337E-5,-3.6888271290802814E-5,-7.476636950617747E-5,-9.03271875513158E-5,-1.1312368735059533,-2.806443772789833E-5,-3.421386557834257E-5,-3.988669717115156E-5,2.05600362188314,0.18522977449227412,7.738081925027609E-5,-9.766860800822985E-5,-9.282245752697571E-5,-4.7390482154470346E-5,-4.413276580837539E-5,-2.436800118411045E-5,6.14416105845756E-5,2.626643665700909E-5,6.879152894509233E-5,-0.9950491744691962,-2.016283818297118E-5,-0.6436829903801436,3.24953329156343E-5,-8.951109986315411E-5,0.023519404848916656,1.0042453728410593E-5,-3.323772793138262E-5,-1.289257352326178E-4,2.9393614468316637E-5,8.942394492238295E-5,-1.8643060525341606E-5,-9.086192150599794E-5,-1.3359293003178282E-4,2.8434798220755884E-5,-2.4063775610578777E-5,-0.3086675601670319,-9.513619637699993E-5,-5.3546543385014195E-5,9.26704418587765E-5,9.18523183546207E-5,-0.5002976913814433,1.1564870980268905E-5,-6.051908915732792E-5,-0.40022593317376903,6.577382718564884E-5,8.522278577878669E-5,9.416439351301047E-5,-4.541140270424232E-6,-5.8766370241631366E-5,8.051917056393684E-5,6.661309548769374E-5,1.604213746203174E-5,8.118125475019362E-5,1.2485262675749145,1.16322594264847,4.983510727130927E-5,-6.437241544733422E-5,-6.437241544733422E-5,9.045250651605589E-5,-5.603618345539122E-5,-6.495442814373114E-5,-0.32573724591269787,-1.782026608315158E-5,-1.782026608315158E-5,-4.3140573212301664E-5,-6.713884996668332E-5,-2.15407385351424E-6,7.2613887596464065E-6,5.516922832876914E-5,5.516922832876914E-5,-9.566677496061651E-5,7.390290262853145E-5,1.893273110337592E-5,-1.2056982403996158E-4,7.582007143463936E-5,4.397579376284625E-5,-5.60597307984985E-6,-0.15417388703926493,-0.09930186765463737,9.252367996855776E-5,-4.545784442018641E-4,0.8232781421021349,0.8232781421021349,4.483095085446815E-5,-1.5656079187741068E-6,0.37769667430874904,-9.399141652640308E-5,-9.68922360362084E-5,8.863474478265625E-5,3.978542979112961E-6,-8.989844789568412E-5,-6.844495558200396E-6,-4.867860838116544E-5,-9.570054432084875E-6,-3.6695040772489457E-5,-4.962621921229743E-5,7.517714537860401E-5,-0.015499803289932265,-0.015499803289932265,3.1076595875650877E-5,-3.920000433861461E-5,2.36671979440009E-5,0.2706786345258376,-7.491597814304337E-5,0.29051444844537394,-7.44704281460416E-5,6.184149153734977E-5,-4.416865690412056E-5,-4.416865690412056E-5,-5.7110639024314286E-6,3.954463824784695E-5,-2.9677257888324133E-5,-2.9677257888324133E-5,-6.041116606465476E-5,1.9064303260915788E-6,-4.790382223223852E-5,-4.615356986680986E-5,-8.926831735709239E-6,0.9587025612314762,-7.523738485598188E-5,-1.857939762399879E-5,-2.360277020268232E-5,3.9224171655909074E-5,-0.041409621282947215,-6.34535600121281E-5,0.744081365930543,-0.42156055297850964,-5.384719455741621E-5,9.187330977157213E-6,-1.5477482919322003,5.373181856768034E-5,-3.591078643868593E-5,4.052543152754892E-5,-0.5017675284309597,-1.5477482919322003,-1.5477482919322003,5.67674812189884E-6,-0.8905175025049225,1.986716354929072E-5,4.1600991547583225E-5,7.775302735113893E-5,7.001508777456397E-5,-0.09654195679864776,-0.24783848424051033,-0.05271125232674019,-0.05271125232674019,-1.279741779288619E-5,5.366896698332208E-5,6.833609787151992E-5,-0.021852494308172134,-3.125168700208551E-5,-3.125168700208551E-5,-0.9090736480771203,7.16178571279655E-6,7.16178571279655E-6,5.780742663528932E-5,8.496511012533566E-6,8.796984949105158E-5,-0.2990510332232736,-0.9090736480771203,-0.6951580876311483,8.01331092549628E-6,-0.49079102741027114,-0.11452349283068475,-6.112116387892188E-5,2.843427612332171E-5,-0.8046082747657337,-2.483429205572845E-4,2.1233205872914966E-5,-3.2511128880855384E-5,-0.8046082747657337,-0.8046082747657337,-0.8046082747657337,9.759332849590085E-5,-0.3925396745912962,1.0170653049489017E-5,-2.8887769397859195E-5,-6.295050585630401E-5,3.0137217670331913E-6,-2.5750704003501765E-6,-5.6942217839988315E-5,3.279320868754841E-5,4.176805458563778E-5,-6.13172517615281E-6,1.692292793818263E-5,7.223234865656898E-5,8.123596063740359E-5,9.697103647498479E-5,-3.563064918373197E-5,-3.6904167833938585E-5,-6.672035727921713E-6,-8.770995161343016E-5,-2.8339672877004835E-5,-8.516187721796791E-5,1.0996864307538762E-5,8.544486571252302E-5,2.839913825124583E-5,-6.27423856624662E-5,3.2541788730268555E-5,-4.673026187820943E-5,9.145068426539328E-5,7.227918834373896E-5,-3.904522473397022E-5,5.817521703753686E-6,8.676876814636658E-5,-2.4412200196295247E-5,-0.3683140818331546,3.2153681289731487E-7,9.068274737775964E-5,7.496594211791844E-5,-2.2793449286942364E-5,-6.15842793153833E-5,-3.209745406240992E-5,1.5847287664828413E-5,8.70839242922871E-5,6.400223092512485E-5,-9.767261456765388E-5,1.2616642991483438E-5,2.0998276787521103E-5,-7.517243843483355E-5,-5.089203549383373E-5,5.663493867857535E-5,-6.815907476993416E-5,2.974459590247788E-5,5.6638206368764886E-5,9.839553952789572E-5,9.839553952789572E-5,-2.8908731838059678E-5,8.516646397521978E-5,-1.849604921224453E-5,3.764727003230641E-5,-3.350469146999016E-5,9.58155047217638E-5,-9.405899819773714E-5,-3.9581691481532616E-5,-9.029400755326753E-5,6.080828853782415E-5,-8.409306344241068E-5,-6.775903934496888E-5,3.6951343107447096E-5,-3.5242479647281324E-5,2.6425327702585664,-5.8250335292342643E-5,-8.955282912024136E-5,5.504893463378075,1.1512407331328017E-5,1.1512407331328017E-5,-7.717422525589269E-5,8.731482310463462E-5,-0.17789220602711717,-0.17146743315283772,9.344123032744921E-5,9.344123032744921E-5,-3.504768834267235E-5,9.716691947244755E-6,-4.492842046378662E-5,5.407005347651795E-5,5.407005347651795E-5,-1.6881847396949827E-5,2.389168710214675E-5,7.966975435924345E-5,4.4319916597082015E-5,-8.88407527526139E-5,-8.88407527526139E-5,-7.26814060333953E-5,-8.662908059144529E-5,2.0004466449382896E-5,-0.3682296200336378,-0.7784138327645967,7.39299115887371E-5,8.282668238521902E-5,-2.163018719101802,-2.163018719101802,-2.163018719101802,-0.26750802069546314,4.491865675721382E-6,0.5122699341328815,0.5122699341328815,0.9285284058540438,0.917062574875409,-0.08851401011482114,-4.764424007230611E-5,-3.2130689799974416E-5,-7.00066712884044E-5,-7.268151761010787E-5,-2.6036657148836533E-5,-1.1209296319664115E-4,-1.1209296319664115E-4,-0.05613112027235695,-0.03763644120211698,1.2895446061068276,-0.01752105313494802,4.990296825200383E-5,-6.604965572108074E-5,4.147485613502768E-5,4.745574253252653E-5,6.053396695596037E-5,-0.09310485625636548,-0.7616051455614673,-7.935996231278189E-5,-0.06882771274762715,1.2535022262678274E-5,-4.579378606076544E-5,-0.16374206124513635,-7.081478091344359E-5,4.301095671881499E-5,-8.823959420071911E-5,1.6063331035723436E-5,5.785502594232936E-5,-7.329928347453287E-5,-1.8226612755030457E-4,2.1139302114428854E-5,-6.43444864632268E-5,-0.21219420054573918,-1.3163091046699307E-4,-7.711966380283055E-6,5.4996774444476186E-5,6.315605163087788E-5,-7.067397071871055E-5,8.951096335264862E-5,-3.78961512437226E-5,-1.2604624480428876E-4,-3.002293615398649E-5,2.4113910598509158E-5,-4.48504234774549E-5,-3.42165624861742E-5,-0.08920073729499997,-2.1555153076228078E-6,-8.52049544638676E-5,-3.417134608826663E-5,7.031519924582567E-5,8.31531667289867E-5,-0.01149105875180033,-0.13256295980572932,3.5490687429944336E-5,5.1021416450268596E-5,6.928207754571408E-5,-0.9517293384011613,-9.27195227567478E-5,-1.574468022545137E-5,2.87963695600722E-5,5.6244729807525765E-5,4.595199248014702E-5,3.163202179713128E-5,-8.463470559872549E-5,-8.713800448679569E-5,-0.04203974305592502,-5.444148653139631E-5,2.5987174945331124E-5,9.475153475721681E-5,-6.366617565871172E-5,5.427708758639503E-5,-1.8809642331197384E-4,-7.005944486994304E-5,-7.005944486994304E-5,1.678846947178846E-6,-6.0151424602712704E-6,9.452327566954119E-5,-5.014588112453606E-5,-6.957883386767339E-5,0.738550789535001,1.0119671139809097,4.020844834710154E-5,2.392009684104518E-5,7.487980592554871E-5,-9.491353456891145E-5,-0.4344362229082326,7.185461605771054E-5,9.395230610193241E-6,-0.30638997751629643,-3.620394584807206E-5,2.173095304725221E-5,-1.9927981360695588E-5,-8.001047513385061E-5,-8.673851195230953E-5,-0.021248589281823816,-6.838308626113494E-5,0.08237658868558798,-6.187175593730574E-5,9.787364374675159E-5,-4.937265857347024E-5,1.3902732760358457E-6,-3.028924725308733E-5,-3.028924725308733E-5,7.303524912351909E-5,-1.1014213578798775,3.928488016642902E-5,-4.7168483246276674E-5,2.577661920988064E-5,-9.39659913414682E-5,-1.5557653412361685E-4,-6.007570562860591E-5,-0.2624490951206183,5.187056173016304E-5,-1.3047230823602635E-5,-7.014982236070867E-5,-0.06821652981145329,-9.549485021359845E-5,-9.268550302542826E-5,-1.1015008268324802E-5,-0.012326497022998121,-1.0154789537123734E-6,-4.758088101966665E-6,-5.515353856061362E-5,-1.0369932192370346,-0.20315100951074982,-6.609926984400523E-5,8.2151813481963E-5,-1.0369932192370346,-0.6380013834926852,-0.6380013834926852,-4.110308954169182E-5,-0.6913901075343899,-4.8494898957411054E-5,-4.8494898957411054E-5,-3.995026127418502E-5,2.616557654917516E-5,3.132886323938257E-5,-4.882766235431297E-5,5.910994878094386E-5,-7.439030851098768E-5,2.2506643025121557E-6,-4.8842961024115766E-5,2.8427990055641248E-5,6.991950415632378E-5,-8.03429175999887E-5,5.865593052546984E-6,8.079254529445038E-5,4.31158275062886E-5,5.4098197874152836E-5,-5.807784251914022E-5,3.82520758780957E-6,1.3080654952443653,1.215763063218007,0.03940647917832358,-0.1978897819470889,-4.020580059216072E-5,4.003149571034792E-5,-0.16158754268398914,9.740339630740301E-5,-5.105705847773136E-5,-5.466366466527756E-6,-9.409773869622199E-5,4.040076869561357E-6,-1.9323174166410682E-5,-5.642425586555036E-6,-4.8470200041012145E-5,2.4198406399116482E-5,-5.310610466850768E-5,6.613605991312549E-6,7.557752798071282E-5,1.6646425697496598E-5,2.1167313268805845,-1.797949537424775E-5,0.1739870030562036,-8.644394571914091E-5,-1.0357271557336414E-5,9.375913716271834E-5,7.213646584943619E-5,-0.19772288971992805,-1.979553724112047E-5,-0.19880917890498453,-0.19880917890498453,2.862797693970308E-5,-4.123628824148705E-5,-0.07144774838238498,-4.964293907024526E-5,-7.967665902674022E-5,7.651828319859866E-5,-5.716709465958318E-5,-8.403920320681674E-5,-3.331391821937599E-5,6.015343582746268E-5,6.807294195323677E-5,-3.355594678899085E-5,-3.355594678899085E-5,-1.2469840854522409E-5,-4.866949612110461E-5,6.194988261064009E-5,-2.4254034706197363E-5,-6.776756957228055E-5,7.522934584711826E-5,6.439437459806448E-5,3.6828426831366306E-5,-6.9018638788600285E-6,8.9657095699998E-5,2.89236467652792E-6,-4.40018021723778E-5,4.8908872735810066E-5,-0.1672243274141233,-6.446050265994382E-5,6.008555714147449E-5,7.729393717968024E-5,-8.471987650963057E-5,-2.584220030537038E-5,1.4362584561568471E-5,5.1900978994255164E-5,2.7500897440272057E-5,1.5208343769925037E-5,5.0662575849161524E-5,-4.9528488715112125E-5,-8.543382876713732E-5,1.319337932803599E-7,-7.236187625837038E-5,8.683230174772887E-5,7.143254197512186E-5,4.658197525834853E-5,3.508509163274376E-6,-9.283568801580726E-5,-0.504004358068785,-4.4752273482743777E-5,-0.06529453363373194,-0.051016399605371875,-3.543248213185902E-5,-0.5592638850081838,-6.670490871493776E-5,4.776253064617126E-5,1.3463298071750621E-5,4.358928135764879E-5,-4.078066574244723E-5,7.95273915751728E-5,-8.837223199042657E-5,-9.433046295972146E-5,-4.6317571712363524E-5,-4.102815979816141E-5,-0.12028551468400223,-3.0708562833806096E-5,5.210833969276249E-5,-6.629690224477788E-5,2.6464658257345627E-5,-8.658768014429031E-5,-4.003136333712465E-5,6.479575049500561E-6,8.225238983534892E-5,-4.299722695288015E-5,6.973547132295256E-6,-5.315381106961215E-5,4.008522188701303E-5,6.684488969137389E-6,1.257337735022102E-5,9.267798705787574E-5,9.622018952691553E-5,-1.757322543841669E-6,-3.3688460101438536E-5,4.921027535947007E-5,-4.1374551953421615E-5,1.9844243500186274,-5.2227867031626846E-5,-3.798880909001976E-5,8.453067520808618E-5,4.952215646898482E-5,7.072693680245619E-5,-1.9805245591374525E-5,-6.738545746574534E-5,1.266238854358585E-6,-1.1135200977564216E-6,2.5350586861248744E-5,7.5493896609305E-5,-3.5902996103512767E-5,5.372741351261687E-5,-1.485580288142014E-5,-0.32457975278699913,-9.47228445294304E-5,2.2122872881503164E-5,-9.482084055913701E-5,0.5710944833623827,-5.623988930900876E-5,-2.9548691666738094E-5,-8.351259847411385E-5,9.266480218621842E-5,-8.856279543357915E-6,-8.503665941332435E-5,1.9128123434477358E-5,5.478029764127104E-5,1.7200283498484926E-5,9.691227766845338E-5,2.600275830479546E-6,-6.157399131382435E-5,1.597845404687119E-5,1.652849644532291E-5,-4.6090973635246754E-5,-7.711169690176808E-5,4.404043748617674E-5,2.9609269626284767E-5,-5.4389699083783874E-5,-1.3914058449464225E-5,-4.0026826682233E-5,-6.737102435264469E-5,-3.021458212216367E-5,5.4640974598198306E-5,-3.767144930474113E-5,-6.149701351745792E-5,1.3780807229669414E-5,4.7751480858793685E-6,2.502575782440147E-5,-1.433030112030545E-4,9.00014725346213E-5,-7.475377751234644E-5,9.188315894604465E-5,3.7268224585947966E-5,5.463576667466874E-5,0.021349680986751704,0.004479164384898582,-6.981985759039913E-6,-4.464886458499616E-5,-3.7382885460756246E-5,-9.398924558104809E-5,-9.073217091219494E-5,-0.055434993796174885,7.689988214925486E-6,-4.7007005203749445E-5,-2.981964077513252E-5,8.273728382066228E-5,-3.640630462330971E-5,8.108511810110099E-5,6.844681975529604E-5,4.6979712916449506E-5,-8.806572377277304E-5,6.575868052418615E-5,-7.715826441355528E-5,2.8003653307440667E-5,-8.793800312395889E-5,1.0441142908876048E-5,1.663023617562415E-6,5.168948695973954E-5,-6.358235452663247E-5,2.144683059657093E-6,6.442596387905554E-5,1.3312261787326845,-0.5221437491315857,-4.050914234654827E-5,-8.206982488581844E-5,-1.3324706539771531,6.523453357238061E-5,5.412499865889195E-6,9.14289582269094E-5,-0.36110931554034087,-1.3324706539771531,-1.3324706539771531,-0.3126248729581498,-0.8948580456174933,1.6804934528803935E-5,1.6804934528803935E-5,-1.6941224043212814E-5,-5.600970866194641E-5,-2.5327252908118937E-5,-0.2750836273596167,-4.5709711915208024E-5,-4.5709711915208024E-5,-7.848455211276725E-5,7.114647838591061E-5,-0.07769853899768625,8.114785855317769E-5,-1.6529512107289412E-5,-0.8628942574100141,5.926073282075378E-7,5.926073282075378E-7,-5.452305675499954E-5,6.18032639254925E-5,1.0697774810497008E-5,-0.2953734786157464,-0.8628942574100141,-0.6345304023334041,-0.052261121251321416,-0.3535630638377685,-0.12767079119711577,-3.2254995614727184E-5,-1.5741451185529256E-6,-0.6667140327078288,-7.17190011339594E-5,-4.490998628199156E-6,4.353974649789726E-6,-0.6667140327078288,-0.6667140327078288,-0.6667140327078288,5.7599435295678465E-5,-0.34304426698751517,3.4193226759457283E-5,3.620488173021458E-5,8.994600531951391E-5,-8.406146655483144E-5,-7.547302691602959E-5,6.960749170992228E-5,-2.5866508961353517E-5,8.10037115789466E-5,5.650100575973761E-5,-6.097445165305505E-5,-9.116329342358997E-5,6.386885674261863E-5,-4.791770292013067E-5,1.153438626896011E-5,8.868340981111186E-5,-3.337725749121809E-6,1.153438626896011E-5,-9.138687084185233E-5,1.964047093632384E-5,-2.801946864162627E-6,-9.679358633468689E-5,2.216043561517126E-6,7.537157865051984E-5,6.366848084019637E-5,8.112832410763209E-6,-2.921442912154164E-5,-3.382265010800735E-5,-1.8990682147407658E-5,-0.32537381552589417,6.5593959465351645E-6,2.572232942573102E-5,9.637769452187219E-5,9.73259851434717E-5,7.206939527518699E-5,-4.190766204046711E-5,-2.9499633625249677E-6,-4.078955005175341E-5,1.6624757815492943E-5,-8.508544538270008E-5,-2.0562716079474658E-5,6.449674251934762E-5,6.449674251934762E-5,-7.171968013068203E-5,-2.6636749705668118E-5,-4.0108208479383445E-5,-8.419842978473429E-5,-1.6767635349624512E-5,-5.749801030088216E-5,-9.510809841398293E-5,-5.070189937645983E-5,-2.968582021655212E-6,-0.2516555138233828,-7.598507748338626E-5,-4.26718750254935E-5,-0.8177021394179761,-6.986448245669362E-5,6.359521861319962E-5,-8.111032128964607E-5,-0.8177021394179761,-0.8177021394179761,-0.8177021394179761,9.311064313654835E-5,-0.38122430510169814,-1.2244710607357584E-5,-1.2244710607357584E-5,1.9800531797610905E-5,9.806497931995765E-5,1.155711578899807E-5,-1.3097773786795435E-5,-6.248900213747533E-5,6.349566909006124E-5,-8.409803990538212E-5,-3.0175848776614424E-5,-3.403324193590221E-5,-8.408231743126142E-5,4.4864326539495004E-5,4.411387545535714E-5,9.047771378615885E-5,7.830978424795935E-5,-9.798739808997324E-6,-1.4004781581885864E-5,-4.284887840590148E-5,7.744250748836694E-5,-1.1320574126640408E-4,-1.438538732147435E-5,-6.238253120318672E-5,-4.8534446950299125E-5,-5.845683969338733E-5,1.9181558854961661E-7,4.258758675236052E-5,-1.9268183818143438E-5,2.9573741760576298E-5,1.0126169664759473E-5,1.2409019764997631E-5,-4.3424739703738735E-5,-3.4095888926073515E-5,3.180253990012509E-5,7.514409753063447E-5,-9.819459337310128E-5,4.597194151603885E-5,6.983128595204122E-5,-9.172498606594784E-5,7.839980900107996E-6,5.380431264858225E-5,-3.239238343736191E-5,6.364893122837143E-6,5.578353000162991E-5,-3.284575029141533E-5,-5.081326276343043E-5,6.184224537069113E-5,-3.415430569172906E-5,-3.335423412824856E-5,-3.260856255746606E-5,9.424565172141828E-5,-7.547819521569024E-5,7.675274710748457E-5,-4.209588425647265E-6,-8.422476669740104E-5,3.493868065259865E-5,-8.490143956993632E-5,3.589576602119241E-5,3.037609329706594,1.3589927696606166,-1.315225342336923E-5,5.214055499066183,-7.69296786404621E-5,8.180147224878698E-5,7.999972655773413E-5,8.016736275176994E-5,-8.966610306251239E-5,-7.435117260221292E-5,9.059681094021312E-5,9.402008662564822E-5,-1.205209969823613E-5,-9.913971682022317E-6,6.039284712410013E-5,4.495639461001589E-5,-4.628754986388143E-5,8.227579583767833E-5,-2.61824426261277E-5,4.376032985793988E-5,-2.4876089795140436E-5,4.539481732575534E-5,-1.0986039387432138E-5,-4.6626997482733534E-5,8.200075567246625E-5,-0.7850015101095613,-0.47339267773405225,3.6042299860896223E-6,4.863889139522675E-5,-0.7850015101095613,-0.7850015101095613,-0.7850015101095613,-6.243420913526129E-5,4.6195801695651394E-5,4.289098918201457E-5,8.169135530033475E-4,-0.6106218245302583,9.789988605124134E-5,7.170909650155666E-5,-1.2821904689732058,5.9382979399455296E-5,-7.821132097365702E-5,-4.083129977750237E-6,-0.33757415832917076,-1.2821904689732058,-1.2821904689732058,-0.27966800015817445,-0.7477381522148812,9.119720864220375E-5,9.119720864220375E-5,7.09380858219793E-5,-1.4141803136365734E-5,-0.028259499634273794,-0.19640406609844002,-5.3524129731327634E-5,-5.3524129731327634E-5,-4.4758852024517E-5,-3.12648818917554E-5,-0.13811177780392297,-1.665848665856012E-5,8.077033731438156E-5,-0.8088913755260106,-9.40040484645665E-5,-9.40040484645665E-5,-8.763119948270386E-5,6.560789734723776E-5,1.3638080756623469E-5,-0.24167888000789184,-0.8088913755260106,-0.5849766299396709,-0.04886828783360191,-0.3938225271220512,-0.12177604291695007,-2.4178389807168584E-5,2.344648757939978E-5,-0.5909400119375585,3.5772247037826714E-5,3.374772474640841E-5,-6.553514432607906E-5,-0.5909400119375585,-0.5909400119375585,-0.5909400119375585,-0.010300511498007963,-0.24271529676792206,-7.037728319284491E-5,-7.037728319284491E-5,6.893373034250766E-5,-2.1577318224511128E-5,-9.293097532497697E-5,8.146345378611723E-5,-9.204784192317259E-6,7.41950427603421E-5,2.9689911896662205E-5,8.089757377562683E-5,-6.192028970519289E-5,-6.984069835292423E-5,-5.1482643303306207E-5,-5.662042166060518E-5,-7.164252953949514E-5,-5.569578417285988E-5,-5.662042166060518E-5,-7.302587562165445E-5,-7.15091850430308E-5,-2.0479220374347275E-6,-7.739304795412352E-5,-9.632737092115989E-5,-7.505735729402753E-5,9.576488900588017E-5,-8.104269152298032E-5,-2.2275073848367172E-5,-5.5203991637821634E-5,-7.94272115427069E-5,-0.22489765218118118,-3.999564420259257E-5,7.496975052321333E-5,5.5820629885574185E-5,-2.490366538608735E-5,-9.511035708102044E-5,-4.027366251829544E-5,6.465407880765533E-5,-3.607782764942366E-5,-6.6051958843266E-5,-6.57157994921901E-5,-5.563878393057108E-5,2.6346867268684204E-6,2.6346867268684204E-6,-7.323909286862473E-5,1.1396958793020141E-5,7.778135661714469E-5,-8.368321634776742E-5,8.804236421088948E-5,-8.94583921077649E-5,2.2315409405487423E-5,4.139745396280269E-5,2.172003278704363E-5,-0.27745260465927835,-1.2127146027467124E-5,-2.620776811622491E-5,-0.7256029348055995,1.0262053941787565E-6,3.829489934387476E-5,3.829489934387476E-5,-0.7256029348055995,-0.7256029348055995,-0.7256029348055995,-0.06821295445533192,-0.3720136848080073,5.610472835865379E-5,5.610472835865379E-5,9.602865366363086E-5,-6.130609338854855E-5,-9.013912555244644E-6,3.164439720278924E-5,8.079512463630178E-5,9.141801699402997E-5,3.734363692543596E-5,2.255236034773796E-5,-5.832305105532421E-5,-4.556461907869098E-5,4.29529701843892E-5,3.1075406513155423E-6,7.274739290901949E-5,3.081040353576272E-5,6.926225295226276E-6,3.930468155411426E-5,-9.670194497100334E-5,-7.15326955426609E-5,9.267733700427447E-5,5.2727380079371634E-5,3.260710817239016E-5,6.774975210100732E-5,4.0509036730722916E-5,7.87479590063807E-5,-1.611546969439559E-5,-1.611546969439559E-5,-9.786434765850386E-5,6.783789122815041E-5,2.6581906264396693E-6,8.874793576013628E-5,-8.225486645023182E-5,-4.3728236629153946E-5,-7.183555781836109E-5,-5.690391889798302E-5,5.105515181648486E-5,7.165375564542453E-5,-1.7594555851480913E-5,-5.693586399264247E-5,8.07339371159096E-5,-5.492409331717939E-5,5.803529615669068E-6,-1.2247724527304478E-5,-5.815837106946733E-5,5.9683089783137716E-5,-6.4855209696290254E-6,-6.99995084786499E-5,1.5712183019960896E-5,-2.0096411843964645E-5,-7.607140471000277E-5,7.728317552474436E-5,-1.5227973907697538E-5,2.360976439103377E-5,6.82532930122993E-5,1.5169261557228489E-5,-0.1521369279754527,9.481477107541483E-5,-3.218100615304427E-5,-0.6689770984596717,-0.3568432816563001,7.498045923197443E-5,5.7409804441161394E-5,-0.6689770984596717,-0.6689770984596717,-0.6689770984596717,-2.736120442438169E-5,-4.690411578664326E-5,-9.57500401462826E-5,5.607221544769613E-5,2.3279564150138136E-5,6.3326263073788905E-6,3.086162958569575,0.1850014011823842,5.235478703931623E-5,4.639448694450805,-6.717957856201376E-5,-5.817408203899954E-5,-8.81075555462785E-5,2.4010388760521302E-5,-4.822856939137279E-5,1.6035847890947657E-5,4.666802104734794E-5,-7.512686959713661E-6,-5.665198775351045E-5,-6.55681630678071E-5,4.2099397260044465E-5,-9.031966128755529E-5,-3.227833630133852E-5,4.7675043060511516E-5,-3.443978972059767E-5,-0.5812510327602523,-0.32487405088949434,-3.4961522052465253E-4,-9.270355176760789E-5,-0.5812510327602523,-0.5812510327602523,-0.5812510327602523,5.1968403261590056E-5,-4.7943920145513655E-5,0.1431253741492436,1.2146386953602761E-5,-8.35500059749304E-5,8.181837501880785E-5,-3.442371375990816E-5,6.323475771309467E-5,2.710554267215433E-5,-3.410217068373129E-5,-1.3785722912961919E-5,-9.665442932016744E-6,-3.888393780323833E-6,-7.467099675531773E-5,-5.345113936972583E-5,-3.368465476452332E-5,-6.905287289243241E-5,3.6433647540178984E-5,-2.9578193705044443E-5,-5.3823809280464314E-5,6.730048957979205E-5,-9.664635558487591E-5,-5.487655326607077E-5,-8.80830373084391E-5,4.489391371257197E-6,6.221197992906119E-5,-8.942437567113331E-5,4.876298458931529E-5,-1.9451602224723622E-5,-3.752159515194381E-5,-0.28731757276370884,-7.545994595544144E-5,8.565418623732869E-5,-0.4079065694580589,-0.3440758326849999,-2.9340815249916146E-5,1.3166552702367383E-5,-0.4079065694580589,-0.1270430877423818,-0.1270430877423818,-7.517663197977872E-5,-4.0159456649447144E-5,-7.25993504776779E-5,-1.2245542757944439E-5,-6.272922360462128E-5,-7.847502447015458E-5,0.03258891077341517,1.1287006018103512E-7,-5.274331104631492E-5,-9.235347130557816E-5,-4.144549827445115E-4,-4.335782685850838E-5,1.5824938810532626E-5,4.924997731943785E-6,-0.0025879772893116146,-9.027050953259929E-6,-9.111388439008983E-5,5.795990493480415E-5,-6.046869862038138E-4,-7.414010223152578E-5,4.042387059092822E-5,7.213679151135218E-5,-4.198538725446404E-6,6.756819727179452E-5,4.2946653546594574E-5,-1.2828363328490626E-4,-6.996313102188828E-5,-0.14857080293438032,9.498249579592379E-5,-3.401668327508073E-5,-2.2707376029845226E-5,2.8292042926387684E-5,1.818373947583442E-5,-0.3290177049248622,-1.2476594349023824,-0.34046936251604976,-2.2232919254495346E-7,-1.8839148384909647,-1.8839148384909647,-1.8839148384909647,-0.052481096217242555,-9.753084095688671E-5,-7.132961114102268E-5,-7.571238590640153E-5,8.94249705091E-5,8.94249705091E-5,-9.644519765534626E-5,-3.2779900082774763E-4,7.223843521384411E-5,-0.30328200288440277,-1.1317422445627732,-0.0012561761467639026,-1.797490323838391E-5,-1.6093463699623392,-1.6093463699623392,-1.6093463699623392,-8.974201582809675E-6,6.700734532872653E-5,-7.636665637760443E-5,-8.451403834637558E-5,-3.671494406727351E-5,-6.631978301719079E-6,7.48605208805693E-5,0.15783984160757172,0.12460500675379023,-2.2699931642601682E-5,0.7496959513518732,-2.6270583576451612E-5,7.937499336769469E-5,4.0633345190746E-5,4.5194078802047666E-5,6.686004148367189E-5,5.0579138345459835E-5,9.510161832863747E-5,-2.777825003030289E-5,-5.254013747856207E-5,-9.137564480034983E-5,-5.130596831450253E-5,-7.891207674589997E-5,1.1655410482364526E-6,4.729280023705099E-6,-1.1694002949235623E-5,3.490186612558024E-5,7.050377905269087E-5,1.650281928221084E-5,-4.919002887732796E-5,-1.5043719847666336E-5,-4.707886594871426E-5,-8.06051596989335E-5,5.7865321580749296E-5,1.5872494379396606E-6,-7.116801005233763E-5,-2.9796253601326554E-5,8.618373422779912E-5,-3.746695843091465E-5,-0.020140066385510497,0.4584537009826376,-5.231886920116502E-5,-1.9817360896519555E-5,7.394994428511346E-5,7.800425241237419E-5,4.8140394915772864E-5,3.419699042737046E-5,-4.413850100684598E-5,-0.5764603524730282,-1.5213622729915788E-5,5.17693056366731E-5,-4.6801183378643394E-5,-0.5739854303261738,7.706242590498737E-5,5.07808258334746E-5,-4.1435171754424206E-5,3.141488932538607E-5,-6.065240796672549E-6,7.768594137803524E-5,-7.980391925542401E-5,-4.8472063015621685E-5,-6.75879458570227E-5,5.652890092564791E-5,-3.415037759550223E-5,8.452164569487845E-6,-5.468640844098548E-5,7.634249379893586E-5,-9.777013204270176E-5,0.5686410852741302,-0.1341647179165399,-7.299915612539111E-5,-0.006683757350815222,-7.865098649174248E-5,9.214152038458805E-6,-1.3073573130709262E-5,-0.10775273085002943,-0.10775273085002943,9.474597365926837E-5,9.474597365926837E-5,2.733457805236454E-5,3.932317500792451E-6,-9.901012813734255E-5,-4.1508617409112466E-5,-9.275216808688096E-5,-7.98837541397252E-5,1.659929754839171E-5,-2.725047500481513E-5,3.017752794745998E-5,-1.574971658076552E-4,-1.809888394584608E-4,8.046404871232151E-5,-0.7723765269603784,-0.0952122985837,4.8232218105825245E-5,-6.676728742779469E-5,-0.7723765269603784,-0.7723765269603784,-0.7723765269603784,-5.643477843280642E-5,-0.33432974560315987,6.305104116609479E-5,6.305104116609479E-5,-2.9840893810861407E-4,-3.0630245035214555E-5,8.042418349962122E-5,-7.228655792714455E-5,-7.194704516548501E-5,9.467445585654879E-5,-2.4866026450948964E-5,6.097902657173727E-5,5.223517795606221E-5,-1.7712195377912588E-5,1.5407499563800913E-5,9.405716788588369E-5,8.901560102091229E-5,-3.4247262287313016E-4,-3.087197643176874E-4,-9.895099863522969E-5,1.9158617903665512E-6,3.7107701177097825E-5,-7.704191189212409E-5,-2.4978410074530082E-5,7.356867784720789E-5,-7.930999780807039E-6,6.582470817048017E-5,-6.284057068836949E-5,4.079376592187485E-5,7.807636473208826E-5,7.707382304994608E-5,9.438196952388002E-5,5.335609020375745E-7,2.223545196526066E-5,-3.9711826017751486E-5,-1.7674994306979958E-4,7.046046547232475E-5,-5.3122072142337674E-5,-9.539029365028968E-5,-5.195588735513682E-5,4.4488498267778394E-5,-7.632451608784139E-6,8.820768497866838E-6,-5.6647740970142355E-5,-7.973974543963973E-6,8.466567774675783E-5,9.279319074739042E-5,7.607019013522394E-5,-1.801284849419547E-4,-2.6290891469058167E-5,-3.730459623040108E-5,3.919452818805824E-5,-0.6131212064563808,-0.37846724364446466,6.362688255671573E-5,3.5371389243811578E-6,-0.6131212064563808,-0.6131212064563808,-0.6131212064563808,3.644088353923683E-5,-0.2875424884599342,5.759366271961637E-6,5.2330298495076796E-5,-5.873429107856164E-5,5.265931856244181E-5,-6.25060866862242E-5,-6.738384310622389E-5,6.485956359642483E-5,-0.39651784410427404,-0.20200443866304035,-0.003112651550574542,8.811452859860998E-5,-0.39651784410427404,-0.39651784410427404,-0.39651784410427404,-6.447942958698258E-5,-9.447132167319535E-5,-8.115395225725901E-5,4.183943569707478E-5,1.1826744698411367E-5,7.4840802370814E-5,-3.817799692831327E-5,1.8819312726315693E-5,7.682516475831571E-5,-1.6703432325192185E-6,-6.729365004662737E-5,1.7286054570318625E-5,-1.3370439294773371E-5,4.5539589552440055E-5,-2.5193242445476958E-6,1.1782517494976101E-5,4.638258133161431E-6,-3.7402502766501004E-5,4.162663025586543E-5,4.928408435911287E-5,-5.88808013232759E-5,-3.599433002024977E-5,1.687656382520089E-5,8.413947709030955E-5,-5.3338207860531694E-5,-8.739138965253392E-5,4.2301670655264776E-5,-3.713976485031093E-5,1.0717576663516769E-5,-5.196015119277818E-5,9.194199192846735E-5,3.562619237606007E-5,-7.08581653050899E-5,-8.939644662567356E-5,-6.314170937010279E-5,8.611635756221874E-5,-1.0361201523585486,-5.6689818826728304E-5,5.384808822532831E-5,9.500812973227966E-5,-7.782144023174956E-5,6.82189089211485E-5,1.5885710005728596E-5,7.497293041782593E-5,8.121043156465316E-5,0.32310156075209057,0.013317110444151667,-9.719531844541012E-5,-7.429293600016911E-5,-3.514239373069126E-5,-8.551956467159031E-5,6.520284132692107E-5,6.520284132692107E-5,-6.36880745158258E-5,7.979969504021567E-5,8.928619183146706E-5,5.394807395266446E-5,7.615163884968856E-6,7.615163884968856E-6,-7.359078312642615E-5,-1.8381731812506426E-5,-5.406055830711492E-5,-1.1839196754508688E-5,-0.9823727699270081,-4.311363831795712E-5,-6.818762303598976E-5,-0.3690806357931534,-8.946282017258195E-5,-5.9362844662004245E-6,-1.4802675245768524,-7.150445626020342E-5,-2.260441692116887E-5,-4.1751533293354166E-5,-0.4648429266453938,-1.4802675245768524,-1.4802675245768524,-0.12009616549120358,-0.8404540901582822,8.017875432814989E-5,4.0043489105770265E-5,1.6764346589881433E-5,6.360990917478858E-5,-0.03705490514754468,-0.18499398430768108,-0.009167182048844777,-0.009167182048844777,-4.046286480031341E-5,6.94996910756893E-5,-0.15443565732281073,-9.213204751052227E-5,-8.7246375650461E-5,-0.9439462961863423,-4.949721611943102E-5,-4.949721611943102E-5,4.1426177908036826E-5,4.7086693952227255E-5,1.0753192542227154E-5,-0.1918388015108717,-0.9439462961863423,-0.6156829021820455,4.864627392831466E-5,-0.4213618623104791,2.1757071522348403E-5,-3.4262416676826565E-5,-1.7456428561079586E-5,-0.7398264928212185,8.90485768549862E-5,9.327862934899098E-5,4.224870711234239E-6,-0.7398264928212185,-0.7398264928212185,-0.7398264928212185,3.3465142610030155E-5,-0.23924482869502614,-5.2042240599609796E-5,4.218130790561332E-5,-6.626946015733942E-5,-3.0944499084586464E-5,4.230828144639417E-5,4.810748833930191E-5,5.8729807165917756E-5,-7.239214386150938E-5,7.693027613082193E-5,7.693027613082193E-5,5.8295621733277705E-5,-8.157326157493875E-5,4.2104446494486636E-5,4.505388084236144E-5,-7.90396718938744E-7,-5.382967733801423E-5,-4.6844354062062655E-5,-3.646452375756501E-5,-9.106902673765718E-5,-2.145627089088777E-5,4.048698394525503E-5,4.798191764797413E-5,4.63895443824774E-5,-8.49837338536815E-5,6.275840732738398E-5,-5.9557469141765054E-5,-1.4216146392394762E-5,2.5649094669070324E-5,-0.3127305813879417,-9.693597906243271E-5,3.776815361876939E-5,-5.7712140639057575E-6,4.128345446882537E-5,2.464494345967016E-6,-2.853951627803285E-5,-4.4152838785370825E-6,-6.776906194022032E-5,-1.0196960955304637E-5,-6.418812438589338E-5,3.8443626722183046E-5,5.107081982485268E-5,5.107081982485268E-5,-2.0488084482058906E-5,-6.840437054143727E-5,8.633119784180851E-5,-9.282926206849405E-5,-6.821572399371866E-5,-8.56261219071867E-5,-9.291179387436346E-6,1.6899434362857736E-5,4.2310602927803725E-5,3.150020929613207E-5,-1.0163505061129669E-5,5.327122387321078E-5,-0.8027259696548051,-0.01120996939617682,7.001349732921426E-5,7.001349732921426E-5,-0.8027259696548051,-0.8027259696548051,-0.8027259696548051,-8.96292461507475E-5,-0.400838349815038,9.127880468196229E-5,9.127880468196229E-5,6.95028839869444E-5,6.394234740885978E-5,6.127555794440776E-5,3.151276039085074E-5,6.654811730977303E-5,-3.188270718376621E-5,-2.994288938735969E-5,-9.887728614886544E-5,-8.408443196943532E-6,1.7302877972417253E-6,4.0298363577140494E-5,5.371960886488975E-5,-1.977705287924536E-5,6.277933472927474E-5,1.3433545246324956E-5,5.950688918600123E-5,-8.051612546735307E-6,3.545300861477717E-5,-2.840064585639064E-5,-7.004032918503196E-5,6.244873153662088E-5,-3.560166340855712E-5,-3.032246650519252E-5,-7.976690710477071E-5,5.127005536029675E-5,8.194741878245966E-5,-2.226768671101571E-7,-7.466306114314826E-5,-3.244892234786704E-5,-1.3031532815721913E-5,-5.235503952053726E-7,-5.304310900591515E-6,9.155607327297215E-5,2.218951199530302E-5,-6.037349969837423E-5,-7.590005646417657E-5,-8.35146929978511E-5,-7.21497306915259E-5,-2.2931791684589062E-5,-8.145301119519337E-5,-6.366375479561576E-5,-6.241521625730532E-5,-7.232587664882985E-5,8.603569755979607E-5,2.286675730589591E-6,-1.3360793765638987E-5,-9.64319587492923E-5,9.5915593005196E-5,-3.794445830713061E-5,-0.659916190345285,-0.3926671012665187,-5.682090891853987E-5,5.545367291841854E-5,-0.659916190345285,-0.659916190345285,-0.659916190345285,8.710774047021558E-5,-0.3613403428763823,2.905557968328469E-5,-4.032082328609839E-5,1.0839996100961029E-5,-4.88571183636906E-5,8.937015151105001E-5,-8.531359872170797E-5,-0.4746117204202882,-0.15488433899200496,-9.380518019848507E-5,3.0570433470006715E-5,-0.4746117204202882,-0.4746117204202882,-0.4746117204202882,-7.705623112667974E-5,-0.2715872696006923,-8.70953518531538E-5,7.53610230883718E-5,-8.94302918965163E-5,-7.259299553189074E-5,7.472667332318204E-5,-3.874721720893167E-5,-8.415871948928017E-5,4.083635577081584E-5,7.61067151597681E-5,-8.244671285174346E-5,6.862445725871265E-5,-3.8186420996780396E-5,-5.124790299524847E-5,7.404453907581204E-5,-3.7267178532466785E-6,-8.231463574437035E-5,-6.517178622034462E-5,9.499946377420352E-5,5.8920996691732854E-5,4.8957385033191974E-5,6.611525517263983E-5,3.56860966584745E-5,9.355931578208134E-5,-2.2172384089235193E-5,5.332862921605591E-5,2.4684879381191342E-5,2.6055809095434918E-5,-2.8513313161424584E-5,2.561084168807205,1.7549589583662657E-5,0.5311973037417169,5.680890529439701,9.186371679141946E-5,-8.318292512112562E-5,-0.12115554167790685,-5.3481332530463E-5,-5.3481332530463E-5,7.758390907367768E-5,-4.8124531241495295E-5,-4.8124531241495295E-5,-3.4310176603914464E-5,5.138085229031356E-5,5.138085229031356E-5,-6.861544372035577E-5,-8.67174703367752E-5,-8.67174703367752E-5,-9.042699689673021E-5,-8.163520519617249E-5,2.6912774273521833E-5,8.471227697710942E-5,8.471227697710942E-5,-1.5250137591625104E-4,3.667816884842101E-5,-1.844502540499071E-5,-5.2709068147300194E-5,-5.2709068147300194E-5,-8.034519819785875E-5,-9.23405487576511E-5,-2.6255277584674497E-5,-0.2914676854095903,-0.6703970180757675,-3.6147964770070654E-5,-1.275942507145775E-4,-2.1823123096670907,-2.1823123096670907,-2.1823123096670907,-0.2643743500533667,5.744662341765735E-6,0.0050765422409763325,0.004965266187102149,1.103927071288278,1.0669495762355446E-5,6.096704845126919E-5,5.330773709745316E-5,8.897280426347385E-5,8.897280426347385E-5,-3.470434642599317E-5,-2.5757678742532167E-5,-5.9209728393846996E-5,-6.1013900415411577E-5,-7.328130200339449E-5,2.328558057278026E-5,2.328558057278026E-5,-1.9827220850574548E-5,-1.479736524666714E-5,-9.535229085566184E-5,-9.535229085566184E-5,6.1311372020791515E-6,-1.8017391669087436E-5,4.019936919363558E-5,7.37537036046281E-5,5.27534030490766E-5,-7.463120790364237E-5,3.7305044587687244E-5,-2.690536155861481E-5,-3.683100628001259E-5,8.482296665153774E-5,-8.111653415236873E-5,-6.845020749826767E-5,2.8499777953961395E-5,-2.9542411315248323E-5,-9.604409902904749E-6,1.830395739026405E-5,4.844087787785986E-5,2.618724119580214E-5,-2.8585820324152124E-5,-0.7078550019752193,5.202839672959278E-7,-6.04822796560761E-5,-3.622511657158974E-5,-3.622511657158974E-5,-9.326527765637232E-5,1.9032404870534948E-4,-6.083826739783855E-5,-9.362154414668782E-5,6.087368860528553E-5,6.087368860528553E-5,-7.451245892856442E-5,4.413554009161131E-5,-3.822296147125218E-5,9.362154414671973E-5,6.547855977852411E-5,-7.950113863899454E-5,4.280404630563552E-5,4.6719210612362556E-5,-4.2804046305604694E-5,1.0914364397957824E-5,-1.3519165262473577E-5,-1.9251929135390394E-5,-2.574752721410238E-5,-4.4789571120503064E-5,3.541663990854651E-5,6.228216717322523E-5,8.296855691265587E-5,-6.0101466201997294E-5,0.4940880539780637,-3.938721100689716E-5,-2.952718698386698E-5,-3.5903177997559507E-6,9.84520685395177E-5,9.84520685395177E-5,9.85348420154556E-5,-2.2751992021914822E-5,7.1651251740658994E-6,2.9805295982840386E-5,3.8798848453455365E-5,8.340718961743321E-5,7.466661763774052E-5,6.615510535814135E-5,9.545045472113533E-5,8.836501606658353E-5,-1.3157180677345287E-5,-8.627329107073107E-6,-3.2180559170944486E-5,-2.316519348498365E-5,8.618118499989136E-6,3.587760740658767E-5,9.506696199521809E-5,-9.558882918890486E-5,-5.929276781200487E-5,4.595058837849398E-5,0.007110252063932943,-7.049060511140853E-5,-4.186170705422321E-5,-5.2878807499777E-5,9.471266524932218E-5,1.30858648107572E-5,4.52154343957541E-6,-4.837038418028811E-5,1.9376798858596473E-5,8.333210459861252E-5,0.0022628639960420097,-1.645866525533423E-5,8.300376225168829E-5,-7.406670988997304E-5,-2.578283000364316E-5,2.25058288880903E-5,7.078787521837228E-8,-0.3555098472156594,3.441038973428967E-5,8.749822595891416E-5,-1.2899907894486389,8.265586717795198E-5,8.265586717795198E-5,-4.3689204308342347E-7,4.94646915668733E-5,-7.972032410564207E-6,-0.16644270976439893,-1.2899907894486389,-1.2899907894486389,-2.588592526200048E-5,-0.7144801422303545,1.0242087748822695E-5,-8.283052136087947E-5,1.703544825687681E-5,-0.30049055987107126,-8.502823170956946E-5,-8.502823170956946E-5,9.120693619510399E-5,1.1497941338170134E-7,1.0219378815609542E-5,5.882305176370365E-5,-9.766135030094497E-5,-6.134103406308861E-5,8.793639917170496E-5,-1.760389313575856E-5,-2.3879851996214444E-6,2.6568912120460494E-5,8.696985919767895E-5,2.649928241792618E-5,1.643050346447278E-6,-2.655848802611305E-5,-5.510924582084968E-5,-0.004249952335022532,-1.3390736751205974E-5,-1.974797428495794E-5,9.102141363959615E-5,-7.192464118255637E-5,1.3308999631877344E-5,-0.5605638180039839,-7.460504262390104E-5,6.409924339299266E-5,6.409924339299266E-5,-0.5605638180039839,-0.5605638180039839,-0.5605638180039839,2.4412971672939493E-5,6.994319435736354E-5,-5.34552619175634E-5,-4.194897374307791E-6,-9.642283258213661E-5,3.153158253678008E-5,-6.045083486518263E-5,-8.921992287875473E-5,-8.921992287875473E-5,-6.132627807957662E-5,4.279230905077819E-5,-5.835196775004397E-5,6.145109144372593E-6,-8.769383687880588E-5,2.4657492876438493E-5,-5.847514361294664E-5,5.7499213845881825E-5,-7.33037419349696E-5,-3.589082600969758E-5,-5.183135677017355E-5,4.0189596847496553E-5,4.0189596847496553E-5,-3.017774413365676E-5,-8.216196801304978E-5,-2.7088584924198333E-5,-3.7571601405694095E-5,3.260008922704473E-5,6.190574087471276E-5,2.6538805026219943,0.029691379508136835,6.963156022654778E-6,4.860195342245106,-5.051447992291758E-7,-8.144765835342457E-5,3.687435391152831E-5,9.384881607412895E-5,9.284273229618871E-5,2.081313543802037E-5,3.131060450877749E-5,-8.886352957041461E-5,3.42542645618171E-5,-0.44707498374106214,-0.07465680713203464,1.2467568405533796E-5,6.311889958584099E-5,-0.44707498374106214,-0.12521602922006933,-0.12521602922006933,0.41145507689702276,0.5358471940004664,8.47721418743766E-5,0.002504563634703632,2.3759943237445128E-5,1.698617176378736E-5,1.454971009319289E-5,7.11782073607942E-6,-3.197169157561071E-5,-7.135586363013042E-5,-0.6191954923416044,-0.6308614703338631,1.869633148363767E-5,6.140014364322394E-5,-1.688885242014436,-1.688885242014436,-1.688885242014436,-6.182948768664888E-5,2.799857868646531E-5,9.386715205570928E-5,-5.142082862464411E-5,-2.2458191443807334E-5,6.0510325882449174E-5,5.074761478609529E-5,5.149447549066116E-5,7.979048506098599E-5,-1.5505894031751688E-5,-0.22649901098184505,-6.0448879749085634E-5,1.562785314433379E-5,-4.6041372215127174E-4,-7.384535236628083E-5,-0.1304638737622574,-0.1304638737622574,-8.121663304772525E-5,8.788732434227035E-5,3.2199217653063603E-6,-8.052787374263492E-5,0.14000893645224027,5.399501496688072E-5,-2.895058884120743E-6,-5.288179704989755E-5,-5.288179704989755E-5,-7.594350853330035E-5,-4.7199221228801005E-5,-0.23124285413307322,-9.17317327532448E-5,-2.2513736569061216E-5,8.195683103540505E-5,7.698656202344886E-5,-4.880819712434393E-5,9.157839408131672E-5,-3.127082340358073E-5,-1.2749355979868558E-5,-6.28416791704752E-5,-1.8584767149330887E-5,-3.329875476263925E-5,-7.338538685355241E-5,3.384203181206788E-5,6.261821456405117E-5,4.710494361718052E-5,-5.668692459760797E-6,-0.041040065927650346,8.440748169407144E-5,0.6277707759075375,9.377001458167588E-5,-9.72295267224767E-4,6.45650497381562E-5,-6.266823497368571E-5,-0.001056509158536298,7.418600589664877E-5,-8.699264881339602E-5,-1.1987163112066597E-5,-7.8071986975506E-5,-7.04437706468002E-5,5.629015522911636E-5,-9.780723108447548E-5,3.205632756522942E-5,7.390100393442544E-5,5.6488643320000344E-5,0.21855117794094547,0.12723042903630954,7.823447000409299E-5,-8.643707473407228E-6,-3.712981134659366E-5,-3.712981134659366E-5,-4.1162718073486865E-5,2.89412423468456E-5,4.341626925652873E-5,-3.5876030702336906E-5,-5.477622979019488E-5,4.323790505770108E-5,3.807381837287096E-5,4.184878222866485E-6,8.514436806173895E-5,-4.057700440287321E-5,-4.057700440287321E-5,-8.139523879800657E-5,5.760893131518336E-5,3.626423973242002E-5,-9.958485610508084E-5,-2.1323087257827942E-5,8.636642775965747E-5,2.9245494817503766E-5,-4.096776826847721E-5,-4.9838530564715385E-5,5.1736821612503544E-5,5.622183699450721E-5,-3.8619616544840766E-5,5.758248895521576E-5,-4.997147958677478E-5,4.102664753988849E-5,-3.2115512460986068E-6,-8.931198126300844E-5,-1.7214324039840033E-5,6.839681314118004E-5,-6.939699345727886E-5,-8.171883388782621E-5,1.2961671539218005E-5,-0.5992696626215035,8.575466318761704E-5,5.008599287045952E-5,-1.0326179362735909E-5,-0.5992696626215035,-0.5992696626215035,-0.5992696626215035,-9.337337834156615E-5,9.242539406334693E-6,-7.600683426886514E-5,-2.389288220024178E-5,-3.306166859269678E-5,-4.271454822569815E-5,9.09379277775794E-6,5.731897156349793E-5,3.9447076684670336E-5,9.628452988241361E-5,-3.416141504195794E-6,5.7977676275977375E-5,-2.4712445788845376E-5,-5.1950400463354354E-5,2.5909828424969803E-5,3.63314301586129E-6,-1.0046725164351589,3.652007893314791E-5,-2.1219693340403917E-6,9.648961311886185E-5,-5.568431749386413E-5,-3.1958769922071266E-4,-0.22959924991922973,-1.7819842139759495E-4,5.632905551021447E-5,8.120950021237685E-5,-4.4272226759748795E-5,-9.14088098643176E-5,2.2842439192346156E-5,0.4952845436754479,1.7321027232344335,4.993426172385704E-5,1.4467962392525748E-5,-8.110086354254233E-5,-0.24933733010107123,-8.922148686019561E-5,3.942616765509828E-5,4.533080689353552E-5,4.176894811948429E-5,3.05648791282567E-5,-2.38783976727455E-5,-0.3599676247617353,-3.801747799235327E-5,-3.6391126542862856E-5,4.096657219035464E-5,-3.086529563885664E-5,9.121753191264765E-5,0.22461679984631389,4.881195747563836E-5,8.036403962290205E-5,7.172891904332288E-5,7.172891904332288E-5,5.5074916241025143E-5,-2.453685453692177E-6,7.412218611167363E-5,-2.453685453692177E-6,-3.521703873209079E-5,-7.257143944257446E-5,8.634868365567819E-6,7.952277235274769E-5,2.7940545688774664E-5,-7.913298156280457E-6,-9.674334341720973E-5,-1.0804660681361893E-4,5.524032540946373E-5,9.136390195530587E-5,1.123613364000531E-5,-1.6178019655768895E-5,-2.7712324423168636E-6,-8.532648639784419E-5,-2.1580180092898012E-5,4.419196617866157E-5,6.34228336545804E-5,-8.51691039742619E-5,2.2387291116326155E-8,-1.8163089329266933E-5,-7.181363275566468E-5,-6.104259657940486E-5,-7.133354232794566E-5,3.728348028028439E-5,7.077770455724911E-5,-1.2863568147436933E-4,6.773478300895562E-5,-9.084805206979629E-5,8.306819898699089E-6,0.0044251926314807346,-9.098368321844405E-5,1.2041867364078526E-5,9.16197530477206E-6,-7.53159196030141E-5,-8.114194338625539E-6,6.568766464452896E-6,-4.266237699114412E-5,6.149837166147484E-5,8.77778993822517E-6,8.062519085133961E-5,-9.52291970647777E-5,-9.083765657977824E-5,5.741701733216602E-5,7.666602670358674E-5,8.536415397749737E-5,-7.728577601460074E-5,7.325866634470294E-5,4.463391389316156E-5,7.078245445066102E-6,3.0291369040198992E-5,-8.810156652268253E-5,-2.892612112861445E-5,-2.2720457573875246E-5,6.851829304150707E-6,-6.943023658844728E-5,-4.5136856158843144E-5,9.224029816418461E-5,-4.350970808765262E-5,-7.19620436004944E-5,-6.859005709906863E-5,-3.7924898703584477E-5,-3.1742719328503564E-5,8.465858986807321E-5,-6.656048352677508E-5,-8.211476519530143E-5,-9.931339931537089E-5,-7.958675047248915E-5,2.2294779546446153E-5,5.584079828395392E-5,4.461956214328315E-5,-8.170946715348986E-5,0.2452671120877609,7.914052124447117E-5,-3.812880209091452E-5,-9.204430328152866E-5,-5.722953568930387E-5,-4.269913519574774E-5,-9.818614312072875E-5,2.543505567588075E-5,-7.681083647682088E-5,2.650109586658985E-5,1.3215837011056888E-6,1.6680963038409851E-6,1.6680963038409851E-6,-4.698048766587922E-5,-4.808905560256519E-5,-9.178463662810913E-5,-9.457565514400551E-5,5.449639474167834E-5,-3.211209171740694E-5,4.934636435560296E-5,3.0938012546164067E-5,-4.840210703213722E-5,5.3318608329647906E-5,2.7586318592248167E-6,-7.814105497840542E-5,7.05010107978539E-5,-6.740447675059056E-5,-0.4265602327841785,-9.805485080934041E-5,-8.506203842210807E-5,7.883436505564023E-5,9.709201675422137E-5,-4.963119838554688E-6,-6.663380920480483E-5,3.2303003798465413E-5,9.474841111610441E-5,-2.3039523185623738E-5,7.942219148414626E-5,-7.182301334102455E-5,-5.226065241810594E-5,7.732572895800816E-5,0.11020696073068441,-0.3863028839850015,1.2406006466712382E-5,8.508939880118169E-5,-0.2052555952153269,8.53192073546347E-5,-6.518229078304497E-6,7.973403204102139E-5,-0.0012634487753324175,-4.824985515055287E-5,-4.434257195402628E-5,-2.4538252816557743E-5,-0.5493769898513384,-0.8313246570747641,1.8487510437763198E-5,-8.553344302906032E-5,5.8131996276630445E-5,-6.645056024983767E-6,-6.645056024983767E-6,1.5369561828378303E-6,-7.4591132808902E-5,6.626059971028667E-5,4.041097540084782E-5,-8.86404513018047E-5,9.115190161710454E-5,-5.1043200490202184E-5,-0.10140377688664146,1.239587129852807E-5,1.3227421078108051E-5,-0.6767789262668564,-6.737779061472236E-5,-4.284004628826156E-5,-6.498906919899708E-5,-0.6767789262668564,-0.6767789262668564,-0.6767789262668564,3.1413302663461993E-5,-0.4160349627421621,1.5892868669866334E-5,5.457273249218193E-5,-8.830967173616345E-5,7.83811508590235E-5,9.234296574812365E-5,-8.143928824658154E-5,-5.649282264460566E-5,-5.649282264460566E-5,9.51396424892948E-5,-2.360729925313488E-5,7.78710660006062E-5,5.3978520303917156E-5,-8.22286193642526E-5,-7.951761163152901E-5,2.867408115259799E-5,-7.512246515782203E-5,-7.961364385461602E-5,-7.356439408824438E-5,-8.362651809031562E-5,5.298053260073223E-5,4.1159707872765264E-5,-6.744082682443031E-5,-4.603026476579531E-5,2.6556191864841026E-5,-1.4962873694941166E-5,2.5289514114424814E-6,4.80128081955386E-6,4.80128081955386E-6,9.058067813007127E-5,9.416773998886862E-5,6.463423653854035E-5,-7.926327724034393E-5,3.5328269473004564E-5,2.773783449662369,5.0366300430392774E-5,0.08140780941252668,-4.310158875761496E-6,6.42128039713476E-5,-7.725611409372146E-5,-1.1042509266315066E-5,-7.708801822562543E-5,7.675043472333565E-5,2.885702374894511E-5,1.6363936691397182E-5,2.3537385303582268E-5,7.780487800043045E-5,-3.470761795013204E-5,-4.852315981387612E-5,-3.6299672728916735E-5,1.8529001030419875E-5,-1.543587468368307E-5,-7.983968306008662E-5,-6.9561255590327E-5,-0.1642160152768563,8.758746861724473E-5,-0.06071412290132212,0.2385068054090316,1.354322725180705,1.6002087291266096,-6.324866108758725E-5,-8.766725260156128E-5,-9.407176213551792E-5,7.454709042476504E-5,6.123587438986435E-5,7.629528916075564E-5,3.049491000067114E-5,-1.7785073448274664E-5,-3.68228919850706E-5,-5.208471013746529E-5,-0.6399513167578813,7.481533973185373E-5,8.058314829632303E-5,2.4464591855803463E-5,-0.09476143414537944,-0.2056287059516748,-1.4376648694348942E-5,8.97313290779669E-5,-5.567736570051879E-5,6.512125322589765E-5,7.663806849434403E-6,8.175707623614649E-5,-4.9804479173225986E-5,1.2008008365141883E-5,-2.8924875247655205E-5,1.8710431456397088E-5,-3.2467556128722865E-5,5.736300417300409E-5,-5.488626888480971E-6,5.628489709669319E-5,-0.14070872429218023,-1.0770130184790689E-5,-6.309341743150886E-5,-0.48619526563265764,-2.882773136640075E-5,1.0679204850435941E-5,1.2952566192728953E-5,-0.48619526563265764,-0.48619526563265764,-0.48619526563265764,4.496504425007442E-5,-0.3119945145402753,-3.783935622314163E-6,-8.583890661604123E-5,6.598866411455995E-5,6.839422934764249E-5,-3.903252165842159E-5,8.517914586522889E-5,-7.24566492160219E-5,-6.1913820688726696E-6,-5.9374436226087646E-5,9.84266977905901E-5,9.866148046212349E-5,-7.076925910560126E-5,-0.21131487414171066,6.366292271314943E-5,7.733972688303418E-5,-5.911576837944002E-5,-7.208919630987578E-5,-1.3824781592367116E-5,6.386995317031691E-6,9.414666866463063E-5,9.414666866463063E-5,3.138051534396512E-5,-3.978355742470988E-5,4.8242551629268377E-5,-4.517811230220887E-5,-2.057428628352626E-5,5.99215447232874E-5,6.660079309501733E-5,4.257712568267067E-5,2.6043265161127492E-5,-8.183263494467919E-5,9.43560307666522E-5,-4.8252391266569875E-5,8.13197143552049E-5,-9.591931887492507E-5,-4.63871640376262E-5,-8.453010123440444E-5,3.3963925209804115E-5,5.168146293041011E-5,-4.451876620734948E-6,-4.8099493245925394E-5,9.920437646237483E-5,5.6722880320806855E-6,5.686174611474674E-5,2.4737604963549515E-5,3.7656544818954715E-5,1.2929685524352288E-5,5.94142081833726E-5,3.778413200325695E-5,2.2307063622477527E-5,-4.9004739355781494E-5,-0.001103701421181526,-3.782381692506054E-5,-0.0010019372433629529,8.956855145141359E-5,7.724703782850674E-5,-5.252311979283224E-6,-4.408840152605377E-4,-6.289353706884855E-5,-8.318866189227099E-5,6.554974162511744E-5,-5.1212430929441474E-5,0.614681604808565,-3.4992384541337866E-5,-6.572307212233013E-5,-8.167176635412576E-5,-0.06496784464419994,-9.243577204545462E-5,-1.4220195857206466E-5,-6.473900671307776E-6,-8.050532922902229E-5,-3.864786237062772E-5,-9.174999146621178E-5,-0.0035573953020803673,-3.307878967092931E-7,-8.815275246160068E-5,-6.37865973138088E-5,-1.0048154523335096E-5,8.764571670943081E-5,-6.446961119891972E-5,6.728739550333155E-5,3.312516713485369E-5,-8.617687531967301E-6,4.687038835685258E-5,-2.1844256516597165E-6,-4.150123962427216E-5,-1.9089134052909594E-5,-1.4603321906513729E-5,1.264602575143164E-6,6.155553152354439E-5,-6.533715227648553E-5,3.3179504347113825E-5,8.988962436444646E-5,-1.8903046417917638E-5,-7.525928660559046E-5,7.648254250548517E-5,-9.8203663365778E-5,-4.196056473636147E-5,7.022044980362337E-5,-1.6482743710078516E-5,-4.046693356038407E-5,-9.171661246526809E-5,-5.0781488618333234E-5,3.5194934222860844E-5,4.424333082479497E-5,5.102242501584946E-5,-5.748233889225431E-5,8.274440305596459E-5,6.545904832579177E-5,-2.1611817706316687E-5,5.5043946055871725E-5,4.3777311509433074E-5,-6.680678960492123E-5,-2.8976243292959497E-5,-4.0309976312267884E-5,-8.320070664001127E-5,8.436443645452743E-7,-4.5887119882881416E-5,-7.269661889369505E-5,6.41128135191126E-5,7.845116738249348E-5,5.364884084743533E-5,2.2190308180805056E-5,-1.9223060090686457E-5,-4.962875894035411E-5,-9.510832240595558E-5,6.323023827971985E-5,-5.5808833473198734E-5,3.7946799956179205E-5,6.50297871119523E-5,2.4495466259553822E-5,2.7111794568093685E-5,4.816078213315165E-5,-4.7952625820229146E-5,7.761261239976759E-5,7.124537536625219E-7,4.952988397260355E-5,8.022023803440078E-5,8.022023803440078E-5,-2.55291766692201E-6,5.848717070416913E-5,3.6868023438035936E-5,3.6868023438035936E-5,-3.023691195603521E-6,1.4466903039374242E-5,1.4466903039374242E-5,2.770148030988644E-5,-3.153693047771879E-5,-3.153693047771879E-5,-6.261616259429809E-5,-8.11916796181296E-5,-8.11916796181296E-5,4.3483479249709515E-5,-7.348381993751074E-5,-7.348381993751074E-5,4.876986741592562E-5,8.483190595418442E-5,8.853756198717665E-5,7.118509770618998E-5,7.118509770618998E-5,-1.630932417724052E-5,9.24482332941857E-5,-8.85375619871705E-5,-7.610564827100513E-6,-7.610564827100513E-6,-3.1927514980835436E-5,4.4950565063184254E-5,-9.830335828821794E-5,-4.836998777389181E-5,-3.021312225598072E-5,-4.7270990820716495E-5,-4.7270990820716495E-5,4.1211237712516266E-6,-2.634059135819472E-5,-4.1987171827033894E-5,-8.650401398567449E-5,-8.189921410257784E-6,2.7080023212684438E-5,6.367546114293695E-6,6.367546114293695E-6,2.832110029334095E-5,9.659387802757721E-5,7.013998883123625E-5,-4.085306496469999E-5,0.00190573004547649,-3.6239933575303492E-6,-0.3745636408753909,-3.9519656619746496E-5,-4.778771583762575E-5,-8.391988248555313E-5,-8.391988248555313E-5,9.325132390781757E-5,-1.462993958564415E-5,-6.644339795116337E-5,5.8463011121134476E-5,-1.6275946577000528E-5,-1.6275946577000528E-5,-9.43529200869732E-5,-6.185067401100986E-6,1.2194481790945896E-5,6.182761274325897E-5,-2.4079534426377932E-5,-8.903082017166431E-5,2.840555307378381,0.07604771588880337,0.005458777273270267,-3.6532913029319394E-5,-4.147122916489371E-5,-4.068626096708367E-5,2.0740711875570734E-5,-2.1119117523251275E-5,-7.15012341523782E-5,1.9991962401909107E-5,-7.285132219015244E-5,9.735428045328194E-5,-0.8649453963718116,5.797804719998393E-5,-8.026940169532278E-5,-0.036482105473844395,-6.46984454205498E-5,5.381958853682082E-5,-3.7036990575373276E-5,-4.342298057014376E-5,2.1717040490973498E-5,-2.9032643768862982E-5,-1.3073515850566339E-5,-7.099522814735257E-5,-6.617335055666196E-5,-9.919607513285624E-5,-8.312746061668537E-6,3.826703541509911E-5,6.518313520004245E-5,-0.07931295638877518,-1.355543012201609E-5,2.5965990869752947E-5,-0.7498978473252076,-0.07649643254492329,-4.860075705699951E-5,7.643253007656885E-5,-0.7498978473252076,-0.019396736579868762,-0.019396736579868762,3.476242698235429E-5,-8.678982872642167E-5,-9.947309836665717E-5,9.92683191823741E-5,7.031000761590234E-6,-5.753085691393635E-6,0.025608421719017786,7.268276109014503E-5,-1.5238509166069027E-5,-8.097563171473093E-5,5.4725439163433235E-5,-3.926376613326946E-5,4.3062921753436994E-5,7.964681993990875E-5,6.389543080073326E-5,8.600974969031583E-5,-1.259571959356297E-6,-4.318879809481473E-5,-7.788020697692183E-5,-6.969638885544388E-5,-7.793263420534217E-6,-9.562414092153282E-6,4.676279974244238E-5,7.807054999549754E-5,3.7601819751836475E-5,-6.45277465425471E-5,-0.033761731571487076,-2.241105091567234E-5,4.912026142612301E-5,7.640017729140206E-6,6.410049863518457E-5,-1.5144298863420085E-5,-3.0326419826222676E-5,1.8856676419752878E-4,3.0354686111317447E-5,-7.958307030601507E-5,-8.060458933311695E-5,3.656864374060567E-5,3.656864374060567E-5,1.3443516780503888E-7,-2.125746360551913E-5,-1.934117321840684E-5,-7.754222825512744E-5,-7.754222825512744E-5,3.751420043366704E-5,8.733827161284811E-5,3.72745726353224E-5,8.879782204109955E-5,3.574773163779609E-5,-8.827223205821457E-5,-1.2973528779664287E-5,1.802236233354267E-5,-4.17586855580307E-5,-0.7536208566555195,-0.0970495413218678,-6.793128942412575E-6,-8.643725054995166E-5,-0.7536208566555195,-0.7536208566555195,-0.7536208566555195,-5.5259133479016476E-5,-5.5950308283636525E-5,-9.306825126793666E-5,7.990753807213014E-5,-9.046590402092165E-5,-5.772983808288451E-5,-9.10966131862015E-5,-3.2110240941097114E-5,3.769667800776117E-5,5.520974754545018E-5,-5.4942611432283124E-5,-8.988440127610625E-5,-6.658686676327943E-5,-6.818263828148083E-5,3.141150624042786E-5,2.730681365372244E-5,6.826139889497998E-5,-1.3049383838923187E-6,7.190831003158544E-5,-0.18717389540649174,-1.5425149042173496E-5,3.203375102005944E-5,-0.5148263303268646,-0.5148263303268646,-6.143179136101852E-6,-3.408289026549165E-5,-8.281066562121728E-5,5.552385508147037E-5,-8.441370370518636E-5,2.571203031709653E-5,5.82374361249817E-5,9.857824674879841E-5,-7.980233172457207E-5,-6.093454254572535E-5,2.1888552124666236E-5,0.02906530277316186,5.503729832657061E-5,-1.5780785776480356E-5,7.249465406989017E-5,7.249465406989017E-5,9.074576958034582E-5,5.606085798763392E-5,-3.7986816156296705E-5,-8.523639584030515E-5,7.870428723755782E-5,-2.2039844237099117E-5,8.776773019436113E-5,3.8578678546870895E-5,-8.51876743454951E-5,4.5988514566843786E-5,6.303602078765657E-5,1.5466706657896786E-4,2.5311640609791276E-5,-6.226154134363415E-5,9.293221056715935E-6,1.6819370200549933E-5,8.036494007621364E-5,7.728647895951395E-5,1.8861009718226977E-5,-2.7602167307794867E-5,-0.11499132162844225,-1.124686219958454,-7.985545526718963E-5,8.786018174097415E-5,3.0060940236759307E-5,-7.93200383409558E-5,-5.034826886725913E-5,-5.007642152020949E-5,4.7581689227818526E-5,4.9776287176547515E-5,-8.523019192565077E-5,6.608000797083564E-5,5.984053449820746E-5,-3.078846546846616E-5,8.620198449000288E-5,-4.52766716049556E-5,0.5474191719753724,-3.1488215239479134E-5,-2.7208028474542495E-5,1.1692835794469898E-5,4.49259365436248E-5,-8.126790166685569E-5,7.188608016517713E-5,1.3563621708172267E-5,-5.381724554862527E-7,8.591119108074664E-5,-6.380662017796763E-5,-4.542576962744473E-5,1.0089087943946983E-5,1.0458230838560886E-5,1.6896238173662496E-5,9.221031705740118E-5,8.671825287076627E-5,6.800614867990225E-6,6.265123438086795E-5,9.818394325202058E-5,-2.311526979945899E-6,-8.266257072307622E-5,3.468664712342367E-5,3.70068699220222E-5,2.5698354974702936E-5,4.7018490247245444E-5,9.348521792401533E-5,7.356213966387752E-5,-3.116005441983811E-5,1.4423929986154133E-5,1.6258336373296614E-5,-2.5325309995972393E-5,-6.368669296648769E-5,2.913690077078351E-5,-4.179571960388486E-5,2.8067594490894366E-5,2.8067594490894366E-5,-2.171520083278354E-6,4.668139173964267E-6,4.8953383690722536E-5,4.8953383690722536E-5,4.3877369024611406E-5,-8.23593850473142E-5,-0.0670095864236093,-0.0670095864236093,-7.164578689455419E-7,1.5281353391549386E-7,-2.1512195299348396E-5,-2.702807673541193E-5,-2.702807673541193E-5,6.279060908821483E-5,-1.1463037699478517E-5,1.7735353310243264E-7,-9.507274088891002E-5,-4.045974389114057E-5,-1.225080103727019,3.230602004448426E-5,9.928909667723045E-5,-7.410422611304721E-5,-6.957282693845862E-5,-6.957282693845862E-5,7.945594206898432E-5,-8.811579333826056E-5,-2.7940118513380838E-5,8.308814232046965E-5,-3.821705917495593E-5,5.26512563572633E-5,-0.2195909227217087,-0.2195909227217087,-8.408127235940972E-5,2.861697877430844E-5,-3.230555340951137E-5,-0.30424983788027066,-0.3590284983088286,-3.8501959301746305E-6,7.106085461456428E-5,-1.4409391643363354,-1.4409391643363354,-1.2130659106791013,-4.307008386184087E-5,-0.7996598184124909,-9.70963255317177E-5,-4.596965317152096E-5,-3.068798165316484E-5,-8.2572628337197E-6,-6.971732892370453E-5,-4.9144290815052245E-5,7.909435728882136E-5,-4.857232894256521E-5,1.2007284219265103E-5,1.8482711542090578E-5,-7.931226174503789E-5,4.9265287024233845E-5,7.50936750115963E-5,7.50936750115963E-5,6.546493759930106E-5,6.061760569764504E-5,-7.145999181860112E-5,-0.23098527701079605,-4.248514185868811E-5,-1.926571780570775E-6,-6.491752871425456E-5,-1.3417281552453473,-1.3417281552453473,-1.1095682166665974,5.986586121537623E-6,-0.63917432429005,-0.3496221635855939,1.9080231957035055E-5,-9.546025711855506E-5,-7.947626693241962E-5,-6.382347012763448E-4,-5.743369287546522E-6,-7.702021913714654E-5,7.835291380700672E-5,1.2609417329821187E-5,-6.953537834470255E-5,-7.829132706652898E-5,-7.973056733837761E-6,-4.805658709513581E-5,-9.347478307309377E-5,8.12760915296512E-5,-6.050636780655703E-5,-6.04024623366405E-5,-2.8195937218347347E-5,-8.972982542972803E-5,4.430073847825696E-5,-6.290111405952939E-5,7.03168012744205E-5,7.03168012744205E-5,-0.004726454933075964,-0.1622936852582871,1.795432136986823E-5,-8.088181727283511E-5,5.028538335877797E-5,2.562069296001645E-5,-1.3330829524004834E-5,1.4757223749175283E-5,-5.965646064465778E-5,-5.62080156784997E-5,-7.436951373370697E-5,1.4385706849026236,1.4385706849026236,1.1931477445188219,0.0500175389547173,0.6228008038637515,-8.407027145942967E-5,5.326007210958663E-5,-1.658221644028785E-5,9.218274226521409E-5,-0.7563288389299674,-4.9764304849294496E-5,-4.8356911256859585E-5,-0.19984717818461323,-7.842613084020911E-5,-9.091516639508122E-5,5.858824106514388E-5,-1.6188138359088307E-5,-7.671140482465655E-5,-5.9160966423132244E-5,6.731204332375594E-5,1.0333751570236368E-5,5.803627514786363E-5,4.800893365405685E-5,-3.7758965330787365E-5,1.4585317539498639E-5,6.478492762784938E-5,-2.301900114556241E-5,-7.220411082872199E-5,-3.1973063083628775E-5,3.6052947309578626E-5,-7.704318603382904E-5,9.718141148359079E-5,-0.18808078397204628,-0.18808078397204628,-5.093518423382355E-5,-5.5133041111349224E-5,-3.946179309982477E-6,1.0367104449288009E-5,5.880405907583445E-5,-5.538261123830516E-5,-0.09877178038667757,-0.004343243702860291,-9.496827699676998E-5,-7.686321503020557E-6,-7.686321503020557E-6,8.980165900429016E-5,-1.0739501884230823E-6,-6.504705127260086E-5,-0.4122445327894361,-0.17311102397771225,-0.17311102397771225,-0.04981476762242409,6.766349635891863E-5,-0.0026788565383680995,-0.5887194100156863,-1.6223182338497593,-0.18529700334093893,-8.529552919675417E-6,7.41741294873013E-5,-3.237964425840441E-5,-9.520353631430413E-5,-6.9338373916766804E-6,1.937232813755776,-1.1528691225279802E-5,6.474976622156234E-5,6.876134559365351E-5,5.978190286522413E-5,2.157451125556461E-5,2.157451125556461E-5,3.394003628378998E-5,1.0086678213080556E-5,2.104920115016836E-5,-0.16492331102887908,-2.658170229358602E-5,-9.935028106774182E-5,-9.935028106774182E-5,-0.004396286766463798,-2.4077113155806455E-5,3.1485925480255895E-5,8.469308823954975E-5,1.780527703117729E-5,6.061307056047386E-6,6.061307056047386E-6,3.622776938409431E-5,5.615345868264292E-5,-0.0017726332867540949,-6.22300965253159E-5,3.821447968190674E-5,1.6187574157494063E-5,1.6187574157494063E-5,4.885254202727967E-5,-2.998841147494282E-5,-1.5490612599261942E-5,-0.05977630264252369,-1.1383343176901626,1.7749892582207645E-5,-0.002685069912795642,-7.521802130638977E-5,8.088008580084448E-5,-0.10428097920529572,-8.821448247513839E-5,-8.821448247513839E-5,0.013432012889041509,1.308590052920468,1.5118233610903893,2.33161918600857,6.036451700734803E-5,-6.662843914516167E-5,7.0987604129015E-5,7.0987604129015E-5,-9.754017398171664E-6,6.401851119835457E-5,-9.68655073385784E-5,8.253854270979362E-5,3.050627760571024E-5,3.050627760571024E-5,9.605155567142542E-5,-5.820230331064498E-5,8.048577530161833E-5,9.999005376265876E-6,-2.5151544698733618E-5,-1.321300188271135E-5,-0.19099096943332333,3.7423795796101065E-5,-6.314609313518246E-5,-0.7260324431623912,-0.10435247726063827,2.9137636424233127E-5,-7.904585362706865E-5,-0.7260324431623912,-0.7260324431623912,-0.7260324431623912,-7.89985124116152E-5,-0.41409241648263695,7.478088741125862E-5,-6.143850650689468E-5,7.660965551005217E-5,-1.5324892969801175E-5,-4.141150125640171E-5,-4.943200618896942E-5,8.932951212958337E-5,-2.773705519928516E-5,-1.6507936593984656E-5,-1.0397963873728922E-5,-6.076335091606238E-6,7.400723686062489E-5,3.292435797567399E-5,-6.87680915070763E-5,8.219602570598694E-6,-5.631693847051018E-5,5.9654129525624664E-5,5.8955964086599345E-5,4.942942454311062E-5,-2.97140746920779E-5,3.078028915028488E-5,-5.000835653966276E-5,6.371003555762522E-5,-5.478834772551907E-5,9.645818964438077E-5,-7.681935535127833E-5,2.5140346500769666E-6,7.290745039983872E-5,8.508043483039648E-5,-3.60204788792254E-5,-3.809823578121873E-5,2.2013326772859877E-5,5.8350489538505905E-6,8.958540859926407E-5,-9.227914511137196E-5,-4.178219354753952E-5,-3.20681849464955E-5,-2.10356560497753E-6,-2.792684138564886E-5,9.515939528297125E-5,1.2493429340276727E-5,1.2493429340276727E-5,-6.301296254626361E-5,4.707598349535717E-5,8.80845398681522E-5,-3.827179426383093E-5,-7.292691791020992E-5,-2.957036499732577E-6,4.321470060231502E-5,6.085695878622683E-5,-8.009564356579953E-6,7.366690804024432E-5,-2.4873214094242406E-5,-8.713218883568613E-5,-8.713218883568613E-5,7.028507671288645E-5,-4.832395891027485E-5,2.0252190692299064E-5,-6.3648229904363204E-6,-7.967681763130291E-5,-3.7458615327068886E-5,-2.9753324764819053E-5,5.418017979298737E-5,-4.847834292721307E-5,-4.404614180278128E-5,-6.955956864168009E-5,5.852257599069005E-5,1.3856018347870895E-5,7.1302634618832E-5,2.2382508777940558E-5,1.0252111691691102E-5,-7.602090077103333E-5,-7.694383514156167E-6,-4.783791546077745E-5,-8.811126226115146E-5,-9.642863879523968E-5,-2.5780350151732926E-5,3.149513877174137E-5,-0.06710164784261143,-1.0592666847158625E-5,-8.065632641023134E-5,-0.6852735625953053,-0.3241286507764758,7.737127067836328E-5,-6.470303824887147E-5,-0.6852735625953053,-0.04337841277692139,-0.04337841277692139,-9.092955619903733E-5,-6.339044629792722E-5,-1.6699583407987377E-5,1.4287908758659992E-5,-2.2822077776591353E-7,2.7566078920192484E-5,6.893382242797063E-5,-1.4811794569849523E-6,2.5927214590616E-5,1.813169656959517E-5,-6.013455646138537E-5,-2.491934469744425E-5,2.2440489458523877E-5,6.913758146142188E-5,-0.3712043172197081,-0.3712043172197081,-0.10699018131894455,-7.71945925782417E-5,6.516113158595873E-5,-0.3153238831201,4.7706986469777155E-5,4.7706986469777155E-5,6.8223614478943E-5,-5.002292495515441E-5,-0.008168063896332744,-0.38638601892019914,9.246951724997088E-5,-6.345343708808997E-5,1.2449117586455522E-5,7.898294231810031E-5,-0.08002685260079505,-3.351760776981256E-5,-6.532749173122775E-5,-7.9501949902109E-5,7.794878013367936E-5,2.6331964607367414E-5,-8.688393466319675E-6,-0.08263020197186487,3.973261429510597E-5,1.1136019705799407E-5,3.762770704905457E-5,-8.59949561327882E-5,3.7633100047210476E-5,9.371927112958877E-5,-9.311851544764687E-5,7.470114260544633E-5,-0.03861439404688191,-6.541950014960938E-5,-4.889718481726414E-5,2.67615949386176E-5,-1.182739098520208E-5,-8.326192672415022E-5,-5.522442035195748E-5,6.4853163807538E-5,-0.27784013629329274,-0.27784013629329274,-6.0973109629187415E-5,-6.971757265324894E-5,2.4481052229742393E-5,0.2724661132268696,3.845530923270315E-6,9.273939835598295E-5,-2.839282714622198E-5,2.811335041919291E-5,-7.320663181748657E-5,1.7278584525796163,5.208826681817768E-5,-3.160844712851455E-5,4.2158030849140955E-5,9.482398342469423E-5,4.323753081613345E-5,8.278403804153139E-5,-7.649358945937877E-5,7.356228698912181E-5,-9.784236651962103E-5,6.727427007016917E-5,3.5960155391112996E-5,7.320384947498421E-5,8.323495540935174E-5,-5.121210027641218E-5,-0.11429762765753451,-1.3821382795059338E-5,1.9220566186701888E-5,9.070532884847283E-5,-7.777043268119549E-5,6.122121000632817E-5,9.640592612065248E-5,1.4324025217058714E-5,-8.863004216578865E-5,-6.361631289426007E-5,8.445390967454306E-5,-6.524495453202161E-5,-1.9458930379872782E-5,4.966315046713191E-5,-2.5585915182743506E-5,2.6144456439417416E-5,-3.9328212481871426E-5,7.732724905594895E-5,9.848125500235977E-5,3.0966509828234915E-5,-2.473143084454112E-5,-6.018124506820813E-5,-1.5059212098192355E-5,9.239530156534943E-5,8.589629852669899E-5,-6.416763994279716E-5,8.577361630270164E-5,-2.1417830306777138E-5,4.434740394372944E-5,-5.419884702366548E-5,-4.5509338636425746E-5,-1.9134205132272005E-5,9.561230241980923E-5,9.636646736178509E-5,-9.863410728450243E-5,2.8644618650464115E-5,-4.414778674691631E-5,2.407245855780007E-5,-1.8073684654078178E-4,-4.048633220320114E-5,-4.982777016001511E-5,3.639050376636065E-5,-4.7689763086103E-5,5.426870991554881E-5,-8.337507300619215E-5,-2.0262499489817187E-5,2.2903634664142537E-6,-4.425911512456754E-5,-4.425911512456754E-5,-8.945824615389768E-5,8.714904999944526E-5,-5.2733583374282426E-5,2.7020338643142684E-5,2.7020338643142684E-5,-7.938642236462346E-5,9.034191121535394E-5,-8.229751102003805E-5,4.959806660400726E-5,4.959806660400726E-5,7.58872592352452E-5,-0.0011723238210222982,2.481721902356948E-5,5.6935118784516555E-5,-4.6895597671361184E-5,4.043482578047803E-5,4.043482578047803E-5,-5.613930583391944E-5,-3.85020494537309E-6,1.6574815807809918E-6,-0.8450690141281533,-2.8005898539308185E-5,-2.8005898539308185E-5,-2.8005898539308185E-5,1.217755618520026E-5,7.68809125686033E-6,-0.19991421891485442,-0.0027319875294181707,4.033004902238069E-5,4.033004902238069E-5,-9.866320835469026E-5,5.504119267021673E-5,-7.271230299889616E-5,-0.24251931786227282,-0.8378150556285462,8.462639477412493E-5,4.977718206189107E-5,-1.4222354619069484,-1.4222354619069484,-1.1592445623615262,-3.5304901187971274E-4,-0.6281951408230185,-8.364618543969381E-5,-5.701551102914006E-5,-9.560896480107441E-5,-3.902206279587026E-5,-6.655069189146502E-5,-7.806489082408811E-5,3.436225469697084E-5,-0.013376112105770797,-3.46857115483837E-4,-5.1436258890990595E-5,5.8519420115808854E-5,4.601969604345183E-6,-1.1604929082524855E-6,-2.9127101062956974E-5,-3.5568702571384014E-5,-8.711806606895439E-5,9.312153463528758E-5,1.1818599369478016,1.1818599369478016,-1.7569392364169225E-5,0.1492113883225056,-2.974946107495746E-5,9.318830773151036E-5,-1.585610380982515E-5,-1.585610380982515E-5,-9.924924245316701E-5,3.678428536455007E-5,-3.1924657686858534E-5,-4.224213253527161E-5,-4.224213253527161E-5,-5.601304828687091E-5,4.159093901957245E-5,2.7791807944813665E-5,-9.2141225538051E-5,5.959580298220517E-5,-3.561557929844918E-7,4.5840464305523616E-5,-3.397364349033759E-5,-8.455252047434112E-5,-0.8704424905959627,-0.13214681090468874,4.777250435425912E-5,3.0168642477176684E-5,-0.8704424905959627,-0.8704424905959627,-0.8704424905959627,-8.511215026509154E-5,-0.44299251716239746,7.540080224477703E-5,2.5777689699662556E-5,8.468664340596785E-5,-7.989798745372267E-5,-8.617122110410395E-6,1.4372404349356248E-5,-1.9363718159781247E-5,-6.714195575431681E-5,-4.0034598216758034E-5,7.636081018468804E-5,8.84789925180271E-5,3.7094950073688146E-5,-9.932247369519264E-5,-7.301966557907413E-5,9.613886567457272E-5,-0.0860471775044192,-9.655136143549196E-5,8.691278938651332E-5,4.593462824046385E-5,3.530989857234996E-5,5.389841038984971E-5,-1.4060713434577052E-6,3.9914432656840365E-5,1.2282166636470642E-5,1.1064372640888146E-6,3.06107389476404E-5,7.175427564230213E-5,7.561073704389302E-5,-7.674193979477906E-5,6.670068776168005E-5,-7.3905326745361485E-6,-9.055574780947137E-5,-9.055574780947137E-5,-7.29029320536516E-5,9.830479332514875E-5,-2.0305497650108787E-5,-3.039026671004832E-5,-6.640852271803657E-5,-3.0564020204992614E-5,-0.030764486218765683,2.6651739687376304E-5,2.6651739687376304E-5,7.630808956906834E-5,2.229208112600764E-5,-8.01191703508119E-5,6.216414825179159E-5,3.273531737609596E-5,3.062530931797457E-5,-7.71777333134556E-5,1.5641110626835866E-6,8.602911245469235E-5,-7.727415827743675E-5,-0.4064841285973485,-6.702907312503847E-6,4.97841853141768E-5,6.442262825638562E-5,-7.539475508948953E-5,8.259925123411843E-5,5.166536097517385E-5,9.014912788683012E-5,-5.6175236837045015E-5,2.8348872962218253E-5,2.8348872962218253E-5,2.761083312078486E-5,9.962180399029323E-5,-1.283354222758068E-4,-1.283354222758068E-4,5.1444342508593906E-5,-3.04109595395646E-5,-4.196923373261237E-5,1.0998191637428113E-5,-7.220652144708424E-5,-5.4566798122729696E-5,6.746571564160695E-5,-4.506431171917122E-5,-7.843748923308717E-5,-6.101341162343321E-5,8.489605157763827E-5,4.422178674647499E-5,-1.5207384525128595E-5,5.711814136049181E-5,-1.9683721193487736E-5,-0.05369960902575065,-0.05369960902575065,-9.53171366635869E-5,-2.5331613090534333E-6,-0.0029542119296674958,1.5862285760404616E-5,9.450475235265189E-5,1.3549321077081414E-5,0.07447440356455896,-2.7066424927187893E-5,4.677180316479409E-7,2.2708350267017173E-5,8.972845014133964E-5,2.9841903211646033E-5,-5.102259854051712E-5,-6.691505973802484E-5,2.609951027592462E-5,4.649568571907467E-6,7.13387504245288E-5,9.767649353442675E-5,6.746275124800404E-5,5.9040879842395044E-5,3.32624748852315E-5,5.3718319444774225E-5,-3.777270342105708E-5,0.33562760098400596,0.31695857059495663,-6.110482983230105E-6,3.5997806649284736E-5,5.0926629695670925E-5,1.9153584525121635E-5,-1.8975182767608353E-5,-3.694326198377414E-6,2.8115947426979153E-5,-9.712269958218927E-5,3.955086858694987E-5,2.7077606759952556E-6,-5.035193435917419E-5,2.1251261534090002E-5,-6.827652717431026E-5,6.401979337418678E-5,-2.2435364338288703E-5,-7.094664774529842E-4,5.261749616017736E-5,8.534151911116082E-5,1.1792746593683955E-5,7.672699394526589E-5,-9.205427431853858E-5,-9.205427431853858E-5,8.385501531752267E-6,-4.8372835248395306E-5,-4.8372835248395306E-5,2.8037059958561217E-5,8.378781770173051E-5,8.378781770173051E-5,-3.6356685241120765E-5,-9.841354100044276E-5,-5.2168051189003725E-5,-6.94864468658179E-6,-2.5847851065058933E-5,4.3646386222725346E-5,-5.1204601107994346E-5,-8.645496714440289E-5,-8.361928779919936E-5,0.13866197417616655,1.499484700861342E-5,-8.61814643645614E-5,-2.3465347431626268E-5,-6.15236777887242E-5,-7.259768401312573E-5,5.438004138247963E-5,-2.9345173059774056E-5,-0.38556175427125755,-9.820005104685078E-6,5.108408520283328E-5,-8.888845441717898E-5,6.160281676617224E-5,-3.006328522344008E-5,-4.222645667027859E-5,8.876718191345747E-5,8.319509715236432E-5,-3.264746532750827E-5,7.938796502592887E-5,-8.232961544060369E-6,7.99970007123944E-5,7.896116558160818E-5,8.488469240832962E-6,5.46806771050207E-5,1.7010469157507577E-5,-1.9451969657373764E-6,-2.7481087486879127E-5,4.1481739050373286E-5,-2.1459680755632298E-5,-4.062997901923274E-5,4.569819647729971E-5,3.419439930353252E-5,7.498817218016709E-5,1.855819950473186E-5,-9.404837533778709E-5,-5.153588204775619E-5,-2.6541052471806443E-5,-1.7810685929733715E-5,3.820759978110847E-5,-4.435046553241715E-5,-6.226987713715033E-5,6.916336356034316E-5,2.145994216908373E-5,-0.05302906061876946,9.538761971824425E-5,-9.467075520336306E-5,-3.4920589051710754E-5,-3.556894069396402E-5,-2.8168841435352647E-5,-0.36601003678602634,9.567389922963459E-5,-3.600898589039108E-6,-3.600898589039108E-6,8.397249346199844E-5,-1.2745883111399425E-5,-6.822609311989612E-5,8.28843087876497E-5,1.3701957553789444E-5,-7.110154259569473E-5,-8.269537047865682E-5,-8.269537047865682E-5,-5.159091160652604E-5,1.1905202706123373E-5,5.122537451634828E-6,5.122537451634828E-6,-5.5088199098178386E-5,-1.4802681955431075E-5,5.663321625713218E-5,-2.7462336131387958E-5,5.120193470422579E-5,1.6045176300915693E-5,1.4661987400198741E-5,5.415675842254435E-5,-4.950918824690666E-5,-9.31810672624783E-5,-6.047483416217579E-5,7.438288031759137E-5,-8.993709912233015E-5,-4.705489540544545E-5,-1.5380927429131598E-5,3.3296796377315006E-5,-7.1008089557500395E-6,6.09882751885132E-5,-7.086933206606208E-6,7.206812102648449E-5,4.5661087710717326E-5,5.3447129888666695E-5,-8.567659850418547E-5,-8.567659850418547E-5,1.3453270976084366E-5,-4.348329497760624E-5,-7.731116020515157E-5,-3.660011108838413E-5,9.698473958980579E-5,9.698473958980579E-5,-3.7555030638984665E-5,8.235502352069485E-5,7.15242929081162E-5,-6.49831216154655E-5,-2.5451331688530304E-5,5.7578586327988585E-5,7.206992670067033E-5,8.525782575960462E-5,6.617494611667945E-5,2.8022735953228247E-5,6.230569796310614E-5,1.9564853404056262E-5,7.423889834104305E-5,1.8437135695813156,6.507569160490951E-6,2.7131589948667237E-6,-2.893407556483487E-5,5.357120989752095E-6,9.06950322010831E-5,5.200438557720821E-5,-3.50762454796024E-5,5.333339212710276E-5,3.670015310819241E-5,-5.736965757420398E-4,6.503252378227829E-5,-1.9251598100900318E-5,-4.412142352442481E-5,8.448810209524684E-5,6.147835019424496E-5,-1.0236310848862856E-4,2.4031160001423366E-5,-4.112423827330407E-5,-8.73398167095833E-5,5.925745198355372E-5,-0.09310197589431218,8.37531243371555E-5,2.279120224921959E-5,0.006890798945246112,0.7026640364851753,8.681745312190296E-5,7.04923839903808E-5,5.466881030003975E-6,7.209642748360712E-5,-5.1269374234111195E-5,-5.659793108903213E-6,8.458356776047705E-5,-6.213435847183009E-5,-3.266915177958694E-5,-7.234129602555455E-5,3.518935136019615E-5,1.183562007784569E-5,-2.4073690683747362E-5,-7.770718735118774E-5,-5.662317576323191E-6,-6.213108012578974E-5,-7.911133820936471E-5,-3.0184765558651406E-6,4.899113760601113E-5,-7.304230842544821E-5,-7.39228499491824E-5,-8.565719473527117E-5,8.865684794174988E-5,5.492718241469454E-6,6.46021721702731E-5,-8.92251139522063E-5,2.562933808671232E-5,7.72531925262984E-5,7.793377916463545E-5,2.7800292702432738E-5,-6.00033579865585E-5,-9.796274750808409E-5,5.517771692060499E-5,-5.2195796086681125E-5,8.875335608000013E-5,4.806716170079995E-5,3.871463714580284E-5,-7.938714328894054E-6,4.228465301342486E-5,-1.9409360506184072E-5,9.78038726102518E-5,-7.335410669139461E-5,-5.944266644648829E-5,-5.944266644648829E-5,-1.8698755076979826E-5,-1.8698755076979826E-5,9.999268387512786E-5,-3.280057817420748E-5,1.3048004725557525E-6,-7.731084905448732E-5,9.176193271122801E-5,-2.967825689275823E-5,-2.901804853615906E-5,-1.563616450558721E-5,7.101038284002388E-5,-9.280312001314794E-5,-8.73477350373261E-5,4.4635691645597934E-5,-3.2010856077522293E-5,2.8754607506205175E-5,-4.826813229551636E-5,6.5560432731733E-5,-4.2226036347159025E-5,-7.656101053749208E-5,-2.1754768834715424E-5,1.380703829046124E-5,3.060641730202312E-5,-2.1707819922508375E-5,6.666595001853246E-5,-4.5942945002203695E-5,1.8881786344466834E-5,-2.7103539829607557E-5,3.956287736000221E-5,-7.692859726700366E-5,-3.454802619306868E-5,-1.4095237981074673E-6,4.64807202137602E-5,-6.959381867699268E-5,-6.959381867699268E-5,-8.907168801146621E-5,6.53750290455514E-5,-0.03445596660007718,5.4861004678325966E-5,3.5288215502069713E-6,-4.6557516324208006E-5,-9.082186123091432E-5,-3.0967092267611266E-6,-3.0967092267611266E-6,2.9336108159390425E-5,-3.6444447160657384E-6,-9.729840001022206E-5,7.482008206341244E-5,-9.029872120381907E-5,9.711528328998922E-4,7.43634140883064E-5,-8.479817163757908E-5,-8.840533287579636E-5,8.255277370428741E-5,-0.3761688739688034,-9.716876606577322E-5,-3.3944903925163506E-7,-8.549458727393242E-5,-0.0562407086070905,8.030734201641174E-5,-2.1819966294083664E-6,9.092808732340031E-5,-7.565055662805545E-4,-3.9565817147735244E-5,-1.2219693650865262E-6,1.97403515916082E-5,8.748678368807614E-5,7.553570563991526E-5,-1.17703407769473E-5,2.241012097967498E-5,-5.3777709936677686E-5,5.619609008841492E-5,-6.072193246984948E-5,-5.4448811259197736E-5,-5.948899355819805E-4,-9.691302296513214E-5,5.867901497679795E-5,5.867901497679795E-5,-4.332318242176814E-5,-2.3000369553286373E-5,4.195502072775661E-5,-9.14148910084553E-5,-9.14148910084553E-5,3.7039954870890496E-5,8.326520267455762E-5,-2.0589548650839267E-5,8.655675416615223E-5,-0.17731951791087922,-7.939093862095267E-6,9.639711116735495E-5,-1.4781350840662573,-1.4781350840662573,1.705498127982289E-5,6.371556718573284E-5,-0.8412102599120805,6.684759490106838E-5,6.621320343122556E-6,-9.531042419404657E-5,9.607278999023647E-5,6.609343544904637E-5,2.9629646491117568E-5,8.8677749279677E-5,-6.871089662221451E-5,4.125138114141619E-5,2.9617333525093704E-5,-2.375938716288155E-5,1.291124791567063E-5,-3.869699395556511E-5,-9.056309304361739E-5,-3.2104279488818295E-5,-5.913408785404638E-6,-9.301509174087895E-5,7.157225938675361E-5,1.2238319075882009E-5,6.963638906210345E-5,-2.4028651720336437E-5,-1.046749831007149E-5,3.0770685740908303E-5,4.671317018427208E-5,-8.34711321529179E-5,4.361465485815523E-5,-1.4556888839542903E-5,-1.4556888839542903E-5,1.0746532982019869E-5,-1.9864886737446246E-5,-3.3802505100146915E-5,-6.397841212669786E-5,-6.397841212669786E-5,2.4371712188878944E-5,-2.62548838294209E-5,-0.07937602532966402,7.329361381906755E-5,0.30987558504903595,0.49781766520035536,4.914148581549393E-5,-4.008478949983087E-7,2.8401766335679946E-6,-4.762718035906251E-5,-0.01758238140578039,4.056336259971916E-5,-3.371165384893607E-5,8.865464900557326E-5,-6.751045954001435E-5,-6.86810129117585E-5,4.027521320094594E-5,9.397686812512795E-5,4.2128590726097806E-5,-1.5411444095402954E-5,3.1131418870224405E-5,-5.592369541959379E-5,2.5399175145025767E-5,4.713116463974138E-5,-2.147594558071306E-5,5.6959972340849284E-5,5.458890254600871E-5,1.7320854690499246E-5,-1.5338249877118584E-5,7.81638511090231E-5,-6.0640309583070404E-5,5.392833646991915E-5,9.820570316504362E-5,-6.183387991673771E-5,-7.536692820803227E-6,-4.7309754714208105E-5,-4.7309754714208105E-5,5.167394548685326E-5,-9.537169793704973E-5,9.665657806821322E-5,-1.6565347529616333E-5,9.561655875878998E-5,2.7647858853344334E-5,7.539141799865222E-6,6.186302151695314E-5,-3.558666370911613E-5,-5.60929970875227E-5,-6.884276480783038E-5,2.7056770769536066E-5,5.720831720019669E-5,-8.957137142670077E-5,-4.699214648985962E-5,-8.941679841867999E-5,-2.501492847083871E-4,0.17437941500924045,-2.0697732483202993E-5,3.0059787852943913E-5,8.443174119139368E-6,5.642464840303176E-5,5.267738380542968E-5,8.828183864274785E-5,1.7348555931572936E-5,-2.5241411709798697E-5,5.60339783089963E-5,3.991086550359872E-5,-3.849497681656248E-5,-9.029312621747248E-5,-6.829682314264738E-5,3.083789040401905E-5,4.741216432684062E-5,1.611599793375869E-5,9.973627791971627E-6,-4.0577820920894326E-5,-9.342684871341657E-5,5.3795951671854794E-5,-8.510233686420409E-5,7.699223286108722E-5,-1.6846826846305475E-5,7.864168107151229E-5,7.910083578313152E-5,-2.089988558460591E-5,1.5385089018728426E-6,2.6004743270356033E-5,-9.974443944123877E-6,5.386178043266049E-5,-9.923799273532033E-5,-7.311245960510308E-5,2.721314748521913E-6,-7.105664858902589E-5,3.935927837774017E-5,6.481668198202169E-5,7.665606227816435E-5,4.210597350780052E-5,-4.6310985838077495E-5,-2.298909926924352E-5,2.2382887435237753E-5,-1.6030209399725215E-5,2.645385458622084E-5,-8.645897956801749E-4,9.66089166086551E-5,7.680816949295162E-5,4.455744963560475E-5,-6.209784991719665E-5,-9.366430265571161E-5,-9.028491916092532E-5,8.417290876916705E-5,-1.675667212202332E-5,-5.953478316206926E-5,5.066143177646566E-5,0.27260272614372166,2.8712040000744882E-5,2.4457174876651164E-5,5.115294895380328E-5,-6.929338140657345E-5,9.876573169212931E-5,9.498684975620719E-5,9.086592645127762E-5,2.812150277538343E-5,2.7716418956780987E-5,7.754763444412921E-5,2.1561224974535453E-5,3.37115361992971E-5,-9.209321539175696E-6,7.182751411303069E-5,9.009776496372859E-5,9.654974237763692E-5,1.602600150836563E-5,4.792202955949957E-5,-9.979753413525268E-5,-9.411104425637563E-5,-8.959273319118906E-5,-2.097210716395645E-5,-2.097210716395645E-5,-8.032331324461511E-5,2.16461047624166E-5,4.428258797891326E-5,-7.197052871581866E-5,8.22502819209985E-5,3.4095175298819776E-5,5.199721271733558E-5,6.412012989033003E-5,-2.585330847043829E-6,-8.509616772021757E-6,5.7962768655585055E-5,9.322405702402133E-5,-7.286249788960302E-5,-7.261051929115963E-5,-1.518707364703338E-5,3.4078428999913184E-5,-2.1562963878089182E-5,9.595803544364413E-5,-7.195625356609015E-5,9.334855624107565E-5,9.468424847307861E-5,1.1218150298543969E-5,8.622383326300755E-5,-9.82300147088975E-5,-8.302395487680925E-5,-7.662601856110116E-5,5.051056932711829E-5,-4.9630919113309615E-5,6.094805164940853E-5,-2.8845129205058937E-5,5.6836715698082703E-5,-6.19707873682323E-5,3.8950065048149895E-5,2.7981208309176957E-6,4.5276108430384427E-7,6.663843759189986E-5,-4.734176086599085E-5,8.45484268565917E-5,5.471796460741627E-6,0.3687541730833388,4.0576269416952105E-5,9.781838398059297E-5,-4.931008982953449E-5,3.809934990802168E-5,-4.3032162038016304E-4,-9.412767816300045E-5,-3.2299488667788157E-6,6.837623884901729E-5,-4.992216191767996E-5,8.354856783991899E-5,-7.300500641787769E-5,1.1346774625962952E-5,2.8837367020412755E-5,2.7776578579124037E-5,8.373437759417592E-5,-3.192089773186826E-5,1.1692408349243656E-6,-3.067471128356674E-5,8.384646318421765E-5,-3.406404912576058E-7,-3.881945865726555E-5,-2.4770909794746032E-5,1.0193407904471975E-6,-1.2442255924116996E-5,6.983724756001923E-5,-5.722224368836734E-5,0.07992923689867694,-5.421531874595489E-5,-2.999503111059217E-5,-0.4604497631644471,-9.251271631196441E-5,-2.047827524501889E-5,-2.37074108093734E-5,-3.7675429905350205E-5,-0.008878365280963788,-1.1403564085945813E-5,4.7506886448224776E-5,-3.696291593178569E-5,-5.343753830759968E-5,4.136180288450024E-5,-2.761988423287939E-5,3.0979058956270275E-6,-8.751326894134032E-5,-7.822551203011327E-5,1.863480569814035E-5,-6.093879502781976E-5,-4.365373871724717E-5,-3.182876346107663E-5,1.0212669422284088E-5,2.7594412656384805E-5,3.973604832118658E-6,-2.1141687275348875E-5,5.901246541698871E-5,-6.917050045389527E-5,9.519935393724293E-5,-3.244735644053782E-5,6.546597529840642E-5,4.507593145076786E-6,-1.1769422903739536E-5,-6.063569930606218E-4,-4.7929812336319245E-5,-4.371048197628306E-5,5.393898898607859E-6,-6.812002198721926E-5,3.8515420342298735E-5,5.55768587884541E-5,-5.15163386848652E-5,-8.614527819288452E-5,-6.012768513367741E-5,-2.516060233381913E-5,5.872786065937147E-5,-7.691405003819147E-5,8.696230173278836E-5,-2.3796509461993792E-5,-9.252385355789064E-5,8.72959278668581E-5,-5.2001868777851606E-5,-3.3033363271481574E-5,-5.0593158372563255E-6,4.033627034926836E-6,-9.41991810602469E-5,3.089192557670004E-5,6.562409588018802E-5,9.229320571016032E-5,3.155505031433029E-5,6.763996070267463E-5,1.1565315993814247E-5,1.9827626517211454E-5,-3.54259055164822E-6,-9.27957943727635E-5,-7.53686901715315E-7,4.26570812471415E-5,6.300592447823998E-6,7.976672911305988E-5,-5.249630635219026E-5,6.451557253740616E-5,6.889139397840406E-6,9.880593784283777E-5,-1.878192737491576E-5,5.476402838989806E-5,-5.570757210082753E-5,-4.195355786898431E-5,-6.0621941045140726E-5,-5.610134588417677E-6,5.92145055615583E-5,9.551915736267949E-5,-8.431776142388766E-5,5.112419010549893E-5,-3.963285576722604E-5,-6.998874233205883E-5,4.96899444302359E-5,1.976901557019755E-5,9.517842827477047E-5,-5.287139471289832E-5,-8.580295401335523E-5,3.271792307307367E-5,-8.699805096525545E-5,-5.2443085186510765E-5,-7.515617610491103E-5,8.402433759440684E-5,-1.1637573063546714E-5,8.011753819453959E-5,7.75495986808975E-6,-7.962680134284996E-5,2.5302681594082575E-5,9.656711548663337E-5,-7.606145166059231E-5,-4.717654846316356E-5,-5.571999174928857E-5,8.945784554934883E-5,9.274501253973644E-5,-4.15030851585741E-5,-1.1918044099489526E-6,3.1562776751922934E-5,-2.0414793167602464E-5,-4.701518843542568E-5,6.723759173371267E-5,4.311334762803526E-5,-4.318033127063141E-5,6.352888331075313E-5,1.7987325717702053E-5,-2.6082254684414914E-5,6.989932653302514E-5,-3.843686149854783E-5,6.558238141472382E-5,-8.892172377987024E-5,-6.223319184063257E-5,9.077268520864894E-6,-2.252936460925056E-5,-7.856856522116398E-5,-4.1709376476262576E-5,-4.639239357590597E-5,-1.4793926563521918E-5,-4.224156250131119E-5,0.06492693523612769,-8.264088133295191E-6,-3.2550423125109133E-5,-3.2550423125109133E-5,9.3409973125127E-5,1.7319765330457294E-5,-5.741228172679586E-5,-6.397650262169418E-5,-6.397650262169418E-5,3.09203804623115E-5,-4.6335735388853676E-5,-4.886381411239754E-5,-6.0714563357089855E-5,5.7938324217627057E-5,9.213887126217782E-5,3.6431054623396197E-5,-7.323481877621267E-5,3.697083468437398E-5,-4.3646749039816604E-7,5.253794824370012E-5,-7.789631768978176E-5,-6.902423251802593E-5,4.033449106110194E-5,4.033449106110194E-5,9.877300275376022E-5,9.877300275376022E-5,-1.2071110701116514E-5,-1.2071110701116514E-5,-1.7985785927761739E-6,-1.7985785927761739E-6,-7.528074794866387E-5,-7.528074794866387E-5,-8.566597845313862E-6,-8.566597845313862E-6,8.951880350399421E-5,9.939673188166012E-5,9.939673188166012E-5,-6.083584430881804E-5,1.0758908903651785E-5,8.993546654403504E-5,-6.582640890296016E-5,8.765781585699103E-6,-6.4988611926641556E-6,6.582640890297814E-5,4.788063951609691E-5,-9.237497513790703E-5,1.0816512959602013E-5,4.092910857595724E-5,-2.5815732016410198E-5,-6.36619660695719E-5,-1.0816512959607204E-5,-1.9054653561140073E-5,-1.788615044674432E-5,2.344989243611028E-5,-7.448391494280346E-5,1.905465356114708E-5,-3.369719843437616E-5,8.244727229228699E-5,4.551223909412296E-5,-8.674197143104027E-5,-7.86313605471498E-5,-6.02742780822984E-5,3.8371621627044994E-5,3.483180289290389E-5,-4.5512239094084416E-5,5.0687462782022174E-5,-1.0794704160186966E-5,-7.662861147608123E-5,-5.144049518296029E-5,-2.690772349959917E-5,7.398921454799444E-5,-7.685296108606525E-6,7.699052948369073E-5,3.5056528419962027E-6,-8.146234261399032E-5,-8.146234261399032E-5,-5.771350404815233E-5,5.145800260175588E-5,6.35448220022715E-5,7.696947787338222E-5,1.2909117562223243E-5,-8.90437117176057E-5,-9.101682737574943E-5,-7.575732142464706E-5,2.4206890308344116E-5,-8.356084966938122E-5,-9.071125777858027E-5,-6.250415757551315E-5,-7.356862406006763E-5,-8.289579954755608E-6,-8.366799993685236E-6,9.717876738934814E-5,1.4315594273555239E-5,-7.158118178078119E-5,4.120811027723498E-5,1.1306632704738708,1.1306632704738708,1.3415813222021165,-5.145800260176206E-5,0.12251383020532879,1.3066405870071763E-5,-8.809995548497961E-5,1.8817417092265775E-5,1.8817417092265775E-5,-1.8131706643183888E-6,8.834078360460298E-5,6.499683831070357E-5,4.9880893999610056E-5,-6.259125744983075E-5,-7.21461630947327E-5,-6.082531437319214E-5,-7.202712822123862E-5,3.2471644605214646E-5,5.280344622632041E-5,3.2901280304989833E-5,0.14761331118507842,-1.9027731781808197E-5,2.8286382835405067E-5,-4.483774057194236E-5,-0.2978847870682174,5.983480549160035E-6,-9.277329948703889E-5,-1.4642220590251587,-6.872663214656133E-5,-6.872663214656133E-5,-5.668786967642784E-5,5.7629233909088645E-5,-4.842212685897235E-5,-6.633907968669423E-5,-1.4642220590251587,-1.4642220590251587,2.6807075909538288E-5,-0.7888611741677358,-5.766658455267306E-6,9.063869633296123E-5,-9.040232682779262E-6,-0.27747632077147144,7.65251853734974E-5,3.750775394148007E-5,-7.693766298953548E-5,8.990646955493683E-5,8.014502360347619E-5,8.014502360347619E-5,5.3359870543852346E-5,6.447518395896805E-5,3.780577549872967E-5,-0.1909695493359015,9.02779179562432E-5,8.773162762711798E-5,8.773162762711798E-5,8.773162762711798E-5,1.898583282467944E-5,-1.912466531406445E-5,5.8709727295621524E-5,7.121213719767943E-5,-2.6056432178283025E-5,-5.8020891986922764E-5,9.581944691185461E-5,4.10306727620724E-6,3.8707479671503445E-5,5.55387829397437E-5,1.541730244925468E-5,-0.00920295465822478,2.973920634601579E-5,-6.502899561946619E-5,-9.837186822538952E-5,-5.589907988686967E-5,-0.9243137233998873,-7.891590273989423E-5,-7.891590273989423E-5,-4.3336245046162784E-5,-2.6408102441865817E-5,6.810377230514103E-6,-1.2356719932715468E-5,-0.9243137233998873,-0.6010556276796087,-1.8427534466500833E-5,-9.292769782818219E-5,3.4205540944555875E-5,-8.66134278539782E-5,-2.788928682355654E-6,5.695896356787242E-5,1.3858268697081175E-5,5.34469097517663E-5,3.616710509767436E-6,9.685690290152614E-5,1.6761031712934983E-5,3.493503397687351E-5,4.0439202628465544E-5,2.711118551119242,-8.877488042138377E-5,-6.662987375536942E-5,5.491447229000984,-1.40238562257813E-4,-1.40238562257813E-4,2.0455810419877358E-5,3.7246327545879283E-5,-0.06692420141334238,3.869698153581271E-5,-0.6463750404004988,7.63828311144887E-5,-5.6703372289899825E-5,-2.0739422831135292,-2.0739422831135292,-2.0739422831135292,-6.374471856924967E-5,5.393055527453148E-5,-3.913518870230877E-5,3.246887574113174E-5,-1.1403034482052602E-5,-5.909721106525121E-5,-3.432129212801607E-5,-5.223672674251443E-5,8.192159745655411E-5,-2.8449187517005014E-5,-1.9349030992378417E-5,2.6785176288438852E-5,-2.11789687717001E-5,2.8794878667270612E-5,-9.396132441671341E-5,-7.424854354055401E-5,-1.2188423387213702E-5,-0.6195813897578603,-0.13944530163914104,-9.062213788831558E-5,-6.596844804239153E-6,-0.6195813897578603,1.8158673525406872E-5,1.8158673525406872E-5,4.470727223545422E-5,2.8056206434015624E-5,-7.545574687737627E-5,7.023493142597067E-5,-7.451404907775968E-5,-2.4968521000461437E-5,6.150691493354988E-5,-4.691986783503698E-4,3.093110700148107E-5,7.730491665437784E-5,-9.089390768930142E-5,-9.751975902169791E-5,1.0799286211554839E-6,8.58910501458516E-5,4.715146938877869E-5,-6.227808907896723E-5,4.98223108414355E-5,5.326320289034738E-5,5.344575706755788E-5,2.4981140556632858E-6,-9.772472150937361E-5,9.65853028341785E-5,-4.864081637393961E-6,-1.3134118844949368E-4,-6.654627949108792E-5,-6.654627949108792E-5,-1.0364591089824938E-5,3.0506164599608516E-5,-4.4763670223260264E-5,-2.9214341216178327E-5,-3.340519961793794E-5,-9.726378432737476E-5,-1.1965124560180026E-5,4.364668895860243E-5,-4.83826225119477E-6,-0.16668690341215386,-3.6392751628398356E-5,5.881136714145781E-5,-0.654168145990267,