-0.12403208788420664,-6.436642677583706E-4,-0.30581474851979373,0.07197255167331967,0.24575110263521455,-3.8374661597350454E-5,0.27027576283810106,-0.4054973039866413,0.49894414890901484,0.8553972629295873,0.4388286893990997,0.17453118372942508,0.011594321009986645,0.1474451521138023,-2.839899471605859,-1.0134975640916832,-0.6379576060183458,0.4039029550326374,-0.2453647671301155,3.837466159738168E-5,0.49465953468671586,-0.013043667574788094,0.40077413546192964,0.4059247217350207,0.9609682415274196,0.9609682415274196,-0.002332205655316881,0.1290189726887109,0.5936849325704433,1.3300963396702943,0.7121183800303431,7.80396194731263E-5,-0.2207285522287127,0.3469357007461627,4.491674074169568E-4,-0.07649472434505453,-0.24852292930817418,-0.08530998817841035,-0.08530998817841035,-0.564754799270196,0.4949151744841954,0.20685268797898682,-0.40546907269387483,-0.40546907269387483,-0.4792233193377923,0.7303647214828134,-0.48568934867589564,1.9028930299937714,-7.845321810449968E-4,-7.845321810449968E-4,0.045904758404650275,-0.3619907921640379,-0.5558598090975045,-0.5558598090975045,0.6844899215967837,0.2014077384555757,0.3328233135800934,0.33546199090770074,0.4020144095500664,0.33546199090770074,0.03495463782276447,-1.2649449848067247,0.4336981996358903,-0.16029908930070655,-0.16029908930070655,-4.489131380462807E-4,0.9766491189532618,0.17898231938370424,-0.41540087394158237,-1.0899363791647965,0.1654045563172437,0.1654045563172437,2.282379181651952,-2.1233537185871625,-0.7358990684239131,-0.29981989404870873,0.315426013178321,-0.002800056101937163,-3.7389224408397115E-5,0.8729170656266374,-9.241894557205973E-4,5.8313967932496465E-5,0.33639524793294906,0.09178679472027629,0.8729170656266374,0.8729170656266374,2.213874129198152,-0.0996865186833347,-9.488032826018591E-4,-9.488032826018591E-4,-0.6534131160080761,5.64322659041918E-4,-0.020927729364927004,-0.6826063490472254,1.0394250684726878,0.8670060611169962,0.8670060611169962,-0.18239306924445095,-0.2754905374243854,0.6110332218537626,4.2604162060399355,1.5137976712070795,0.6489832770388788,0.23183936014127507,9.667171425476943E-4,0.5656047935640055,-0.5394119952213753,-0.5394119952213753,-0.2605926157795424,-8.254916725708986E-4,-0.09454838422702067,-0.21900513046785997,0.5656047935640055,2.7534379175987093E-4,2.7314254167575864,-0.4788391572218784,-0.04464775740011808,-5.874732357561579E-4,-7.872966627179704E-4,0.4158969811798399,-0.476978103847358,-1.8020590507885148,0.9330286037000755,-0.41176913765632944,-2.0589625719258167,0.5523086215179592,-0.10293055378377342,0.14725524507012724,-0.7199893158524497,-0.7199893158524497,-0.291792602291462,0.03283708778950641,-0.39054642217518243,0.8002512867483069,-0.06877708866582287,-0.06877708866582287,-1.589112799332207,-7.403675020539497E-4,-2.6921645517900394E-4,-0.2737021987276711,0.03942892739040123,0.03942892739040123,-0.22020599878222774,-0.16321352295556585,0.049496683508316514,-0.8286933459904803,-0.39049369367233533,-0.39049369367233533,0.40013775687745534,-0.06379239294841867,-1.5388420842588112E-4,-4.189372380694655E-4,-0.0473459086319341,6.366918524662796E-5,-6.030737877551848E-4,0.7578558220370701,-0.29663475261355615,0.41610524139471017,6.041678858404063E-4,-0.9249429714607226,-0.9249429714607226,-0.9249429714607226,0.3242301355411326,0.36904697833484584,0.4119568742253653,2.0658082550380836,-0.28304034800151356,0.34240575131308004,1.0265675439597133,0.08254726944972379,-1.9151993194911656,0.1389102058908202,-0.19420612366215825,0.09388559481785139,-2.6793614276392913E-4,-0.3572215539078555,-0.05761570311181404,0.17007167180187197,-1.6590103506747668E-4,0.12148245172179699,-0.2054862280491156,0.08397374793687531,0.24650526718567273,0.5564408612463333,0.054931777929805276,0.26622451386781776,1.939627278191192,0.5411821313539679,4.262359778745691,1.468132161829683,7.432309269375093E-4,-0.06943121437558006,0.3372428729095743,-0.07164927038300946,0.06780989289951878,0.5768667934689612,0.38595439999233305,0.16534894569875988,0.1647193453610387,-0.034669124797400606,-0.016824835501086675,-0.050447325088462225,-0.06835779694014743,0.12386157005011651,-0.007021864913112747,-0.007157826024443762,-7.681975214516054E-4,-7.411544413538144E-4,-7.344127692047992E-4,-0.7140234134514977,-0.07976926033607415,0.5299663194140279,-0.27760620230455946,0.5680815064759972,-0.019403493654867904,-0.005101158664073982,-0.2062466760867599,0.5269883793722345,1.004624273698731,0.9132415674576945,-4.233321324216717E-4,-0.8903129254525355,-0.3330384193376754,-0.41113966616469566,-0.14865601212448065,0.27289207196990806,-0.01339620359989403,8.777923158372896E-4,0.3121936256938119,1.3429815200460761E-5,-5.030084399918486E-5,-5.651094339273986E-5,-1.0431649285430953,-0.42251607946280373,-6.903619055060243E-4,-0.08359920434026623,-7.6281941897405E-4,2.9788184828998194E-4,2.501956659402933E-5,-0.13946773910425125,0.1288517736986718,0.28997301607506487,0.5923340940515891,0.7413125560510181,0.5521815285465452,0.23492723380628447,0.15556883986001485,5.300950048202522E-4,1.1147167002438185,1.0706059372228303,0.9441959712752515,0.1702098735704715,0.49936243212207976,-0.02162868246318558,0.2893239057199882,0.9180669767851084,-0.21597288614516122,1.99231183175485E-4,-5.8301294365445725E-5,-6.964093965591916E-4,0.019892531693796626,-0.5766987815956904,9.85325792704243E-4,-7.210364983043643E-4,7.857245319318298E-4,-0.12317704398482407,-0.24080651296103062,6.69138309902106E-4,0.3063839797558814,-0.2395291661399696,-0.016365171323138316,1.7912006407544618E-4,-0.4615379146504087,-0.37007154545504495,-0.2858857384667223,-0.2939254864526039,0.5008567438909192,0.22049560829247492,7.896204247233086E-4,3.2795502291630536E-4,-1.7880407283678548,1.4217394919644033,-0.43998499452535517,-7.276439423138377E-4,7.423296500278695E-4,-0.25086531645171745,0.20186147844405627,0.5097285859343638,-0.16053737048682393,0.07094488567552584,0.2974629444675585,0.4426053510824032,-0.05805779705976892,0.9581383608089874,-0.006907921724529687,-0.06813772004312614,-0.06577480570146223,4.125085616820571E-4,0.6465347193691613,1.584240131930935,-0.3584955747560557,-6.08183293068256E-4,-8.898542886383034E-4,-0.8916681563850458,2.8567841452665994,-0.24934664092819342,5.682122806198334E-4,-0.031156956534602112,-2.3913654621262226E-5,-0.1890453037353355,0.15902347747327844,0.12447811424244398,-0.3608982682825183,-1.7698474861906943,-0.3253340014039949,0.180161233117754,0.37305358144757506,0.010658470321212817,-0.14995118092804938,0.2958848843056994,6.309153518519492E-5,-0.5172008272893882,-1.5132343213804031,-0.5231342738722766,0.579960502563692,-5.284493742394498E-4,-5.284493742394498E-4,0.12931896144608845,0.43081393442030963,-8.573784418036347E-4,0.5585656690205193,-0.23178724431349731,-6.06275981114122E-4,0.9197995229654968,-1.4178727479433502,0.2452445252889549,-8.625314869860649E-4,0.9197995229654968,0.07434273082528055,0.07434273082528055,-0.17295005647469702,0.06364826526994419,-1.6330764581772754E-4,-7.234244415122979E-4,-2.1820870092333844,-5.80857686483001E-5,-9.919795579667328E-4,-0.7285178168942902,-0.43582126768957796,-1.3828428235581613,-0.33580409180665693,-0.368125452647837,1.0210891013943553,1.4769469052254776,0.3488284819624729,0.18679806153537273,0.33177464828490133,-0.17858154486181033,-0.04414826648211462,5.279882130213244E-4,1.7688472717738355,0.32495984955768403,-6.586775287100477E-4,-9.288874173993462E-4,7.293539858219887E-4,-0.0012186996272332581,-1.325805175536631E-4,-0.03682800462301962,0.5164688782484085,-1.5448546500441331,2.3215734295863446,-0.7987471711278245,0.7578294823869588,-1.2852315178322489,0.0935686237794247,2.6040412687936088,0.8956134340415469,-0.07424485818319466,-9.38141605399154E-4,1.2769836138623194,0.37985829660875686,-0.2955855162573812,0.5354035333245405,0.9688443190828239,0.3146806555042441,0.44598532822359593,-0.003980927564977093,-2.1814155235026265,-0.0033982867855792158,0.14884275620567838,0.0500828880694774,-0.036951919194278454,-0.568149549688542,-2.7182047160910066,2.4441596967785104,-0.03776938752469499,1.1011803814975936,0.35033385888952717,-0.27315831419545344,0.02597755482685736,-7.900967199192829E-4,-1.1349433731438188,0.05766671278280856,-0.10137509317022754,-0.23278259204064086,-0.1342465126801484,0.07312361596900441,3.7558103984865784E-4,-0.04731354024759453,0.9251858576700305,8.634656408582797E-4,-0.38898924910738286,-8.482932146093338E-4,-2.8458330864641983,-1.3885141900718316,-0.32121959677251966,-0.04911999531354153,0.25475702268857825,0.33898507324695787,0.01472284955107232,0.3519200965555448,0.11606163064829411,1.5815245567984406E-4,-0.0658986104835878,-0.11438264474976316,-0.2642785289660133,-1.2801684652169325,-4.013424991652101E-4,3.513111836032538E-4,-1.927987647714363,-0.04886366015639637,0.2007748688880399,-1.3689089719977603E-4,-1.277497972104156,-2.097881543232306,-0.7180326375768192,-1.112903693626534,0.9843637668345769,-7.620068994073667E-4,-7.620068994073667E-4,0.5580386785745902,0.17203702777674454,-0.051726588722076194,0.21454552968556728,0.29405965614927376,0.013922085529676685,4.549123909086643E-4,0.5656232251829805,1.1793811456178784,6.769261203219302E-4,-0.2206738346623459,-0.2206738346623459,-2.8914457025081843E-4,0.14896356093307517,0.2264273939931693,0.2690246246798608,-0.5678251031900202,-0.5678251031900202,-0.38929164772163305,-4.223795702194957E-4,-3.7535276124964472E-6,-0.7423672131164079,-0.0183934214240616,-0.0183934214240616,-5.48409044643563E-4,9.826399593897226E-5,2.4231538343248596E-4,0.7217640081100809,-0.30272839548659297,0.4005910970582235,0.27444986239330715,-0.24219149623776529,0.12362600421435876,-7.556045805279485E-4,-0.2499223997039074,0.6226665017618082,0.6226665017618082,0.46733544031930535,0.3189766596974609,-0.3201026366874638,-0.08497733681852086,-0.4115373120912044,0.5866145983947132,1.087358852881233,-0.03404828290720304,2.2116073161849363E-4,-1.5751332784662329,-0.5055282965425343,0.9319432754886685,-6.956259395148427E-4,3.664198080813294E-4,0.28437957441575507,0.28437957441575507,-0.5727812232224334,0.06304802087730364,-0.14092785918922032,-0.4363666796547334,0.5332344996731819,1.3588445076596474,0.4544954114731179,0.28619681607211,0.4026098367816496,0.4026098367816496,-0.015119397597875872,-9.510433951474538E-4,1.3167986936824403,1.3167986936824403,0.36911026522532037,-4.572192948911468E-4,0.21807243922982647,0.3917841384839967,0.704937660801689,0.14891336051369275,-0.1629337618579522,-0.2696566043275343,1.2925073939374157E-4,-0.04909165928264621,0.12434126388868719,-0.02031235323062866,1.8961414841287674,0.3522971847143154,1.1054177178647677E-4,1.401982872842628E-4,0.8146128804625052,-5.965253978284054E-4,-7.461534250618963E-4,-1.0772577545835338,-2.0941125429671112,0.8146128804625052,0.8146128804625052,-1.698808839387116,-3.231040797028326,8.812522517353161E-5,-8.929331179883132E-4,2.0151240367897425,6.164634138852935E-4,-1.4525168832760194,-0.7016051132030214,-0.4388899618211406,-0.4388899618211406,-0.025509971807782583,0.7227735915964338,-1.8309115807262935,-1.3243063510345108,0.16889727296397683,-5.150487758874291E-4,-5.150487758874291E-4,0.7085355691249031,-0.10736672797566549,-0.10736672797566549,2.078199459417819,3.332001805332605E-4,0.402749839824584,-1.1997376517109735,0.7085355691249031,2.1588229591910713,0.37668492630531886,-2.3273754321278006,5.6833240800476296E-5,8.044676741274916E-4,-2.3698901032542091E-4,-0.2916804716273465,-0.045121799240211605,-5.95355437265346E-4,-6.298758152120885E-4,-0.2916804716273465,-0.2916804716273465,-0.2916804716273465,-2.5047778397031307E-4,-0.31386793986802264,-0.049800746995910396,-0.05108584426176384,-3.377204262946662,0.11687844902921596,-1.0511543898840468E-4,-0.911990031218445,-0.30775665081858283,-0.8175562925569576,-0.24205369760859083,-0.36835563049891745,-0.8465419021213009,4.76825167792249E-4,-4.2513210143871306E-4,0.29057209343547374,-0.5618407311855238,4.169063221752922E-4,0.8360350635461831,-8.011932604701836E-4,0.2662653709487126,4.169063221752922E-4,-0.6256649856694108,-1.8169231863369854E-4,-1.4047863614437576E-4,3.76004749589645E-4,-8.405716543099604E-4,-0.7329375355874432,-0.853029517239787,-2.6804745961217677,-0.18120290099337058,0.5618111980118797,-0.0014009857295483475,-7.396221258054942E-5,-1.486373882869113,-0.03635349242995528,4.52486916882626E-4,4.52486916882626E-4,-0.003383671386202296,-3.0090330075600424E-4,-1.4033019754307505,-0.0127594570661033,-1.6769117246562584,-0.42623169855611026,-0.02730909842839101,-3.463496684625426E-4,1.616277573703573,-0.07511310921304454,-0.7433362580255818,-0.01588579819928825,-0.01992505161216074,-9.130406389478078E-4,5.171665787753559E-4,-1.532846191719011E-4,-0.48069217323676927,-0.48069217323676927,3.1194451880549128,1.1753599627428435,0.6051402762038616,2.3739234518988246,0.34912887727075537,0.1713166854301033,-0.21016391765091041,1.3382969626615582,1.2658189192937455,-1.151381734062297,-4.977830658033976E-4,1.2184459408481154,0.33932434613778756,2.0062679758406876,0.09558146008488487,-4.2658425346523516E-4,8.131399719108279E-4,0.3865199622902587,0.26297699411889575,0.26297699411889575,0.6348234366579201,0.08710825050402861,-2.563190464712149E-4,0.1273818398744093,-0.12873251532555405,-0.12873251532555405,0.5278936287512759,-0.35102651433281457,0.6049673678518388,0.3597665423965227,0.3597665423965227,1.663496190178995,-0.7303620944343581,-0.46122232445106065,0.8004891089535944,-0.08839721757915908,-0.08839721757915908,-1.0372173164987373,-0.30760054574098444,-1.4628719297667174,-0.38195765291663136,-0.5295573329580842,2.884031089273821E-4,3.785375347809888E-4,-0.961866596812557,-0.961866596812557,-0.961866596812557,-0.10758529150208755,1.0480415907718559,-0.673758493399029,-0.673758493399029,0.00345066504752335,0.7025627494589277,-0.217312906216457,0.20222699652793097,5.112686017162958E-4,-1.1328939149989885,3.081628111393426E-4,-0.28886116751242946,5.559212202860781E-4,0.15984832121636558,-0.03916295007470854,0.3409151397699759,0.3409151397699759,0.06270565126732598,0.2247748629829005,0.301751432936808,1.2788067621905863,0.560668179465135,-1.4178013694766383,4.9864657413024664,0.24693363604679347,3.604396158808328E-4,-1.7476969899261416,-0.6636228321192228,-0.876166917773463,0.5333756892374514,0.8968051609286506,0.4376516082247789,0.7341075632544882,-0.1013841316656038,-0.16187845906976217,4.061654707192405E-6,6.877533120559544E-4,-0.5979618896747048,-4.561827842496888E-4,0.4865897957099844,-0.1628926654858861,-1.1187038505862361,-0.18830810204811985,-1.2602777188226537E-4,0.14729704880180708,-0.5538709303807173,-0.25582341594437696,-0.7759984803694508,-0.9242360121578673,0.857696463213821,-0.05057296866573494,-2.1395380616775952E-5,-0.09880055108138054,0.4575708870302626,0.7043097868361242,-1.4554761121946997,0.6735613170988017,-0.10954333893602422,-0.285012023329176,-0.25687937896115937,4.3886365054615455E-4,-1.0914473038661352,-3.5330906102327053E-4,-5.026457941082864E-4,-0.0033755224724877123,-0.013015729934107694,-7.46137186957813E-4,-0.2986901995821704,0.0068233332896170985,0.012951552099179954,0.085496010488276,0.6689780614417876,2.0069664079545277,-0.3691153196930943,-0.05462896663533277,-0.0913334906793049,-3.7254639206787347E-4,2.5451751510924454E-4,0.4850344971399224,-9.528727290121714E-4,-0.061967395605600537,-0.1978808151844627,0.37674330797181393,0.21235880223443382,-1.1859769354866216,2.972292558339565,0.4879622781894894,0.19987054126261947,-3.9881756418903337E-4,0.6601794182807506,-0.07976283724353407,1.863730925963686E-4,-0.14485669555198158,-0.3951914093786568,0.33802123884914614,0.33802123884914614,-0.1324391653385791,-0.6268513454858545,-0.002378562853969404,-1.0946709988257384,0.27682375303576456,-1.9239382395611486,0.9903693977448871,1.4068247488479868,0.09638377040661825,-0.9726437992093748,-0.2974369176276473,-0.022311631231412003,-0.1010559752526692,-7.367639299684787E-4,0.6129901578951696,-0.44923887648100475,0.12446726402376104,6.797729127004104E-4,-0.5623210133039453,-0.5362627031605349,-0.7734843582856117,0.2591963950202421,0.4796989941238841,-0.01926736437784379,0.8634135275951512,0.009143391650622463,-0.2367629729260815,-5.259982426117288E-4,0.7861674317604445,0.7861674317604445,7.215553137210662E-4,-1.3400088592235806,-0.736088522474078,0.010232641426447883,0.7450244638171832,1.3037116234062585,0.26597610402587185,0.18578323721217846,-1.929903287853744,-0.7419177184341907,-0.2427911803216736,-7.91091578081435E-4,-0.5365618290121593,0.07451728205695377,0.06833607721558987,-6.006486980886953E-4,-0.001534086104885494,0.3914986250139196,0.4024982127935297,-0.1302891879066649,0.8579756694639987,0.989527254476892,-9.550610754096196E-4,0.21402443719680142,0.8579756694639987,0.24840698977489137,0.24840698977489137,-0.07707177736086628,-2.7432483355315944,-0.6080382343324372,-0.6080382343324372,-0.6067686047503901,-1.5706448479960167,-0.7749253081095695,5.118375452589871E-4,0.9938847376013684,-2.5579604659711292,0.7917844435927717,-0.5162351442017611,-0.2931036294017365,-6.60641537705156E-4,4.0975964530205516E-4,-0.8040948557598208,0.7441027079694679,-3.251006073238437E-4,-0.16684944149043063,-1.7070188237805235,0.6320622902534992,-0.1356980515317108,0.24373778647833932,0.5295114125130713,-0.019322542172352974,0.2519281605553963,0.7580201173363894,-0.562598346541314,4.3600516481506703E-4,-3.830809124378933E-4,0.25545073125130996,8.658938295380174E-4,7.840348979494365E-5,8.100806359777426E-4,-4.5459176949349503E-4,-5.091314364556877E-4,-0.10845528299395835,8.017764537426249E-4,-9.045725040657086E-4,-0.29596751446666475,2.337519927330053,-0.02598972346665147,4.918267586411515,2.6986441554321066,1.12854570543028,-5.0448182144041E-4,-2.9104909744894717E-4,-0.47520588080455606,0.09208958487625155,0.2157426681104384,0.36015536395782544,-0.10293938182377695,-0.4262143740864297,0.8507359062491828,0.8507359062491828,2.4478603073013168,1.5785375648752689,0.6608380830308804,-3.9540131355215503E-4,7.016944087976998E-4,-0.10476239234146202,0.07143921424335112,0.45125012056714814,1.2788400662307238,-9.57129913560931E-4,8.451346389447671E-4,-3.035331033728021E-4,-3.035331033728021E-4,-5.462847872932643E-4,-2.2901702197800284E-4,-9.602910283778286E-4,-5.780568939389293E-4,1.243967072712044,9.933362663508392E-4,7.316704979076683E-4,-3.213019847244326E-4,3.2950171000228727E-4,6.93180548783145E-4,8.143170732052919E-4,4.066868746771265E-4,1.828256242728428E-4,-0.014383416741560195,8.715882331077209E-4,6.385459485965929E-4,0.14049710231848073,3.6590553136504195E-4,3.6112407105120875E-4,5.7056618412704174E-5,8.335717222198434E-4,-1.181593895561926,-0.2680798579651872,-2.0091328571873062E-4,-9.670744291844979E-4,4.388756272177062E-4,1.0057146292270758E-4,-8.38668437020693E-4,-4.061321542522644E-4,9.77805026757372E-4,-5.38980979976433E-4,8.019257149663097E-4,5.399365120180126E-4,-1.0261860116888974,0.10450010425234946,-0.39416316461219475,-0.16670420208909836,-4.492385853569537E-4,0.13144116793730498,-5.549660815094019E-4,7.794666939249222E-4,0.09080987133182625,1.5676583445730025E-4,9.565559035088322E-4,-7.88164955520327E-4,4.985851404678157E-4,1.4316121646493571,0.7540604474156378,0.05439772720114264,0.652295118125048,7.007831182029255E-4,6.84250054696009E-5,0.4823049089142308,-8.213926429190643E-4,-8.213926429190643E-4,-0.13069335842411214,3.922542541875227E-4,5.596556943442214E-4,-0.03343408859246344,6.192580245694139E-5,6.192580245694139E-5,-2.3900690585787094,-0.33568878702894966,0.1946817100701507,-8.921081782062006E-4,0.16063532741023645,-6.748983127631779E-4,-2.432079036040584E-4,-2.551809834752503E-4,5.218436427344674,-0.680239448524698,9.369445295564873E-4,-2.3681207478138538E-4,3.4445291479962665,0.5112821400024894,2.210631100897791,-0.01026658152655438,0.12437913406147927,3.601581284711315E-4,-0.011487472269111683,0.10446174373816446,-3.273800101037419E-4,0.7737153000633651,0.23936951620113014,-3.7519705747999463E-4,-0.6880065779483611,3.810397822346229E-4,-7.679429011557357E-4,0.48232582660158035,-2.655587816976078,0.12038464037345734,-0.42465915166173407,0.21844194590676075,6.297516318150968E-4,-0.30664833262587926,-7.443715372681937E-5,-8.313646624556695E-4,4.495479964845609E-4,0.04174013655609513,-0.06340848886990069,-0.17251341213449445,-0.23434171941916546,1.8119039920046188E-4,4.043796001195754E-4,-3.4482246479395013,-0.5481434092676856,2.4691327384314365,-9.708876293879039E-4,1.584026536538595,0.49627469264263513,-0.4935949729289214,1.856456549862572E-4,0.056074004544652375,0.05683649469002141,-7.075242438426008E-4,-2.0776537191385556E-4,-3.4240142616120386E-4,-2.6527108924917346E-4,-3.564281274337029E-4,-7.956165755901312E-4,0.39663506311649566,0.4003819699589356,-0.007438972876184386,-6.15351552872618E-4,-3.633051788552152E-4,-10.224607285525693,0.07499754065102801,-0.16195796115275748,0.3310770454982201,-1.8480581259132371,-0.7087013826850952,0.5303585594508344,1.578992633521003E-4,-0.6349893177200531,-0.18269287538283738,3.377055558825944,2.9865675576855322E-5,-0.00643944082052683,-0.837787781980073,0.3411510140231972,-0.4484704117204675,1.199668243563217E-4,-9.012208389236535E-4,-0.17237427747458867,0.12402183229135606,-0.4946224942401226,-2.5146042171692983E-4,0.2769954840376082,0.24038947064363703,-6.707070193696363E-4,-1.3334974384003742,1.8281717238956686E-5,-2.213040198220449E-4,-0.692874401959994,5.379998448809657E-4,0.18171352794858472,-0.1846749605483445,0.18608966128092852,-0.23676479909562123,0.12601278421,-0.707053113380802,0.21088745563544137,0.09571446555732617,-9.333593332576933E-4,9.417025177517516E-4,0.6367935073266286,-0.5267291181028111,0.09571446555732617,0.09571446555732617,-1.9132498250373218,-0.42192118110088944,-1.639004883291083E-4,-1.639004883291083E-4,-0.9106313510862823,5.274167446087678E-4,-1.0077858666399244,-0.56471583468988,-0.9864582301445993,-0.9864582301445993,4.375761913824592E-4,-0.042311654332052764,0.2815896211413102,-0.2802419675557564,0.46149135253156787,6.973556372583214E-4,0.1328090172626621,-0.02817408293781929,-0.02817408293781929,-8.833842853980065E-4,5.423538262556622E-4,8.950953378867067E-4,-0.71861031690091,0.1328090172626621,0.1330677800548492,-0.012571125168342872,-0.8506651579244329,-3.6277181790253E-4,-4.8786957097510567E-4,-9.280054255660719E-4,-0.27549647585500403,1.915889718639885E-4,-3.7712181864076575E-4,-4.2163412159080366E-4,-0.27549647585500403,-0.27549647585500403,-0.27549647585500403,-1.525324393811088E-4,-8.401130486544429E-4,-1.0976413067616242,-1.0921426515333899,-0.013491765385898608,0.05098992333320046,-3.518340775913705E-4,2.4587193153905744,-0.2968221995649629,-0.29330997065434317,1.2160590715559285,0.021383268332700163,1.6251623795868653E-4,4.225979632306589E-4,-8.052274393040155E-4,-0.877810919380855,2.235779056838158E-4,0.8799714037793692,-3.0973499929242657E-4,2.235779056838158E-4,2.235779056838158E-4,4.7722573803696744E-4,0.16233847286731035,-8.893996450584108E-4,-6.014484644784015E-4,0.07217034314544567,-0.09635912033437498,-0.9089824676334103,-0.3779314506676789,9.535253415840089E-4,3.2055430203151375E-4,-4.726431264173779E-5,8.053862687667148E-4,-7.494632222880954E-4,-7.494632222880954E-4,-1.2397748660271,1.8167966474222876,-0.37106930662124704,-8.063272008815644E-4,-3.239217724960854E-4,-4.51151750088889E-4,-2.0890417927900157E-4,4.184009990470213E-4,-9.182060012937763E-4,0.19254418530695575,0.19254418530695575,-4.378912187547343E-4,1.504319223314604,-8.168779056209727E-4,-0.026948389926615177,8.93534703728394E-4,0.9046947890697427,-1.5759205797570974,-1.1740290473763156E-4,0.7439205188754793,-6.525817554570751E-4,-6.55461780729498E-4,2.488736668201577E-4,-0.4036430562387862,-5.610788983785694E-4,6.225465501746051E-4,-2.201537825708825E-4,-0.4036430562387862,-0.4036430562387862,-0.4036430562387862,-8.928601691888899E-4,-7.617949340794814E-4,-0.13827770102549425,-0.13827770102549425,0.9120427317807199,-1.1368056408930247,-0.043545187821799364,0.36150433072540944,5.225134707820855E-4,-7.50486031270095E-4,4.344952311190469E-4,6.416067784947481E-4,2.4118080745167043E-4,1.2122120726692468E-4,3.2405308655759153E-5,-2.239587486999416,-0.9650538923919613,-0.2918331831273584,0.45384048961078344,-0.7668251151394875,4.305987922539789E-4,-7.897928750231554E-4,-6.652531142051579E-4,-7.215541862068628E-4,-8.703670154195459E-4,-1.0969215050489782E-5,-7.900175888223525E-4,6.159117127756343E-4,5.667745001384048E-4,1.1229712475937658E-4,-8.36082626656737E-4,6.257279881787515E-4,5.508180889545727E-4,-2.1342601605474354E-5,5.478135835155847E-4,-8.086014943270047E-4,1.4124258753057473E-4,1.1892194678608087E-4,6.877150080460877E-4,9.938036654578886E-4,0.10990301384846693,-0.22695452353287388,4.2508371884660803E-4,5.515101355650931E-4,5.515101355650931E-4,2.4071597780681811E-4,-1.9471415637310968E-4,-0.6378259699363621,-5.973946201582826E-4,-0.25845365076253213,4.205568629375501E-4,6.575343919024653E-4,2.0619962030646798E-4,-0.24326451155406392,-0.24322142607446845,-0.2960461743906654,-0.22587071363839667,2.1773359607640126,0.13127272439926493,-5.77690958812697E-4,0.41300530973367233,0.2323037244239994,1.1597792575543548,0.07962024198218644,1.2921998143983981,0.6488050667321714,0.29532925661391496,0.5264015776603919,0.06366828035690114,0.06366828035690114,-5.03854807437863E-4,-5.03854807437863E-4,-5.800464864844988E-4,-5.800464864844988E-4,-0.012618271133565161,-0.012618271133565161,-0.09923571658478857,-2.5307388064339573,0.37462680823104966,0.12765173461124812,0.915357546979111,0.9215728872850116,1.0538598897751927,0.0891188890557086,-0.43822394621933713,7.955144081969923E-4,-1.2286543966077308,-0.03224945440253589,-3.7646606793022416E-5,-3.7646606793022416E-5,-0.542232052629762,-0.061254805697174716,-0.021729994612458347,-8.162719008522885E-4,-0.542232052629762,-0.542232052629762,-0.542232052629762,-5.98797325100472E-4,-1.1827481528800185E-5,1.0746419118172804E-4,1.0746419118172804E-4,-0.05653194093715515,3.6650821254009477E-4,0.08657648231428955,-0.2310704036190493,-7.615303952190535E-4,-7.615303952190535E-4,-0.12100588966726375,1.1821542331442647,-0.2310704036190493,-0.2310704036190493,-0.27537274733206085,-1.9323461927297925,-6.707784147404906E-4,-6.707784147404906E-4,-0.20904487242358022,-4.186466607968444E-4,1.333240918629089,-0.5835353260129289,-0.6887139300541337,-0.6887139300541337,-2.0175039791817595E-4,-3.094691182637453E-4,-0.3627835965435548,-0.1061498431303097,3.3245392210387754E-4,6.9378420515964646E-6,0.5726325965109035,-4.155270930647994E-4,-4.155270930647994E-4,3.707963517902695E-4,-4.617149897229761E-4,4.904877342103507E-4,0.24411754595336504,0.5726325965109035,0.7242729283621329,-0.015593603607949603,-0.18673209080860262,-3.23806617873533E-4,7.412083575600845E-4,-2.815999070641031E-4,-0.11329228601355319,8.581481752216737E-4,4.648181576911753E-4,3.6480598193306193E-4,-0.11329228601355319,-0.11329228601355319,-0.11329228601355319,-4.2280927000748405E-4,-4.1471625073039736E-4,-0.10838864455600954,-0.10838864455600954,-0.4310442799868789,0.14953576617632153,-3.717723043090848E-4,2.064844367337911,-0.13865376700195922,-0.3133862404845421,-4.687062464137663E-4,4.704678461818299E-4,-9.75340626858304E-4,-9.911934723755007E-4,-4.0292342688333415E-4,-0.4988114498561741,-1.414882372429778E-4,-0.22494735681434316,-5.327610650574001E-4,-1.414882372429778E-4,-1.414882372429778E-4,8.742574166228857E-5,-2.5055834107903666E-4,-2.5055834107903666E-4,-6.497148452543856E-4,-0.7691884908625533,-0.0055700332124778,-0.4174910151757686,-0.030774747869292154,-6.233785819557826E-4,-8.142771376957903E-4,-5.879296983126183E-4,5.365050277084129E-4,-5.711960222428013E-4,-5.711960222428013E-4,-0.006143375622004237,2.706753330934056,0.018736347486195716,-6.410553128862895E-4,-0.009798570515320158,-2.673767742220057E-4,9.132421231753307E-4,-6.415772304369289E-4,-7.87641644598264E-4,-0.007915289644473845,-0.007915289644473845,-1.7931519561014114E-4,-8.506196793786775E-4,-6.765346354090483E-4,3.452913439587754E-4,4.376374058755457E-4,6.541575413623674E-4,-1.2569661599263475,4.364946918774198E-4,-0.06943055480918663,-0.09544889787546187,-3.1640371573542735E-4,-7.125973705905564E-4,0.14968873676184352,-0.014136625761915662,-5.950624469898314E-4,-5.950624469898314E-4,0.14968873676184352,0.14968873676184352,0.14968873676184352,-0.14913993610321802,-0.9942563168368888,-0.7022452351672357,-0.7022452351672357,-0.09178630770741682,-0.2159505549055675,-8.637019201131191E-4,0.12488561725318144,1.468740285725179E-4,6.85436519423296E-4,-5.071651471473959E-4,1.6548433993973123E-4,-5.530926938127609E-4,-7.029134261793929E-4,0.36313154262792563,-1.6163806974297474,-8.33680037658339E-5,0.4951889860785313,-4.3057242746350095E-4,-0.20494739235321827,-0.02492499221834074,-3.612364308714088E-4,-2.5413635486719983E-4,7.359814037747436E-4,-5.646966447893939E-5,-1.0138107337306858E-4,-7.399499320670398E-4,8.413778428819827E-4,4.320078852627562E-4,0.13505527497879627,-0.004519331273194267,8.202738099817577E-4,8.202738099817577E-4,-1.1410357781938343E-4,-1.1410357781938343E-4,-8.774158950582019E-4,3.80010190670888E-4,-6.407060816643042E-4,-0.09431993672946137,-0.7335675094556997,0.6060294930065633,-3.6184726009633357E-4,-3.6184726009633357E-4,-0.0020912671439507566,3.9093948388503824E-5,-1.4349475364232127,-7.618049877637632E-4,-1.3709209319868447,9.016991110364846E-4,-9.355191578207028E-5,-0.0036769143862813245,1.0513750493771,1.065992272718137,0.49687879637904764,0.14845307736710434,1.367848492831615,0.37445298450017667,6.391161959176982E-4,1.7042611807238992,-6.305518769053046E-4,0.6992389531409879,-0.05166731807399931,0.5623698366615967,1.7613220099508805E-5,-0.06818930700508274,0.46862245759852844,0.5903402113513248,-0.07584512904399095,9.319528252749669E-4,0.46862245759852844,0.46862245759852844,0.46862245759852844,-0.7156531161707678,0.0025776918649162497,-3.513446482224351E-4,-3.513446482224351E-4,0.06636832532196978,-2.043009111563647E-4,0.4500672653411674,5.342746798358002E-4,-7.65468908051519E-4,0.3682911029436335,4.30570091770493E-5,-3.567344863631785E-4,-7.703126701618169E-4,-8.006519548083512E-5,-0.12246711776977762,6.364485853807297E-4,-9.449548408770113E-4,-7.87156830641791E-4,-2.6100063012417436E-4,1.543099961760525E-4,-0.2949667480919785,-0.2949667480919785,-6.324040311399036E-4,5.18743699890116E-4,5.792977168747995E-4,-0.3295799602892037,-0.08542714736378991,5.055244460079985E-4,9.541744213429045E-4,-0.3295799602892037,-0.3295799602892037,-0.3295799602892037,-0.009170416352789604,-1.236730534956411E-4,1.3235078975852859E-4,5.353691954318175E-4,2.9143697750117577E-4,4.1465128494038014E-4,-7.222058159648734E-5,0.1411799618360031,-7.539381883785512E-4,-1.367497807599153E-4,-1.0851885766508321E-4,-1.7591444978232217E-4,-0.02556390312762423,-7.327368662116574E-5,5.83253571351787E-4,3.804515931920215E-5,-6.823378856508949E-4,1.7655707905425504E-4,4.094971818727317E-4,5.291274774843161E-4,2.1491003997656634E-4,8.116276888602155E-5,-8.924979823042457E-4,-5.893825911141804E-4,-0.3645164068397631,-4.721090965520804E-5,8.295253854720813E-4,-0.6439751173428291,0.14529209571043664,-0.015798451299321673,-0.5892238249087,-1.2063962088908584,-0.2554743762990943,-7.720498185132513E-4,2.6754543153346773,0.004614232396335623,6.306842919551251E-4,-0.08022721866348213,6.59697326060259E-5,-0.18683355727250722,1.686957895302836,0.010657232354803266,7.254974191438948E-4,0.2890489401041517,1.686957895302836,0.5240790406355448,0.5240790406355448,0.8263395107793561,3.368954099045284,7.299575651540109E-4,0.35022007069021366,0.5301354166441744,3.880397529139898E-4,-2.129759070969762E-4,-1.529763650508719E-4,0.5158577995860659,0.6747714650652571,-1.8209379089259754,0.5522268494146801,-1.4057718076968375E-5,4.334430223717218E-4,-1.283073189973863,0.2323197844876874,0.12090205019860654,0.12179220754252282,-0.0737142719399435,-0.050437366068538346,1.4770221259542602,0.46315539388961235,0.532584465339948,0.06973264315690107,-0.3897619148595363,0.4437723986176861,-0.6604843271895643,-4.4004118899724663E-4,0.30591068642343267,9.230004847078777E-4,-5.53684443655854E-4,0.31238499753747045,-0.08204189045270148,0.4597539086625517,-0.17140636781993607,0.15747629413364927,-0.7480545641395562,-3.297999819340965E-4,-0.8474604266823249,-0.8474604266823249,-0.8474604266823249,0.0038241356010551945,0.005464506095235392,5.712835139248232E-4,5.712835139248232E-4,4.351284447950864E-4,4.351284447950864E-4,4.505084231403757E-4,-7.607677505185483E-4,1.9209827214923598,-0.8326262272655328,-1.2653301944167272,5.00959520191753E-6,4.930730623834553E-4,-1.3067907820839268,-1.3067907820839268,-1.3067907820839268,-0.6510535478565453,-3.310984955515587E-4,6.616160416724661E-4,2.2808320968735224E-4,1.0332151597755145E-4,-6.853299454209153E-5,1.3684167920758528,1.9077776442449963,-1.0380247823924327,-0.8420897800846996,1.3837691963311045,0.9664558180010243,0.12727681104822003,0.12856537849186284,-3.1251159925402825E-5,2.9893107593079215E-5,-2.04238216542872E-4,-1.2647421132531663E-4,-9.474695530875686E-4,-0.9208596255405177,-8.858931702330486E-4,-4.5001219583740365E-4,0.9080220622910102,-0.20260279894644348,0.49181046279832275,-4.366997567387615E-4,0.7558506982306935,-0.00506556592183603,-8.579813577066694E-4,-0.26065485214988643,-5.17371602132288E-4,0.1704913879844849,-8.168388084219315E-4,-0.07605489298390095,-0.2397506359773401,-0.20240669187974564,1.0691864178649451E-4,0.16289800393313672,-0.6322710598227057,-0.29805881609055546,0.2340721469062508,-0.12243363888923908,-0.11121709085189752,8.512703212523473E-4,-1.3502566026111986E-4,2.525429822337424E-4,2.525429822337424E-4,6.42711449774281E-4,6.42711449774281E-4,0.5612144502793366,8.230821506494449E-4,9.111440302896929E-4,9.111440302896929E-4,0.7312242910977961,-6.685083169942262E-4,-0.39837563761316985,-4.720505972852844E-4,0.12938347454362625,0.2817566343923892,0.1183745624824535,0.4653610146186982,-4.099149434746458E-4,-0.16265984191549981,-4.705281829780086E-4,-0.014121861543764682,-8.635161173621304E-4,8.366057999524435E-4,0.09352493169573972,-4.0157772995958016E-4,-0.2795679585545414,-9.691452634107597E-4,-5.715098731989621E-4,-3.622501262515737E-4,-1.8485247267885602E-4,5.031819460146981E-4,0.1186766252754185,-0.11053295480858416,-0.051655776710059734,-1.3841779976330557,-0.29093560514532896,-0.042156004719578706,-0.08010723347571312,-0.9901613814296515,0.9996571633248941,1.5002747826211027,0.1830458028767883,0.48390699942540666,0.48390699942540666,1.0423777344494682,1.0423777344494682,7.517720313355784E-4,0.3071898056836033,-9.415038466634254E-4,0.6172593770018598,0.050118759535668994,1.9071100536039407,-0.29757217618924076,-5.536337703446911E-4,0.6073786706579242,3.178782745195805E-4,3.3133724492286315E-4,-2.0921907396876304E-5,-0.08013733946986126,-8.377729905938603E-5,-3.580955897526161E-4,9.685522321230423E-4,-0.08013733946986126,-0.08013733946986126,-0.08013733946986126,-6.739684765355525E-4,5.914000997810755E-4,1.0243741166577418,1.0243741166577418,0.4364144647432362,-0.0031597582938935644,-2.8093636245620467E-4,-0.5445577842382715,-0.31141427738918975,-0.3040725907826937,-0.21458154405811386,-0.27817192287952525,1.2351656804304716,-3.973439538917647E-4,-0.2998326827956125,-2.128169066137775,0.11430368286452806,-0.0434388990735632,-0.5690807730222941,0.6906512918916883,-6.941579046661962E-4,-6.996753541665986E-4,-7.199757702408389E-4,1.863148775415347E-4,6.580716664756252E-4,-8.638740652372493E-4,-4.344567803192185E-4,8.437888670332749E-4,-3.1131981412397657E-4,-2.845783463227209E-4,6.824066482423128E-4,4.5538695798256687E-4,-3.76220292704151E-4,2.4056518649009017E-4,-3.7449034419763676E-4,-5.500939611795946E-4,-4.8082223501597597E-4,-0.03745558608319235,9.18442741079808E-4,-4.5821303672989784E-4,-4.5821303672989784E-4,-7.556459448154274E-4,0.10852463522949625,-1.91221737094932E-4,-5.596771635903667E-4,7.983484398124655E-4,-0.1451009625486928,-0.14159690457204946,0.04910400052420525,8.816924160241519E-4,-0.1985878103455594,-8.838367959262215E-4,-0.38558333245263,3.493378483673251E-6,6.211419643536848E-4,-6.184278481981167E-5,-0.12438727424799516,-0.032132241647922534,-1.5256628180568635E-4,3.7459927735344987E-4,-0.12438727424799516,-0.12438727424799516,-0.12438727424799516,-3.7320691076280714E-4,-0.031647801469733755,-6.75875963111492E-4,-6.75875963111492E-4,2.1252090451443308E-4,-8.755468329308875E-4,8.451665509840278E-4,-9.312296844736033E-4,4.880507235071503E-4,1.3795612370157877E-5,7.450366006014587E-4,-7.485174929712661E-4,-6.792713107501727E-4,1.3795612370157877E-5,1.3795612370157877E-5,1.3795612370157877E-5,-7.60775325211964E-4,-4.6546270639719273E-4,5.836053109400008E-5,-8.904763771951011E-4,-3.9809190862343967E-4,5.816752684134358E-4,9.249864475182711E-4,4.7923446150481433E-4,3.139993533973704E-4,-9.743383712346686E-4,5.865837204265866E-4,-9.123329655440105E-4,-0.17040052042815368,-0.16035403164735773,-1.0502427741489502,-0.854785948233613,-2.668118146218466E-4,-7.480924575071166E-4,-0.5520088366164642,6.881884464326167E-4,0.45343886991972643,0.5845515295365478,0.8743429921865151,-0.8329698998920807,-0.0037871784766652225,-0.006263538861301323,-1.823521160091154E-4,7.353616349020546E-4,-0.12493560964615018,-2.76631298624821E-4,-0.44431229418456375,-2.653164856264232E-4,-0.4114985966594443,-6.793548623980177E-5,0.28760271715014923,9.772704362143794E-4,0.2503222599478009,-0.12606495187322367,-0.26238112376077166,-1.2859520585299986,-1.1940185366359911E-4,0.1602489259385252,8.894415871754902E-4,-5.306254335936968E-4,-0.21877340952035448,-0.09146429459419181,1.0255857739902995E-4,0.5705702075059709,6.085622039497221E-5,0.8892290652185347,-0.27286814784457103,1.4586604317325318,0.678384742596639,0.607248847519765,-6.921257780578148E-4,-0.9478340707992269,-0.36381263043318224,-0.36381263043318224,-0.11587422593544319,-4.3873168202099386E-4,-0.22461449504462766,-0.5919735184956081,-0.43281382428023263,-0.43281382428023263,-0.5622761487232016,9.652351411661451E-4,-2.76589024273107E-4,-0.13049323643794103,-1.9864665102753432,0.009851111065115803,0.17306025906012795,-0.7153754969869761,8.613444450992979E-4,-4.038065112195303E-4,0.47353052088278885,-0.07998137163634217,-7.185107237664455E-5,0.6563296935513108,-1.1419226353669172,0.47353052088278885,0.47353052088278885,-1.9292178303915142,-2.6067131717080367,1.7861357380231186E-4,-9.572168403160566E-6,-1.7600698517622801,3.1864062954269014E-4,-1.3057156958949563,-1.459393695967706,-0.1285287339661189,-0.1285287339661189,-0.12164133679172683,0.018665881647878513,0.8926325573723658,0.43585099074671446,-0.1050257665099194,9.695435356950216E-4,0.4374257581610884,-2.1246743400433186E-4,-2.1246743400433186E-4,-0.06801975780563965,0.3080021408072952,5.794550440465037E-4,-0.4895006693557473,0.4374257581610884,1.3545943172200077,-0.36659276103040933,-2.1975154520851605,-8.075277797806079E-5,-9.755291222211018E-4,-8.740103628148636E-5,-0.051800249738499664,2.694258017345378E-4,1.4905810945778678E-4,-8.172937247415408E-4,-0.051800249738499664,-0.051800249738499664,-0.051800249738499664,-7.882896469604671E-4,-6.267840253151582E-4,-2.724931833554423,-2.724930427396255,2.640722475374988,0.038965576229947924,-4.437141514361369E-4,1.703197783296354,-1.3626038691265878,-0.022598630384251164,1.3429925640070093,1.3429925640070093,-7.545657054174799E-4,6.690083690750564E-4,-1.0973749141343667,-0.9580582836432516,9.31167371559411E-4,0.3337700079684598,3.713409493947856E-4,-8.153062411683999E-4,-3.689114062506764E-4,4.312650987226205E-4,1.2824702501529452,-3.9819863490362945E-5,-9.464917673735222E-6,0.22291565461538806,-1.7547618768775728,-0.9399906941820737,-0.013532994306231892,-0.13653634243650395,6.496354272898269E-4,4.034025253365301E-4,6.274476646376357E-4,-4.828352124438165E-4,-4.828352124438165E-4,0.21191903216138014,1.354609538920695,0.9931760744540222,-2.77325241658451E-5,0.4639090361054202,0.1331262912632842,-1.5814861054553632E-4,-6.322526942953285E-4,-5.142270250577376E-4,-0.03193259518293883,-0.03193259518293883,-0.20814714427288722,1.4073437887313864,-3.892204179398056E-4,-0.7854616799031388,1.8512096959532654E-4,-0.8707351196441535,-0.21358507531265455,-7.054192467267563E-4,0.6142186984350042,-2.80803995796549E-4,8.939245533059299E-4,-9.175412191079512E-4,-0.04401737617547059,-3.159993596334523E-4,-4.0216776733088854E-4,-4.0216776733088854E-4,-0.04401737617547059,-0.04401737617547059,-0.04401737617547059,-1.1380830449930844E-4,-5.264680089943786E-4,-0.5739390994802582,-0.5739390994802582,0.5670913571364273,-0.13042225971767296,3.4642005610499224E-4,0.3166808513436081,-0.40286886936228994,-0.07963189399783155,-1.011141068582308,-0.23551272920107721,3.252038665617111E-4,8.307687387929386E-4,5.539781891252091E-5,-1.4677062791876605,0.16752526736502457,0.38641296366312994,0.4587282728831705,-0.3541419388700143,7.114089200716438E-4,1.4911621277720831E-4,-9.378487644064785E-4,-5.883844022342155E-4,4.380074479220341E-4,9.207935006650727E-4,-4.0868862864444015E-4,-3.3264946556522295E-4,4.13954151319385E-4,-2.008830662019118E-4,-2.7303576502113653E-4,-4.066629686422165E-4,2.391697192987188E-4,-6.114228434630775E-4,-1.7177309839785265E-4,9.221891016443164E-4,1.3356594076593172E-4,3.300713730427129E-4,-3.2698697996778544E-4,-8.567391433990093E-4,-4.0703781421291417E-4,4.813570643683367E-4,-1.237001208313946,0.16822887184733787,-1.40671451077652E-6,4.377682652444354E-4,4.7739241189736657E-4,2.2107642170441245E-4,-0.27079489874913576,-5.019090073040294E-4,-1.2289844356072375,1.243162039885121,4.341420851019578E-4,1.3439634878729148,-7.940034272730398E-5,-4.029747256332014E-4,-4.040185376266867E-4,0.466117353040692,0.4882058327781914,-3.464306713289386E-5,2.0397507031559548E-4,0.466117353040692,0.466117353040692,0.466117353040692,-2.751638662425377E-4,-0.18093460497192188,-4.071225066730233E-4,-4.071225066730233E-4,-5.904450852816861E-4,-2.7894348014366878E-5,-5.707427326379802E-4,-5.707427326379802E-4,2.1160214709792138E-4,-3.7075991789728424E-4,-2.507573792736717E-4,5.792525503079659E-4,2.1160214709792138E-4,2.1160214709792138E-4,2.1160214709792138E-4,3.1068975094124154E-4,-8.123824059341207E-4,6.341306265703745E-5,-8.677205825528135E-4,-4.4759256385777744E-4,8.603952478421356E-4,2.7505823774911175E-4,-3.20022733820421E-4,8.957536255250337E-4,3.73711135511215E-4,-2.3026668931266903E-4,-1.0716407053265066E-4,6.974750462023148E-4,-0.18417200108750548,-0.7265688122559427,-0.03178392395468299,-0.3509241530144217,-0.0799267888818973,3.2486007031542763,0.6086989086202552,-3.082256682864552E-4,0.02899266549181417,-0.8529892376960483,5.522692680001379E-4,0.6912923169916482,-8.91301909982304E-4,-8.013770777913742E-4,-1.3257860860582617E-4,0.1683702992400784,-2.177207791790377,5.217705897948371,1.5152667309673182,1.7571952261910635,1.0271628891354796,-2.701477687205654E-4,-9.218498552264979E-4,0.4892703295465093,0.636698281846912,0.30878272208851015,1.210431851526125,-5.331985442741855E-4,-5.331985442741855E-4,1.0293021519327914,-6.708096703805114E-4,-6.708096703805114E-4,-1.1745354094855696,4.936190598034162E-4,4.936190598034162E-4,-0.2942177432666494,-4.535746090739573E-4,-4.535746090739573E-4,0.69050565283164,0.1187580563284375,-0.09436303766877577,-3.442885355463203E-4,-3.442885355463203E-4,-0.6774614081533089,0.9986065961082391,-8.314821309609155E-4,-9.060805688283771E-4,-9.060805688283771E-4,0.6087811679825689,0.10698165799000435,-0.8870819965675174,-0.211499558351855,-0.40996763219426147,0.040856224569791044,1.9839192573086937E-4,-0.6404866003431949,-0.6404866003431949,-0.6404866003431949,0.4362037210914289,0.7744910661018829,-0.1690760081256023,1.6397384358158998E-4,-2.110120379640398,1.6391969199497163,-0.060861003868554975,-1.9056212535239027E-4,-4.6827580098014374E-4,-4.6827580098014374E-4,9.062378956945481E-4,-4.52787099799509E-4,-4.9812193912560695E-5,4.129006564137282E-4,-0.04254200511576329,8.146186960237211E-4,8.146186960237211E-4,-6.51748513294789E-4,9.031476677918559E-4,-0.023603975459210925,-0.023603975459210925,-0.0721881841966467,0.6575544756190173,0.03705230751968258,-0.09078019999441063,-0.09071684956202161,0.5549178534679777,-4.392791790855687,-0.3393721934662337,0.719548630877074,0.2110945912007481,0.24510591694523529,8.771627674240097E-4,-1.239291463896522E-4,7.289718690439871E-4,0.9191938522175945,-8.443179793364457E-4,0.3025264243626285,-1.0499590156120715,-0.9767312689982627,-7.565707976673562E-4,0.1565828347810287,0.13486803291541818,0.09596048680592308,-0.08484156839513805,-0.08484156839513805,1.2317049591163751,0.44323706008915525,0.09915701203482753,-0.22923508684574193,-0.35765402716038647,-0.35765402716038647,0.7004491888171671,0.28648583880278145,0.8262062025807172,0.27514932848031526,0.2814337576673097,2.307449923995054E-4,-1.0278367045956203,0.5551609136477705,-0.21395929010287515,-0.1950966209098498,3.019421485049858E-4,-0.09042165566498304,0.42776719276358777,0.29492225105384856,-3.0194214850514886E-4,0.8876819253943017,3.0519359432363137E-4,-0.831934814830564,-0.020208707938185588,-0.24034482977321103,-0.07623304609668183,0.25614021663092623,9.18722913110832E-4,0.9422426354698025,0.3870377458760444,-0.4264358161431835,-0.005674515603835916,6.752543886212845E-4,-9.070853801695216E-4,-9.070853801695216E-4,7.402134850427607E-5,3.0091790062253135E-4,-2.434864530655059,4.3775141487616544E-4,0.9176832218451905,0.48550482870962497,0.41581378091585314,-0.2543144646364192,-0.07333564817656252,-0.17388576323764007,-0.09454286557981577,-0.006484558306657158,0.8065568352845641,-2.3517759016072784E-4,-8.012774931086212E-4,-0.06912568676930969,0.5243606386462318,0.5735810503117478,0.1840420562117819,1.7037849759897732E-4,-4.2748381645512203E-4,0.31337964751322733,2.6551654865371874E-5,1.0691420930712157,-0.17888854064881302,8.726243451932815E-4,0.5513669651877009,0.1815115399013868,-0.38071961420373573,2.5092967566218982E-5,0.07101693385435146,0.3829956223852776,0.510670247402192,0.7847890243878992,0.25652868724877037,3.784783545649167E-4,5.166562511246976E-4,2.9141070537018997E-4,0.4097726089445787,-0.07519651436705505,-0.6516274424150027,-0.2624333400598698,0.20654872676842329,5.746203895723927E-4,-0.1828424522872199,0.7367707867364304,-0.25852888150011083,-0.2625327357886881,-0.7505741047476124,1.4704098491748348E-4,1.4704098491748348E-4,0.08068853808425115,5.926558455130833E-4,5.926558455130833E-4,1.4807465703217844E-4,-1.2562571515788812,4.208912515084518E-4,-0.5753313193244901,0.08068853808425115,0.08068853808425115,-0.05093613376559443,-3.390150922261731,9.091038085973109E-4,1.0893495777089036E-4,-0.12423362146926736,-1.9132543180207926,-0.3060601513647484,-0.3060601513647484,-0.8755974867294464,7.496782254791535E-4,-3.6488398597900426E-4,2.0200312124246027,-5.314751361875807E-4,-7.19224549055467E-5,-0.11570471841717242,-1.4519952950539547,-8.999139419226692E-6,0.3374186227125509,0.22797346449434602,-4.834759754547319E-4,2.0733631942720825,0.3109147882630083,1.0417893111674814,0.1166992314473031,-5.801567012877006E-4,1.2242992568876242E-4,7.784451343606448E-4,-9.523455793409389E-4,-9.523455793409389E-4,5.17435285295848E-4,8.364838305885372E-4,3.6824393154233706E-4,3.6824393154233706E-4,5.17435285295848E-4,5.17435285295848E-4,5.17435285295848E-4,7.884385726431241E-4,-7.954167161884425E-4,7.124369865979968E-4,1.2807772109886173,0.5588057618577098,0.21835658221748677,-1.7965095321622317,9.749273018329258E-4,9.749273018329258E-4,1.369910732115633,0.3424833375761027,-0.03380927678357636,0.056599636652888405,-0.2548156420388857,-7.209463252417266E-4,-0.21001022600328156,-1.167802225651585E-4,0.9630838758591772,3.268665832986131,1.331550376538676,-0.1551175164646153,-0.1551175164646153,-5.12624938579641E-4,-8.696107730393668E-4,3.416642611851713,2.021160638520607,3.3192368326344737E-4,0.4790339454316093,2.8862698368122537,-0.7568154524397016,8.246464653759358E-4,8.246464653759358E-4,1.4358173728373498E-5,0.11987997696161817,2.806099961824353E-4,-5.81335736601747E-4,-5.996734845302128E-4,7.135539734595181E-4,6.232549728975771E-4,2.617660635753879E-4,-0.3283353606055938,-0.3485856524841319,-0.2972355241057837,0.03262442804289488,1.514759532326583,0.5053571420416751,4.893386728634704E-4,4.893386728634704E-4,1.514759532326583,1.002591318644864,1.002591318644864,3.093588299661368,3.3704147632057557,-2.3516781022884798E-4,2.4651290728644145E-4,-7.008022252608572E-4,1.088266853811843,-3.312518837179743E-4,-0.6353734651346765,-1.3958518082798129E-5,-0.1256330713528146,4.003117242981478E-4,0.04383180306164575,-0.552143122121222,-9.147637821160042E-4,-9.147637821160042E-4,-0.7914410585663971,-0.7914410585663971,-0.7914410585663971,-0.013220486156907242,0.15094481932822718,0.3608100292208434,-3.18193111104427E-4,-3.2160487248205163E-4,-4.163629296851118E-4,0.23349511603490647,4.09949077438817E-4,-4.161799937065294E-5,4.820549422167603E-4,-3.207941701754153E-4,-3.207941701754153E-4,8.81445766125862E-4,4.935089595875231E-4,-4.630736346382467E-5,-0.5752265478114349,1.5781466312431587,-9.315536752464134E-4,-3.3586260620571814E-4,0.09621868251902617,0.09621868251902617,2.2034335841815302,0.8245406162780231,-0.32431134347540813,0.17752545466704822,-3.2898146557289176E-4,0.875123024193351,-0.119738442734434,8.923573118124715E-4,2.446257536494107E-4,-0.4170130886242134,1.7389989478353994E-4,5.21560271739151E-4,5.21560271739151E-4,-0.22050753233462,-7.290229481425256E-6,-0.08094269769611692,1.1900421214445372E-4,-5.333740184183452E-4,-5.177054363756668E-4,0.3137502294906865,-4.1990739963861123E-4,-4.809888445722755E-4,0.41903459113429276,-6.030410013967459E-4,-0.07766975477628733,-6.929751930499652E-4,-0.40416136999799684,0.3489127651147554,-0.01958366310208815,1.0554640244182203,0.2579422126379344,-2.0876390230785283E-4,0.03761032153451183,5.468364432198352E-4,-1.9938774955614662E-4,-0.316420143593886,6.293696639373975E-5,1.1166909514680288,0.40651689224274334,0.5233760804064582,0.7867151012618703,-2.335249509220474E-4,4.479375066529708E-4,6.33202395927495E-4,-7.425428700341353E-4,-7.377723700999528E-4,-0.0036682687807543107,3.3547347607401135E-4,1.9418403508425497E-4,0.646389491245105,0.4275010118167821,0.31676699195830604,-0.40673655185145874,1.4087307701975613,0.37106816803545284,-0.2804179130467026,-2.982805919612696E-4,-0.026115013797741286,6.121556196789354E-6,-0.30482031172778346,-0.30482031172778346,2.5554263849715693E-4,-3.3305402767203366E-4,0.16245988505112394,-0.041774932741597874,0.3675491183956782,0.9967808019346424,0.42354564858098404,-0.6508471096736024,-1.1324513807210517E-4,1.434179749052883E-4,-0.17829370687499158,-0.17829370687499158,7.072790843947623E-5,-0.3180168594089537,-2.2470986784169678,-5.870554000201498E-4,-1.0527534760637198,0.8452090696959359,-3.0330504587378624E-4,4.817711574781852E-4,-0.41002959994456945,0.44992037454746553,1.597527425771638E-4,6.355933836717039E-4,-0.029377959816501938,0.12712596424456493,-6.399565110322543E-4,2.1545323371382629E-4,6.387295686046304E-4,0.2518870782044648,-1.1546837381131076E-4,-3.4497952699329105E-4,-0.5410158878367772,-0.43655054863743603,-7.969120266600166E-4,-1.0345531603709007E-4,4.0247088786936314E-4,-8.618982608913384E-4,-4.5150266723595735E-4,-0.1831825176773809,-0.009644681519929275,7.655281601298453E-4,7.655281601298453E-4,-0.1831825176773809,-0.1831825176773809,-0.1831825176773809,7.779284289585462E-4,9.984132390832945E-5,2.405326290209225E-4,6.30586942151854E-5,2.2877203063582756E-4,-3.846374409983862E-4,-2.588576517563408,7.253721467956715E-4,5.408014111363249E-4,3.774979739397551E-4,8.718367526404972E-4,7.294787746440708E-4,-0.8853481939337821,-9.387812101502933E-4,0.8699447141655003,-2.6534375432941504,0.4918926667805902,0.03469580731940558,-9.307805417145638E-4,-0.02376579457468747,-0.5056579594862828,6.972063222039631E-4,0.3600790621143835,0.09960529993397263,8.257233456546025E-4,4.439680849077052E-4,0.3021302607663008,-0.4191781018337921,-0.05153105617935532,0.11525567746157363,-4.5609027487484536E-4,0.44748539689140254,2.2635458761775302,0.09540826770748857,0.6169789791855077,1.2313253004183224,-1.1087548690200024E-4,-0.8602785875676204,-0.5811812164169153,0.46827676477719204,-1.2572223076355642,3.239409977511347E-4,-8.956088846871145E-4,7.163622047841236E-5,-7.67756445287475E-5,7.06871800180731E-4,-0.008490210543228563,3.7178692260375645E-4,-0.12848309520082135,7.338776976139485E-4,2.1492880562950436,0.057665669828785904,-0.5873166826439405,3.714090417588662E-4,-0.3072081010912347,-3.5334866447585863E-4,-3.5334866447585863E-4,-0.21001233478169526,-1.225851323732375E-4,-4.93970834703776E-5,-1.225851323732375E-4,0.10957243296788745,4.4146239991432637E-4,6.232365498018335E-5,-2.8106964704374508E-5,-2.895394321159188E-4,1.3861316277382686E-4,2.5413476835965394E-4,-4.102268192118688E-5,-0.07487243647270778,1.5340725272750657,0.006294989659104697,0.5204285641693206,-2.3989263966171706,-0.9239548369551238,1.6833009894508537E-4,-3.214215647144242E-4,0.31367298652202563,-8.819782369761597E-4,-6.403074647684469E-4,4.853997299178914E-5,-8.770300571535794E-4,-4.828209386015341E-4,1.3075975626636663E-4,-4.149846245995086E-4,-0.3343119931027499,-0.3329763861086502,3.8707742449201885,0.3213261762001413,1.6909743538905944E-4,-1.644374831565119E-5,-1.4132775252417693,1.3880246846577293,-0.04694562818609434,-0.14615757628404175,-0.08843554330241306,3.639108359250688E-4,-0.057445224448937376,-0.43474013247691773,-0.6102750077023466,0.3958699550731159,0.1776358042854836,-6.242601242344767E-4,7.332080401556927E-4,-1.5392495948372722E-4,-4.3347869973361485E-4,-0.7322261887011241,-0.17659735956028472,-0.5017398125659283,0.14812280178984671,0.15648506258216416,3.207743865926155,0.16058901177534624,0.16077544765164908,0.01062538597871814,8.403080132598253E-4,8.278863549675177E-5,2.561539226195854E-4,0.4122165766726903,2.0445274916137425E-4,-1.4971744125444363E-4,-1.221926244469641E-4,1.6963162260751887E-4,7.898720892706573E-5,-0.05302818593020789,-4.7819154334036813E-4,-4.7394520863375895E-4,9.391613346925822E-4,-0.02698163670386832,0.3094154911497188,0.6626096261382011,-0.014611939385553531,5.853490477070694E-4,5.012364079206579E-4,4.3339788206778293E-4,-4.374363598343363E-4,0.12079957841891234,-0.10970827959857875,-0.1474485279817373,-0.39367355390593867,0.04509391684790746,0.22126466131957065,2.7249348756557955E-4,-7.590305404250701E-5,7.997495750378916E-4,1.8298545805027484,-0.03471882060936624,2.599971911428514E-4,-8.304251794916916E-4,-4.761529122918886E-4,-3.503419302371786E-4,-2.7536597885419872E-5,-3.159048745575121E-4,-3.159048745575121E-4,-8.316364213198978E-4,4.702737105582045E-4,-3.0573056773296366E-4,-7.146281870152036E-4,2.0689633273843513,0.08900865075365447,-0.5235776474553978,-9.738156977864751E-4,1.4050776471633626E-4,2.6018937563679595E-4,-8.692610538039344E-4,-6.610395782693946E-4,0.5716292313239906,1.6823510773200786E-4,-1.6424452961849254,4.793734814529996E-4,1.6510312197143815E-4,-4.655349030667846E-4,-0.06722446635757741,7.237618310873067E-4,9.167504112210379E-4,5.9466088611783915E-5,0.6823237046629212,-0.624461315301649,7.375631144975465E-4,-7.227983432347769E-4,-2.453422243236415,0.19228920711209482,1.5225116639387863,0.24040621391287176,6.14776817132246E-5,7.39179349059961E-4,-0.7826854675087537,-1.5953176494818767E-4,-9.498380383168727E-4,-1.0408747937381722E-4,-9.225232717984242E-4,-0.18428617944896641,-3.691948447009137E-4,-4.2757414174135564E-4,-1.4969796003827085,-2.3776748823043774,7.776143320734946E-4,-9.136310273778938E-4,0.05345170478216082,-0.009679394463685303,0.11469539554929119,0.11469539554929119,-8.48526007110679E-4,0.3968478731831229,0.4511303173185315,-4.237082565468355E-4,0.25118436105312686,-0.481871977160661,7.184331161824925E-5,6.176010772483654E-4,-5.616674387738869E-5,4.936889553650405E-4,-9.359906266917907E-5,-1.840501325076631E-4,0.10127164726612584,-4.1161585249522117E-4,-8.159088738479743E-4,1.2932029163792045E-5,0.10127164726612584,0.10127164726612584,0.10127164726612584,-9.1012805513139E-4,-0.14599762676650377,-0.20619506483739822,-0.3834571932929158,6.670515151701286E-4,5.617197318682537E-4,-3.435867700827748E-4,2.969188464151209E-4,7.865094314312545E-4,7.865094314312545E-4,-7.104166765779388E-4,1.1331119396658456,-8.902363751765539E-4,2.0055198449813545E-4,-4.063542562522649E-5,8.725241689912777E-4,7.041835398665297E-5,-2.217179541458298E-4,7.164834047101011E-5,-2.2290463205861932E-4,7.272069286175017E-4,-9.467568604611663E-4,0.31331117306828454,-1.4612993962854256E-4,0.3277466088898667,6.883997253351411E-4,1.5450618629326565E-4,0.32924371203240504,-1.0387622210043519E-5,-2.0416725666533026E-4,3.0518552185008E-4,3.0518552185008E-4,0.32785961368744293,-2.588109830233877E-4,-7.692660995518516E-4,5.1020843998828E-5,2.6506918391229093E-5,0.44663785595231564,-7.732516663137212E-4,-3.467157837803124E-5,0.425649296336684,0.2851823967959679,-6.135536111060909E-4,2.2969399776624506E-4,-4.6542337429545007E-4,-4.3908256916080804E-5,-0.12604479748126785,0.7166544927189421,-5.902021299446587E-4,8.498520391417566E-4,-0.23277681360679942,-6.054579807091798E-4,-7.408500970069409E-4,-4.5360663093918854E-4,-7.9073412804741E-4,1.6991860075495178E-4,5.858285488258296E-4,0.14778949420556828,6.707064252714556E-4,-5.961894195516376E-4,2.5201789638639025,0.058600205480450085,-1.708169636086118E-4,-2.9814233099780343E-4,-0.2980369271664993,-0.2461526649451915,1.4613281303075838E-4,7.092741687114022E-4,-1.7408596690753194E-4,-6.846346083625846E-4,0.6512093214491256,4.905171942064147E-4,1.9720353897916627E-4,4.0250813592990426E-4,-0.49389888100845725,0.08610316105481088,1.0156084090987465,-0.2805970993663475,1.4253728862328291E-4,-1.8758979680888726E-5,0.7284232263664007,-0.38851790414059784,-0.266759161918885,-6.262693495374984E-4,0.17589504399778488,1.3855315896924165,0.2608735876823959,-2.0542230889057525E-4,-2.855602794174317E-4,7.614027808974952E-4,7.614027808974952E-4,-2.246480423690649E-6,4.78727201985894E-4,-5.687623842208836E-5,-3.800181955026957E-4,-3.312517605444205E-4,-2.31307151027265,-0.6190865421353782,0.4926874062559594,6.948285992689296E-4,1.11478029801771E-4,-7.582004169937257E-5,-7.582004169937257E-5,5.142452074602263E-4,3.9428315669871785E-4,2.9954754554137927E-5,2.9954754554137927E-5,5.142452074602263E-4,5.142452074602263E-4,5.142452074602263E-4,-1.58514986489232E-4,-1.0224272110509784E-4,3.29448769850673E-4,8.937755200597777E-4,3.462726462264104E-4,1.781146845746558E-4,-1.5654722678081336,-1.4199435961903843E-4,4.5557561467268553E-4,2.0102839680647506E-4,7.180741782216137E-4,-1.2080035479944595,-1.4641538448989488,8.972983487272649E-4,0.2322952143681747,-1.517539720059582,0.5329388584835445,1.4587646245102612E-4,5.208635438210495E-5,-3.658421714538237E-4,-3.658421714538237E-4,-9.671364995956669E-4,-0.6981245852528303,0.2917707564461305,-3.390826809170726E-4,-5.660585387075572E-5,-5.660585387075572E-5,-0.04339143448118363,-0.004452681444084804,2.3179658421589597E-4,0.33559251562152725,-7.51473338757297E-4,-5.684000200859813E-4,7.845010369829327E-4,5.252985955922452E-6,6.024705070353119E-4,6.190815801624461E-4,5.686014077240728E-4,-6.0555424661606775E-5,6.953982320316973E-4,-5.242117547417464E-4,-0.27833100385315024,0.7112293333758136,-0.16092721344859706,-4.6355727738325685E-4,6.093192337183551E-4,-9.702279665697725E-4,-8.872078166022353E-4,-8.148898135647807E-5,-1.733306600325981E-4,-8.208768512329242E-4,9.960268651049685E-4,-8.582655541526769E-4,-6.014670427828984E-4,-0.653222896558766,0.06849140050254872,-2.2737723316316322E-4,-2.2892033079471158E-4,-0.45412542861632954,-0.07033718992473881,-6.62872175568365E-4,0.22227526019571725,-1.2000539361643314E-5,5.8652891986956594E-5,0.027700479198031168,-2.7537903686712596E-4,0.3844218468653456,4.492624048430486E-4,3.523943027351911E-4,-0.28401573143823855,1.0272766335233594,0.8380319718801748,0.7072296952187036,-1.7846236300744355E-4,4.230955040124824E-4,-0.003605706326589998,0.14015578954470795,-5.124561005909072E-4,-9.037332227294238E-4,-4.7290854891660766E-4,-0.39214361693858313,-0.24354395923273567,-2.4941655770295784E-4,-5.203016629141085E-4,1.4792759541374517E-4,3.690599527457596E-4,-5.861049516567708E-5,-5.549655318405701E-4,-8.528306070712063E-4,1.2873924818524352E-4,2.618622049360377E-4,-2.4810538845721126E-4,0.266746231311061,0.26884965850603215,-2.6108373133598847E-4,-3.2892476538790754E-4,4.561012543620684E-4,-1.2995171413475296E-4,-1.7159439023,0.0940479812309596,-0.036754791049854046,-0.39617193635111403,0.06845137931384976,-8.468371680938271E-4,-1.6475678470816244E-4,6.611756368764836E-4,-2.8697818057422724E-4,4.2489848991892503E-4,0.21844812828734847,-0.3391648824314976,0.5504456618040537,0.08975781011190759,0.4158350879040007,-1.5854452743765906,-0.7089517950221143,0.41589953280643505,-6.188509518324464E-4,-7.054690726809823E-4,2.854800635631199E-4,-4.674112835596152E-4,-5.352173376527744E-5,-1.623392691429437,-6.847744065428089E-4,-8.355930222153345E-4,3.3129632350373576E-4,0.5456198285303105,4.1653530908235346E-5,0.04004124553907704,0.6515109276528098,-3.7998634710996373E-4,0.33535496895426264,-7.381428623166365E-5,1.7376059295546665E-4,-0.09105103368721496,5.888435779423198E-4,5.888435779423198E-4,2.1533039970697988E-4,9.505693448962359E-4,7.590153925057716E-4,-3.1590421764471507E-4,0.4796181845792861,0.6023920607335154,-0.10602429450082285,0.09610647668440869,-0.035260835831553136,7.339900314585971E-4,3.42835373015396E-4,1.2835439163360647,-0.31206378850422695,5.981645385839292E-4,0.04524156538586476,-0.13741239606785413,-2.067993615720237E-4,4.608929803133163E-4,4.608929803133163E-4,-5.757425171217458E-4,-0.08144946220029801,0.4394969248731384,0.26802007601445543,0.26802007601445543,-0.40601023025119054,-9.39023952201156E-4,-9.39023952201156E-4,2.4950900921213754E-5,7.040351483549645E-4,7.040351483549645E-4,-1.2974509960167696E-4,1.7242654122190653E-5,4.27844217960064E-4,4.27844217960064E-4,-1.0762803385765487E-4,0.2962628766994676,0.2962628766994676,0.1955154245566169,0.5334028416082475,-0.26081402763364986,-8.100461537865704E-4,-8.100461537865704E-4,-0.19171131272154274,0.677809204371608,0.29971610973999235,-0.06184279471890241,-0.06184279471890241,-0.27548919273708394,-0.11968569438000227,-0.007478801667000191,-0.6362952961203427,-1.8624585717934804E-4,0.1287372402010027,0.1287372402010027,0.3054082249696998,-0.9981127568677701,1.1300764515610062,-0.21013975896973092,0.08393515858606396,-0.08564569059157115,0.22277110949128648,0.22277110949128648,0.31082902333023876,-0.07381805739110857,-0.008901056382555148,-1.726907096690107,0.4023167358975008,1.0957500366891226,0.29774605794414544,0.9484135632404007,-0.16585170235873908,-8.324759335505947E-5,-8.324759335505947E-5,4.345753641044417E-4,-0.30860406996924067,2.3469705977785787E-4,1.498846266765405,1.2365475592688107,1.2365475592688107,3.159214040961603,-2.3828362955625668E-4,4.238585591651787E-4,-6.350444330184323E-4,0.5543148423289108,-2.3168517215404987,-0.7825834235599162,3.3512073574009987E-4,-8.179853812601746E-4,-0.9222042180539693,-0.012775280557044699,-0.2743034475548597,0.5171855223278363,0.18607843670016996,0.7508246842981692,-3.553394293945171E-4,-8.599512685126639E-4,1.2719847358063697E-4,-1.20823153094201,-1.3260324304546527,0.16894423670424194,0.09014558247168114,2.443190427076997,2.055650323161487,0.2883878180059619,-0.10746926904012048,-0.035467339974570286,-0.343672956055825,0.5000214044252407,2.035301295494526,1.358072508580886,0.271678244755,0.05158844395275208,-0.30110577120592125,1.3265337010250564,0.5475751354020487,0.33215372318390235,-1.0431643432262758,1.3709044812433377,1.5602700842347643,-0.042602763504167515,0.68268399349868,1.3709044812433377,1.1202466240373425,1.1202466240373425,5.191547338236815,2.195647925445903,7.596396267338047E-4,-1.0143698345170776E-4,-0.04171146998860244,-0.2455825865159304,0.09805351606983419,-2.3062894555577146E-4,0.09206858977336069,-6.01478342014168E-6,-1.5738746675129294,-0.08012132505809072,2.5350731265026905E-4,-0.31675243635223765,-0.733468417277079,-1.4240071457569772,1.3695435122321091,8.460248952420335E-4,3.4984986207693355E-4,-0.6328062325709213,0.26231836391313634,-0.11007828639266809,-0.13301391413055233,6.080541776502462E-4,-4.7627917600307054E-4,8.30989297001981E-4,-2.7754986620684248,-0.2098628013136995,0.41270271268397174,-0.7856134969295101,0.3229561206317491,-0.5745289618752638,-0.021146227946053135,0.9661187088266802,-0.31573677921181176,0.14675781543715793,-6.036644971056408E-4,3.1220595823296853E-4,3.1220595823296853E-4,-9.364732473830475E-4,-3.1490210891871646,8.673700785346893E-4,-4.037577940796471E-4,-4.037577940796471E-4,-1.002088964411326,-2.9500065088811686E-4,1.988470431375165E-4,0.36223421075911916,0.5586271538630327,0.982382085578887,5.56583290049142E-4,5.057922899296525E-6,9.056364680063284E-4,-0.12388117164926785,-0.0016864385638069835,-4.0917086404031926E-4,-9.256198937593025E-4,-0.12388117164926785,-0.12388117164926785,-0.12388117164926785,5.524539494717912E-5,-6.544056129368034E-4,-0.24802335814684628,2.8424056611004345E-4,-1.4847514337946945E-4,0.7777740069521043,-6.524200329453065E-4,-6.5638232260861E-4,3.91710406077452E-6,-2.4332560370374473E-4,-2.27167530281936E-4,7.721039417779242E-4,2.500665235059748,-0.11352038523166633,-0.3565228212754543,3.403897544918073E-4,-1.4453503848777167E-4,-3.976009132843311E-4,0.0869236457911938,-0.15222053463854726,-0.4108022681203659,-7.274833066700686E-4,1.1785618695727524,1.1785618695727524,3.3428042397086952,-0.01072614837718344,0.5405893299212808,-0.3918097984369541,-0.0641543166023377,-8.119553112923701E-4,-5.47810830805669E-4,9.16969786755932E-5,6.609551325247572E-4,1.9614517069478957E-4,-5.741246163109109E-4,-6.675147902705135E-4,4.7856491656892287E-4,0.3007331362466298,-0.11673570676749619,-0.11673570676749619,-0.00384834593926516,-0.28695644126821024,-0.7659415379418826,0.6076098557212157,8.389512364436367,0.024274680729175,0.5459995352012573,-8.026194598607898E-4,7.753127049064425E-4,-3.12380598381332E-4,-4.893037807813603E-4,-0.8983167133393636,-0.9047935640126449,-0.9952856304516077,0.20516916471406402,-0.36195072518347154,1.0411949713506397,1.1762002231837008,-0.019584176475248394,0.013299837975975871,-0.09674364088149488,-2.5952307343977306,-0.20889594698348163,6.596118896240839E-4,0.5464909983985313,2.119768630268183,8.571112514396632E-4,4.974945605963122E-5,-0.28204198263535063,8.733581984346413E-4,2.473292140804258E-4,0.024644725966950148,7.452817841555055E-4,-0.21041935399598527,-2.179664394207227,-6.68020898048551E-4,0.23655708965214142,-1.1275990099185982E-4,-2.8408203899588265E-4,-0.6925530348163718,-6.395609018650297E-4,-0.06945696855759693,-0.8112663565919581,0.003761564322415546,-0.8459300345610633,-0.4369328767556625,0.1326098073559175,-0.0880451602694243,-1.3533904051157888,8.070286477546531E-4,2.331751651897941E-5,-5.220240592452693E-4,0.3882912927644215,0.1397008642491019,-0.14408794590247445,-7.697708006627251E-4,0.1487120418691378,-6.808332680882552E-4,-5.394987500114415E-4,-1.2135620617380396,-0.2744318186865311,-7.708183968616587E-5,-9.844983038527402E-4,8.015051487403552E-4,7.999724767624086E-4,0.09380023220421975,9.895971161400915E-4,9.895971161400915E-4,-0.6439961547653168,-2.4116193940495328E-4,6.853659805377498E-4,-1.6093549815190782E-4,-1.6093549815190782E-4,0.2176068589486823,0.41566459362388136,-9.996558701890397E-4,-5.548045000529962E-4,-5.548045000529962E-4,-3.732288336153412E-4,6.650597988655028E-4,9.650689706655817E-4,-4.871910388860888E-4,6.211125127969813E-4,0.5250672995321461,0.5250672995321461,0.5464420710041478,2.402770720033698E-4,-0.05500163600098676,1.2682848696459977E-4,1.2682848696459977E-4,4.935989645896944E-4,-0.5816585051663943,0.2158259063779731,-0.13579575607561414,-0.7407777514084503,0.03930968317527596,-0.7032397580931103,1.0923943377836942,7.432505128186799E-4,-4.491969260170909E-5,-4.491969260170909E-5,-0.43812715106788075,-4.512879216882269E-5,-6.428448237383684E-4,-2.6780512997362635E-4,0.08100293660034906,0.13495194714348827,-1.3919442022283697,-1.3919442022283697,-0.12575384300472392,-9.304859469111513E-4,-0.1494802585913596,-0.9794341425995745,-0.3803578175330823,0.011317776892596753,-5.14584783463626E-4,-0.5093124817611425,-0.5093124817611425,-0.2592943763895236,1.3150197026565538E-4,-0.9946292621940123,0.4752596715287064,0.4093024469085922,0.5159838166815583,-0.043126206866383715,-0.5456527211434088,1.127333948462593,7.847386129572823E-5,3.976804684072612E-4,6.3238841681592E-4,-1.0412438412300102,-0.03850856060710675,-4.4616816440524575E-4,-7.28095229659794E-5,1.5123934113241112E-4,1.5123934113241112E-4,0.03748851950049517,2.676766213214937E-4,1.6544237189495214E-4,0.040101606736455256,-1.5295636661478897E-4,-9.181143201821672E-4,4.7467714605813646E-4,-1.115227403067336,-1.115227403067336,-0.7113971569605669,2.1579556301236152E-4,0.03592422362571183,0.18553883440597754,-6.315434354556248E-4,7.348038275363807E-4,-0.07826411270393359,-0.10347147236459073,-0.008620260212495439,-0.03138731264291343,-1.1089703784889338,0.28393213701030445,-0.18146430555601248,-0.04209129972384658,-0.021804668710523927,1.3347745421602673,-0.04797336348872761,-0.3691513096342971,-0.0785642248263007,8.782248050836808E-4,-0.9989211994741445,5.273794728669276E-4,-0.6600655855043481,1.4873096473334347E-4,1.4873096473334347E-4,-0.5898592391521801,-0.3158507420675952,-0.7623448424071234,-0.6761302696623268,8.817831808260637E-4,-0.8310233716461582,3.942970842658281E-4,0.18636469199130043,3.3367939388477216E-4,-6.231974441471078E-6,-5.91577581497117E-4,0.2601944573091934,0.2601944573091934,-0.1467382335899684,0.43625332263246214,0.527599998640082,-4.96811319930237E-4,-0.3937384595544832,-0.5977883344633015,-7.854470949364757E-4,0.8092947407358148,-1.8143179486249084,-3.202161270540217E-7,-2.878124677276356E-4,-6.33510219135721E-5,0.23568446303921523,1.5693484908339632,-3.990276905121873E-4,-0.6703809262159297,9.819131237154433E-4,0.003028359081061228,1.1212308459812568,-1.1484845157468413,1.80554233894886,0.9353515879029322,3.0376667473138346,4.803429591582197,-4.16529428287655E-4,-6.436248528972932E-4,-0.3620682144293461,1.715897887569664E-4,-4.056363411767815E-4,5.56640594725274E-4,2.6242617885319046E-4,-3.1343083153178436E-6,-1.7048715252889076E-4,-0.9527156130029348,-0.9527156130029348,-0.5000530137216763,-5.434569737324288E-4,0.03406999359651802,-0.36112260792460693,2.813940001131256,-1.6583570789840913,1.8279137021831138E-4,0.006420755751069696,0.11249349763465694,-1.4329746756684355E-4,0.21847677463755927,0.21847677463755927,1.2512338020700442,-1.1501744942726102,0.14997869239110082,0.6604367703986733,0.27827293820766746,0.27827293820766746,-0.0840582880256325,1.4881329772560463,0.16193713073591226,-0.3660042203202005,-1.2571920854408505,3.3690726377137006,-0.14116719964537228,0.276668492107078,-8.096463346845403E-4,0.2703605008935551,-0.0784173133195035,-0.06709540883918737,-3.97877268881559E-4,-2.1740209602112638E-4,8.740039844913253E-4,9.206657690421828E-4,0.4882854993313054,1.002111895158015E-4,1.1354166081837906,-0.6209979160333762,-6.575331470619676E-4,-1.0646132789469856E-4,-1.0646132789469856E-4,0.9857140341192477,-0.5850595264045072,8.756074981353828E-5,0.444618426636788,-0.4337720724684966,0.8142176884074721,0.8142176884074721,0.06691870268677132,-0.50623227984049,0.14197696897256645,0.7922988837521806,-0.005480031473510571,-2.589185949800673E-4,-2.589185949800673E-4,2.0339963514414815E-5,0.038465408031521826,-2.589185949800673E-4,-7.81960845550567E-4,5.346080354127381E-4,-6.705774649800894E-4,-6.705774649800894E-4,-0.11946044251794544,0.6606935624002861,-6.705774649800894E-4,0.7301603862882936,0.2315369081889887,0.9604992626863089,0.6140615999460364,-0.16235769080730983,3.153474942851098E-4,0.14118025262720277,-3.210861268999652E-4,-0.11396459256014303,-0.11396459256014303,-0.18652192191232997,1.0601427486087687,-7.60915672025627E-4,-0.5523473820806609,-9.629433853964281E-4,0.035237137045981096,7.31827623192369E-5,7.31827623192369E-5,1.4151712007387952E-5,0.46692021018757757,-2.3010722296168602E-4,7.326834500153364E-4,0.1478445529474315,0.1478445529474315,0.25661783216639605,2.742989499927665E-4,-0.005728168499071052,5.8041186696331675E-5,-7.33741954818341E-4,-0.041909316706685296,-0.5512386832520427,0.2205383992416406,0.490942015189586,0.13302001874776864,-0.05181962926193704,0.14305851802783726,-0.10500970519434893,0.13302001874776864,0.13302001874776864,0.13302001874776864,-0.06520875915477395,-1.8237333017264021,4.890739074885188E-4,3.773859278004858E-4,1.721939039611843E-4,-3.26041323218995E-4,-0.04614613603671435,1.251989792925516,0.24099427431790643,-3.34713051161697E-4,-0.025828768521364516,-5.775617891350859E-4,-2.333798801305107E-4,-3.7393264419167916E-4,-7.271259857037104E-4,-8.762217482244576E-4,6.85045791275529E-4,0.58398375998383,-0.3184051695376432,5.4755865473311155E-6,-0.17679215403512713,-4.882564542419119E-4,0.569803026036094,1.5890288235145016,-0.3605040240892817,-0.3920860667474751,-0.32462880307894504,-0.07158373698657354,0.1791523694638395,-6.746052910900453E-5,8.443863776692808E-4,3.841128921020763E-4,0.45567491357331824,-2.956085254711069E-5,-0.5927534481732646,-7.294675669118639E-4,0.16932419503700188,-3.2384716525695866E-5,-2.6409697863529575E-5,-0.36874717404341334,-3.093711387785218E-4,5.699138528713924E-4,2.1588732653817215E-4,2.1588732653817215E-4,0.3061460920032308,-0.04844894185982497,-1.0507433865674981E-4,1.6176530885108518,0.169680106038154,0.05743777808534746,2.344404357783271,2.55013017561938E-4,0.36402042762249565,0.36053905422767946,-1.480291085551391E-4,-0.45282783506868535,4.517846323572271E-4,4.517846323572271E-4,-1.058067586361313E-4,0.34623465278541304,2.62728723529386E-4,-0.11372933232958454,-7.94179121706446E-5,1.5203803471548478E-4,1.6007408415647504E-4,-0.22242829207623335,-0.46794003833690245,-5.47350676297795E-4,1.4242675382071839,-9.650769074762199E-4,8.160940544210838E-4,9.077659757493548E-4,3.014389780897368E-4,3.59288795294657E-4,-0.037119536088567856,3.913288656573607E-4,0.032433614179883025,1.0678278119879385,0.3556833326398049,0.3936523205357035,5.802281142676918E-4,0.777167651278302,-0.07032432937077673,-7.987337146772434E-4,1.3337557312623423,0.5337858746786209,-9.318432465891487E-4,-0.09939566048037922,1.3337557312623423,1.5567251511683922,1.5567251511683922,2.8037113952800206,2.428538913471673,-9.301153881143402E-4,-0.08884782297115229,-0.29877266695306787,-7.926732831571993E-4,-0.9836043362583526,-1.2018089411557791E-4,0.7370874806083865,-2.0268336999097443E-4,0.060467157966214186,-0.31812441055890917,4.177892726214174E-4,3.7816275159671046E-4,0.18424984001088204,0.2517017551276076,0.2517017551276076,-0.3878426801244215,0.7740023444222307,-0.6514726178214504,-6.868805460616673E-4,-0.002762895101776115,-3.3181479373049934E-4,-7.242241366031306E-4,-7.242241366031306E-4,-0.004124053496045952,-0.18094356755799712,4.342347462150888E-5,-0.6350843394513097,8.710983018487706E-4,6.541672783957832E-5,9.297195186799029E-4,0.27545364645681686,0.8769326630671457,0.34013102063920236,4.838492075160696E-5,-0.08498227611306987,-0.989564297555261,0.14283917146579325,0.9685359640962475,0.24663110662698437,-3.0975067740499854E-4,1.5641939850712084E-4,-0.2185168521970363,-8.346236274922782E-4,0.10723353062703458,4.964318118322901E-4,4.932455971183842E-4,4.5352953280677574E-4,0.3561181291001842,7.584403873852001E-4,6.048062270946047E-4,2.6288336616002656E-4,0.06935546006175917,-0.46676066583960935,-6.200548448408681E-4,6.35991012438748E-4,0.25450412435757114,0.25450412435757114,0.4674564712967655,-0.5484228726661776,-1.303685900057843E-4,6.17029590538771,1.4286801126489046,7.725410259973261E-4,-0.5580555762182959,-2.862890756312983E-4,1.1511807995311596,-0.15720257686305708,-6.287015590569203E-4,6.91551089455403E-5,0.7587433448014118,0.14515615449549094,-0.08193655740723298,-0.8778191749458464,7.271707377959368E-4,-0.0034431477412107158,-0.22690021574333652,0.37718555500445394,-0.7693542744604094,-0.05493487306211302,2.224200094752423E-4,-0.02512233839430339,0.5626682831818176,-0.1644484923760557,0.11370040057309971,1.0160204909714956,-0.8751490237609997,2.3540578129022127E-4,2.067089884293105E-5,0.47762761352992256,0.6392381587629915,3.02183084131646E-4,7.75031043657485E-4,-9.840436147132137E-4,7.012885205844065E-5,9.350899294512195E-4,-5.542497040639902E-4,7.034114143997438E-4,-5.118138303280499E-4,6.475722380357352E-4,8.736827919784064E-4,6.757205132785263E-4,-0.13585901284971996,0.3505908813386535,0.5398200018723465,-0.08419529278720662,-0.29959924961831585,-6.142791512958711E-4,-0.17535650933546887,4.440177706886868E-5,-4.1098073656587516E-4,-0.022872534505173514,-1.1073658472098495,4.5368484612231706E-4,0.36578748660986976,0.24533085266865087,0.48338353581119564,0.3040448387111001,-6.191181138824674E-4,3.5156929604290583E-4,-0.4475806562116793,-3.5870450512654655E-4,-0.03646851203288231,5.886774142409442E-5,0.08026363333056621,-0.3103373438375517,-0.6326788753070332,0.26542006585816885,-0.2729639723018127,6.036960295671375E-4,0.6236612325416313,0.4346519192553271,-4.5087534900136524E-4,-0.15229885464345408,-0.3774719523918279,-0.22412118922714824,-0.031201529493970887,-0.6626736744103363,2.2024633680155215E-4,0.3243286727724129,1.673096221416273E-4,0.8819473169685654,-0.33719458060092145,0.013865373740827799,0.013865373740827799,0.4572615439741605,-0.5677943863506953,0.08182834291633014,-0.15907908607218973,0.6445898647571404,0.6445898647571404,-2.4396672576947292E-4,-0.015277946486410482,-2.795457836992886E-4,0.3103632861054281,1.147276929538768E-4,1.147276929538768E-4,5.540460500169242E-4,-4.943899694761545E-4,5.540460500169242E-4,-6.0897098908651096E-5,-0.0251903449053259,-1.8903652866929674,0.17908292552809918,0.17908292552809918,-7.395417537105437E-4,0.5809212486502005,-7.395417537105437E-4,0.5653875029550547,0.03754803474298459,3.983440275947337E-4,3.983440275947337E-4,3.983440275947337E-4,2.869062082517097E-4,3.983440275947337E-4,-0.5408436202832495,1.270937591807741,-1.9149262176740875E-4,-1.9149262176740875E-4,-2.194762748150051E-4,-7.825865257831105E-4,-9.597026520230968E-4,7.679467264480014E-5,-4.1398095941557855E-4,-4.188535647101283E-5,6.155921321312117E-4,-1.1529859142244656,-1.1529859142244656,-0.9944472169278876,-4.485122212912341E-4,-1.140228796778892E-5,3.3109362314630254E-4,-4.705664935825229E-4,4.0612995000073636E-4,5.282933357677881E-4,-4.996530725561964E-4,0.5805404740093641,0.36636172286589785,5.163133259392979E-4,-8.797149889660403E-4,-5.943196055783226E-4,9.28634945098063E-4,-0.20834266855637534,0.06803124504413505,-1.2034314672168035E-4,-6.463318782972695E-5,3.5660002757569205E-5,9.357034114273498E-4,-1.2204469847490207,0.7147144327687319,-0.023546586925122896,-0.023546586925122896,-0.4642043419861007,0.6466102573709746,-0.12538502058163828,0.060007123168060506,6.918963458754572E-4,0.7905847379740412,0.7905847379740412,-8.069316235207692E-4,-0.7093350538377421,-6.658550354160891E-4,-0.0077193791455866835,-0.0077193791455866835,-0.010502267965827983,-6.826217231767633E-5,0.03877352641883395,2.7933726577681196E-4,0.03703707674263229,-0.3545790701926863,2.291860861256107E-4,-0.02245207681396029,6.75897573562143E-4,-0.6498951939754716,-0.034645467689438686,-8.858629880321978E-5,4.2496115399353945E-4,-0.6498951939754716,-0.6498951939754716,-0.6498951939754716,7.234084710083764E-4,-0.1356645179473426,-0.1971291609592965,-3.625099573107576E-4,-3.037576515744503E-4,-4.221487662242759E-4,-7.123007623921263E-4,6.138973252955684E-4,-2.2278038980022856E-4,9.3842617979578E-4,0.07931549818531457,-4.7168160401818383E-4,-0.12600424691242912,-9.961786693559258E-4,6.779961898504834E-4,-5.525584651038023E-4,-4.5255449141896447E-4,3.5353679622312953E-4,2.927027066639709E-4,-4.960126314197499E-4,-8.459357161187419E-4,-0.46817377360386697,-0.11226751009898006,-4.7714959514064646E-4,3.444673696764589E-4,-0.030201382770388217,-4.1335192093035255E-4,0.2624105682830162,-9.040033247195783E-4,7.361853643888898E-5,6.118025341329893E-4,0.01898692822209699,3.3833212377225004E-5,0.1126440064468441,0.1126440064468441,-0.06860174411688302,0.17855520027976002,0.03127810394970331,-0.6288827517155292,-1.5063225539376271E-4,-9.291130576653703E-4,-0.8858917555518832,-5.004730644184543E-4,-3.915221339452977E-4,-3.915221339452977E-4,5.227559872321593E-4,-0.022797348130803727,2.523868908818332E-4,0.8741133147477332,0.5889899624322078,9.449288437558909E-4,-0.02953657488142488,6.382918057693497E-4,-9.570444727667447E-4,-6.497212936703903E-4,-0.06452247077625661,-9.467159963935568E-4,7.589063770704406E-4,0.007862208819875498,6.938672782438903E-4,-7.466945957151506E-4,7.381124881001556E-4,-5.11614397337379E-4,0.4769912967375508,0.16721368014642102,7.320011734067568E-4,7.320011734067568E-4,-2.611000134819393E-4,-3.413666172275235E-4,1.9232238527175363,-0.1628356389412291,-0.1628356389412291,9.398452316246803E-4,-0.3261091777124893,9.398452316246803E-4,-1.142055136336485,3.4322160184300268,-0.17716020098995047,-0.1818884887287545,-7.250595286924521E-4,0.7015837272372014,-0.594261850951053,4.441273918615896E-4,0.61991474424412,6.202590433155132E-5,-0.1375896126768901,4.1032538198440647E-4,-0.21175695497957425,0.5169373844276743,0.5169373844276743,3.781419757512381E-4,1.419709382624666,-5.910297247424437E-4,-0.7782235300295642,4.234988185447487E-4,0.1870318883161545,-7.783222976600185E-4,-0.0016981089809603315,-0.25122680524351876,2.8664996047565033E-5,7.548673731016533E-4,8.614544711268733E-4,3.6664097580912816E-4,8.859763455125552E-4,0.10660010153575258,7.775079885334669E-4,2.6831274230113434E-4,8.531498630911988E-4,0.5553759742420056,0.07506434541716513,1.1631071672913622E-4,-0.7881174399561226,-4.331916420631332E-4,0.8713566449186491,0.15629542820536427,-4.907393135943657E-4,0.3648528204767232,0.06290000726112725,0.333207841724195,1.1153966457047517E-4,0.05531309426189236,2.624284343698698E-4,0.0572260672736491,-1.290801216286446,8.702887897088889E-4,0.9376586169830096,0.1934549036676969,-5.7750538037228995E-5,-0.010214829880131409,-4.29416407682846E-4,0.1007658390008954,-0.06958136019275173,3.30187758369162E-5,0.40334630222694107,-3.190805927161003E-4,-0.6202008650138369,-2.3172607225367453E-4,1.4708246522851553E-4,8.526594916943167E-4,-5.105536650790693E-4,-0.9315834929282919,4.0511480179475194E-4,8.36270115833837E-4,-0.32733686526200423,-9.998822560605594E-4,9.799598988411405E-4,8.568599004623841E-4,8.568599004623841E-4,-0.328767975294033,7.390164044533974E-4,-4.660819996515052E-4,-4.660819996515052E-4,-4.374329672723475E-4,-3.73362721308668E-4,-9.999445103713836E-4,-4.5050568340116457E-4,-4.5050568340116457E-4,-3.621664649264256E-4,0.3134825514736305,6.241297984438998E-4,0.07060160368233223,-0.0407940449236109,-1.8428996142539613E-4,0.018610391824958775,-0.35081353965200024,0.2975549536947215,0.7484145527711228,-0.011321906765842264,-0.011848995210100036,-0.1518909602786538,-0.11347900962268895,0.44662413907576104,0.09663886808458866,1.3686201183924808E-4,-0.049149887511104405,9.122805227938489E-4,-6.289329071500354E-4,1.4001138619174647,-7.817131672434659E-4,-0.9867308402398205,-8.610571865910987E-4,-6.196749480582955E-4,-7.086540637632239E-4,-0.26156113442132367,-6.684533711762212E-4,1.6081135464998957E-4,-3.397674849246199E-4,6.803433718524027E-4,3.7782015609014803E-4,5.4744464180895343E-5,1.5167775042214892E-4,-5.351857146870712E-4,0.2904724392649838,0.6331377528085285,0.18373680825325472,0.1401482472071193,0.2635722839558189,-0.06448328359063779,0.8099527772175716,1.0513854816675094,-1.2572625994559505E-4,5.546306996578247E-5,-0.6049691372720931,-0.6780738944189397,-2.09974897883133E-4,-5.821460317750426E-4,-6.660120014991948E-4,0.0633139644969008,0.12306781709028705,0.2068192105518204,-0.0752620443608584,3.255796319496075E-4,-0.33232324558715953,-0.4760841770264429,-0.2018942527614783,-2.337983822755719E-4,-8.242894867581429E-5,1.951606676654584,4.3748442817799667E-4,-3.864610695434495E-4,-2.7765713887671923,3.897084287211208E-4,8.53556745154839E-4,8.53556745154839E-4,9.479664070670501E-4,-0.3869571306660586,0.5782162682562804,0.07227993697313159,-0.030198712762002814,0.10374892339581686,5.720119613787245E-4,5.720119613787245E-4,-3.5811425162385726E-4,-0.01581072094636138,-8.735858569321545E-4,8.405332070601118E-4,8.405332070601118E-4,-7.989998898997355E-4,0.5780113094345342,8.405332070601118E-4,0.5119858412536505,0.04314080789122847,-8.995551031640514E-4,9.363013201099993E-5,-2.396252812093279E-4,-7.56399418369143E-4,-8.493920586665317E-6,-3.641856864836559E-4,-7.178380612385909E-4,7.766688347040417E-4,0.19495104567069682,5.776862161679739E-4,-8.118874163761101E-4,-7.204217889490402E-4,0.01978765460559359,0.2355501242105979,-7.212206810784879E-4,4.898041673548474E-4,-2.184420930651488E-4,0.11592521608552392,-1.7484392129043285,0.4727227721023851,0.4727227721023851,-4.2629814879497057E-4,9.079448640416142E-4,-7.433103866934634E-4,1.6570607390958836E-4,-6.757699695998263E-5,7.469923765292865E-4,7.469923765292865E-4,-4.925058617705828E-4,-3.3549018053260235E-4,0.03074323593534243,-6.029648505782264E-4,-3.362892614066867E-4,-2.9314350778497514E-4,-0.08847995784763121,-4.60094564681275E-4,0.2815872793162688,-1.5263236220564975,-2.4260740044892164,-0.9645030145284047,3.763834559537667E-4,2.389486569960399,0.35250410813372046,-0.08328303375427364,6.507231958796746E-4,-4.0120586613795624E-4,-0.553223114203993,0.22538485862494814,-0.13801655153532547,0.08877170459008929,1.220750401972866E-4,-0.17549302963296026,-8.545503763335448E-4,-0.10598803187569304,-0.19383471862497653,7.659183586214265E-4,-4.072644770047022E-4,-2.8892056287038715E-4,4.4087784706026785E-4,1.822542637403172,0.46166570380176586,7.608792223458003E-4,-0.040088965657658036,-0.05162634165756319,0.03329162661714101,-4.7107598360340234E-5,-0.007105534840370367,0.710505117748463,0.5641315438303258,-4.071876188650837E-4,-0.2346187369514856,7.289452483516278E-4,0.23719408473944145,9.897133623520044E-4,-3.032469737909621E-4,9.524298172548263E-4,-6.395479625976187E-5,2.615505298673911E-4,1.9716017170512694E-4,8.712988276326029E-4,-2.2459885847904838E-4,2.2482688734690637,0.12428684909979965,0.12030081903906378,-0.19284457158937457,0.23316250186330456,8.173024226397669E-4,-6.095781775195182E-4,-0.09471643557615689,0.09592871952425028,-3.944219044690275E-4,6.471445319121642E-4,-5.8615893438695E-4,0.17358286861678907,6.90932092398764E-5,-4.994144155692481E-4,0.48662033107300595,2.8197640603523655E-4,-7.917391704781957E-4,8.58912068990214E-5,9.166258292910884E-4,1.2180032338560988E-4,-5.817945852992162E-4,0.3464203023737967,-5.11437313119016E-4,0.07780324850558308,-0.07186826440234628,-2.34389431274198E-4,2.9464443526650095E-4,7.520435739096806E-4,-9.912134804542277E-4,8.445629865366998E-4,8.445629865366998E-4,-5.614329062102654E-4,-5.614329062102654E-4,-6.376964599842435E-4,-8.880792907444928E-4,0.4725117424091687,0.09771358800278415,-0.0475541820906824,0.3859405438214115,7.763898760960914E-4,-0.11207907362460226,0.06084024473100133,0.63745233032382,0.20297367518991144,1.6654164440274863,-0.1327951266471157,-2.823891895991791E-4,-0.015986513809778134,-7.150219044073594E-4,6.915412132821896E-4,0.4136508619062308,-1.74024770358125E-4,6.418833123868265E-4,0.16389859259485876,-1.0996384875869816,-0.16748609446725654,0.6878968342769797,-0.4420285446560166,-0.41877169713276735,2.2153163072180862E-4,-0.3322007182022133,0.5043562229204359,-0.23848165385682993,0.31338533386772044,0.31338533386772044,-0.12653486843936496,-0.01883051959348364,-0.28717635371439515,5.58470616344579E-4,-7.835090158783546E-4,3.45977308318863E-4,-0.02528588457311095,2.1306171081805173E-4,2.1306171081805173E-4,5.31774894023235E-4,-5.015703247573237E-4,-0.021098691181393226,-0.09508089496105535,-0.06208383513390048,0.9587679207196854,1.8300314804049125,-0.4013983290894003,8.601055751452231E-4,0.4268164184061364,3.059936923501056E-4,-1.5064039875948105,-3.6556409296233106E-4,7.028961935589631E-4,-4.5761981651444323E-4,-0.024359312928453957,-0.40257768468536725,7.29720882121356E-4,7.29720882121356E-4,0.03965816111510226,6.003915834286661E-4,0.015767578914095748,-0.14334790863977467,-0.26275470144892776,0.16201900506728814,1.145410603543728,0.7921516486758341,-0.41139528391584523,-0.17599312555575336,-5.386580234400086E-4,0.36449054635715705,2.0581452740548616E-4,-4.0052891212420455E-4,-2.1469399214175304E-4,4.272784485342008E-4,-4.959662387146908E-4,2.914757145118744E-4,0.5535138171882082,0.5535138171882082,-1.4382368080970544E-4,0.7007317909267976,-1.4382368080970544E-4,-0.6565463886724948,1.4508206739439968E-4,1.4508206739439968E-4,7.999257553765878E-4,-5.276718678801539E-4,-5.423884263812689E-4,-7.506791862427448E-4,-0.5141211882597864,2.350369276921001E-4,-1.0994255197373432E-4,-0.7586430118449293,-0.7586430118449293,-3.6379831576136706E-4,4.4770284949178997E-4,-0.5041702875292285,0.39650739952953296,0.12310599286007409,0.8841238501353067,-0.022691965930973154,-9.384605057935198E-5,-0.36746179235754006,-8.495146612742584E-4,-8.532860127788348E-4,-1.4597950989960737,6.061344472568233E-5,-0.09619421142774294,8.759969356778811E-5,7.51038153490609E-4,0.21729194602326687,9.603545374290343E-4,6.799288536474778E-4,-0.14514833701195493,4.635530310671508E-4,-4.95944151276133E-5,1.8161449118277314E-4,-0.1454900971396427,-0.004570716193563841,0.09375835887271768,0.13529110976973308,-7.374876050968895E-4,9.457776337927046E-4,0.0350965544709614,4.5998679837996664E-5,4.798196863155394E-4,-7.303114053106938E-4,-7.303114053106938E-4,-0.04670501189325582,-0.32146782741725216,-0.12898374110521343,-0.12898374110521343,0.30311716905365504,-0.253400342116237,-0.7333708203705932,0.1258904360131072,-0.11761203900452291,-0.30124131993012676,0.8964003120807211,0.18983417823983498,-0.22285966339939844,9.962462103500552E-4,-6.369004583221056E-4,-0.08680946525273683,-1.1387290723668432E-4,6.124893226169373E-4,0.47113275004496147,0.36933390651363013,-6.893862283995948E-4,-9.021747114698619E-5,-7.152275969679712E-4,-2.8943123597912224E-4,4.985106775006016E-4,-3.7475716023656087E-6,-8.166085055685669E-4,-0.2647007842769674,2.7728859013497484E-4,-0.8287826143332582,3.5653942451393996E-4,2.247744417397027,0.07447625369608965,-1.2180745205290795E-5,9.739820271930308E-4,-0.05766272242996699,0.435791127141707,0.025985347622056884,-4.003988533404716E-4,-0.1373026501419403,0.1413800249655241,-5.580506351679157E-6,-4.6504653886846113E-4,-4.6504653886846113E-4,6.842967595951753E-4,-6.523380309665602E-4,2.9955610034389952,1.4700592623027613,-7.249513223575303E-4,-6.105481310002954E-4,3.4866735083648767E-4,8.848847533356138E-4,-5.889974623552946E-4,-6.515121793899247E-4,2.459435764748147E-4,-0.059341619731404185,5.517904711326384E-4,1.7882753635217026,5.70091689653283E-4,0.08018614475598934,-1.6373420215959138,0.17295898948710817,-0.008352520150723082,-0.07898301865054512,-0.06243149586944781,2.936637608517837E-4,-0.10603619271982906,-0.10659027073031871,1.597818593775742E-5,-3.225025992143111E-4,0.4912237024506296,0.18531834316741452,-8.586503901359124E-4,1.5527283367351848E-4,8.093547960881216E-5,8.093547960881216E-5,4.3788199326504334E-4,-6.321499729384001E-4,9.244165161802524E-5,9.244165161802524E-5,0.35409589603361646,-0.42297648502451357,-9.213030897664881E-4,-5.209045031307736E-4,-0.058815488370745864,-5.581943681635021E-4,-2.0771508632653686,0.18066170293514178,0.1860858113997541,0.6962817023373089,-0.3125367225344986,2.6527376426459495,3.308786000934203,1.4500856805969669E-4,8.772847978387562E-4,-3.854353347559811E-4,-5.226884622257374E-5,5.00880169408858E-4,4.4387527180784906E-4,-0.2394782843510403,-0.7415099818089114,6.222324699892328E-4,-0.2841762859908826,-0.04643035863013418,-1.1655535277201041,0.9447289438615827,-5.682184460154842E-4,0.5709569035068955,0.12361142349185172,0.20086582214398263,-3.185207011994493E-4,5.126768573186051E-4,-4.1548492040173143E-4,0.825826821388207,-0.8829329612443281,-0.21333404214733398,-3.849740109544265E-4,1.1226862764715767E-4,-0.1521767338100943,0.4049312970155049,-0.14110066377632385,2.7386286518336087E-5,6.82762538362421E-4,0.021716037121145074,-0.250204571107452,3.1596239398113833E-4,-0.0395976892615056,0.3010093189675872,-8.314038948590841E-4,-1.8321823642717565E-4,0.17596050319614853,-5.081386287405183E-4,-0.19233965299981753,3.0120545842138866E-5,0.20479168560501743,9.368555631344818E-4,-9.673008538126486E-4,8.565801389434436E-4,3.830994189317424E-4,7.578288616200586E-4,-5.359212202200758E-4,8.606333658942683E-4,8.606333658942683E-4,5.357633622775129E-4,-2.3685979073448794E-5,7.018553937851025E-4,4.5030972526589105E-4,-1.243588593690083,1.319538437089079,4.104538131202229E-4,7.163533916821766E-4,-4.2319909756982274E-4,-0.03584988737612202,7.453068385923399E-4,-7.56341059509908E-4,9.98123351903884E-4,8.229452765881667E-4,-3.9684790841394875E-5,8.24655825830238E-4,-9.998607220920413E-4,-4.4586869680765203E-4,9.514598623195745E-4,4.9678672574938066E-5,-5.459139252065692E-4,2.1151389303736908E-4,1.1046661695600206E-4,0.1202606069795681,-0.24974601051766177,-4.014172801730491E-4,-0.48441390607702656,-0.2640553033469182,0.017310697164237072,-1.1419853211420527E-4,0.47286101654108226,6.690525294289864E-4,0.31209044903239735,-9.074358989850265E-4,-0.11378837791741929,0.22867262560517,9.715815240754465E-4,-2.801200818600101E-4,0.08639631161201516,-0.5877530958476951,0.405290858063621,0.9041699377794401,0.4972375589549235,-0.49744098904075373,-0.5657804729961442,8.663086466282209E-4,6.222286702968524E-4,-7.799019485311374E-4,-5.039625893297844E-4,4.2704731955822456E-4,-7.204068581229796E-4,-1.0138510877215747E-4,9.546050678645169E-4,2.4209530943777305E-5,7.159401068379586E-4,0.027470893369089155,-0.05445145858816585,8.854627370316968E-4,-0.13463667618685649,-0.0175494747688989,0.03164753699061975,-7.830351223208699E-4,5.893410091966268E-4,-0.7299688803386271,0.05866390116130346,1.6663786957437374E-4,2.987040657182235E-4,4.5849534600168006E-4,-0.9288493014635695,-5.558839431103867E-4,-2.603110915308949E-6,-7.611797164176828E-4,-0.4827003984804269,-5.528517324144091E-5,-0.8958031828589673,5.303079992830325E-4,0.3265395728627985,0.5819935713994461,-8.26665239562577E-4,-0.8424803351282661,-8.094543700818899E-4,8.309335263767168E-4,-7.7802091995735E-4,2.3218818628930671E-4,9.738926235964439E-4,1.0847179260762673E-4,-0.05804262288844674,-8.63919280853088E-5,9.502910296925111E-4,0.011856178880984128,-0.4362838682632829,5.499005496808281E-4,-9.436121616014238E-4,-2.6207730823823105E-4,0.20621115891303,-2.6090863535646125E-4,-4.282963343117353E-4,2.3310897678581108E-4,-4.895724064904229E-4,-6.949221598226939E-5,-0.13148387567198105,-3.989697578018572E-4,6.617566487261428E-4,-4.965143001656501E-4,9.436135665771471E-4,-9.85485684090966E-4,-7.657701745355447E-4,6.827143108329959E-4,0.03486179582632788,6.915553030652308E-4,4.089258211744393E-5,1.1380788280925859E-4,-0.12010311463934609,-0.9715510106322084,9.587229763877674E-4,-3.845616083738236E-4,-0.37224208667873554,5.107810672183753E-4,7.032721606397114E-4,-0.014758682528623543,3.211884462419948E-4,-5.153811609305325E-4,1.1943444074861086E-4,-0.04935890325796086,-1.4233060075842106,2.3152240115931438E-4,-8.354494748286003E-4,-7.183637908489839E-4,-2.021820771657977E-4,2.1932081851032143E-5,2.0657233510198633E-4,-4.4826318644067883E-4,7.997228747786639E-4,8.802424872573587E-4,7.50986043699707E-4,-8.253908024964557E-4,0.047044512625713575,2.298912340029008,-0.007900274451467687,5.157213383011356E-4,-6.666350365579326E-4,-3.7461731699985545E-4,5.729412067196802E-4,6.936332977401703E-4,-9.329430456743093E-4,0.41933981109770285,-6.473974168853627E-4,0.042651324324418566,0.15821743598579394,0.32787045182090846,-7.75863725968932E-4,-6.140614358574239E-4,-5.316355152885721E-4,3.219180516985244E-5,0.03585272688074171,-0.3239141097496538,0.4685843938080184,-0.14889390933551055,9.976401421159114E-4,9.798021952287953E-4,-9.999530888763178E-4,6.498478476915619E-4,0.3348581962730086,4.2790284611632747E-4,-8.665711635817596E-4,-9.960927906139787E-5,6.999951233392259E-4,-2.4492001833456394E-4,-1.5571440506637838E-4,-8.435937647140091E-4,-9.069408274128548E-4,8.034259135606195E-5,-0.2035871645125156,-3.4521712369834463E-4,-1.6200711727163038E-4,1.606068103330383E-4,0.023802720842685934,-7.99580929485895E-4,-4.530490805001961E-4,0.1839291508840748,-0.14218469779095494,-4.7777055796904995E-4,-0.007152734723756314,-5.259854753071787E-7,-3.73243707469199E-4,4.464955772433704E-4,-1.3953439726826198E-4,8.082188598028113E-4,0.28845396008350616,0.17639940722753467,0.19292199565514945,2.3004597674152697E-4,9.982484410687386E-4,9.98226170734374E-4,9.935492844128568E-4,-9.999974410516556E-4,9.838435032271328E-4,0.4508532392200324,-2.039348879956989E-4,-6.684981709097876E-4,-6.692163851425618E-4,9.182213559308199E-4,-2.9452186068146605E-4,-1.019239532013827E-4,4.113670567921521E-4,-9.123838201995364E-4,2.6247071320498715E-4,0.3516984437693503,-0.3841912654371993,-6.566559482279619E-4,0.21633428803302746,-0.13296147881468498,7.912206900972584E-4,4.7509240248447347E-4,-0.04031567397734895,-7.332671740327634E-4,0.1909882888657577,-5.81286352891109E-4,0.18335110113290823,-4.640272920012001E-4,-2.4411669330602018E-4,1.1455399480624389,0.0947021925170636,0.0947021925170636,-8.142174703230375E-4,-3.7932014551485564E-4,5.256871653820403E-4,0.38153560476513476,0.38153560476513476,-8.833848162391352E-4,-0.21663503529994663,-3.7979139911626823E-4,-3.187876957759985E-4,-1.0178571463327117,-0.1686067506866643,-7.525642646518704E-4,6.586494076351397E-5,2.9915451600389493E-4,9.922862791689139E-4,8.320061083570869E-5,7.385310323152318E-4,0.03603207971067981,-0.2799794805570392,-0.2799794805570392,-0.0019498058902926736,-0.0019498058902926736,2.1091796439935164E-4,2.1091796439935164E-4,1.977286285638843E-4,1.977286285638843E-4,1.680762764551518E-5,1.680762764551518E-5,-4.642100119128322E-4,-4.642100119128322E-4,0.4170738564798112,0.3300714211811481,0.3353279379692994,-0.4839475395291713,-0.32550250650502555,-0.01607015372273215,9.490048019829337E-4,-0.6099830873649036,0.31098675990950564,-9.49004801982796E-4,-0.1952612779990471,1.0887267825432991,-0.24318668984609026,-0.23784284911760273,0.8032736021345558,-0.7059363269703595,0.24318668984609026,-0.3936068982887867,-0.2954604876660595,-0.14473779115940366,0.23309326371748867,0.4085220074381461,0.9962246974687123,0.6669691948673857,-0.2092528678265927,-0.4522053609873781,0.27702387116515254,0.7213265833528487,0.2896650534364438,-0.6567916312357397,0.20925286782659264,0.6620704684810094,-0.2780178692287294,-2.5528263276778913E-4,0.26883663557320353,0.7019715900006971,0.23454408954564787,0.1374951361462213,-0.061848725330855225,6.718971186899958E-4,0.17436801350835007,0.17436801350835007,-0.2647825203333206,-0.20696267509521027,0.3396363434887859,-0.07161321700550678,2.3237280923153031E-4,0.21587596208890464,-0.3558504726178234,-0.01880772225326812,-0.3446599276402196,8.475382885398781E-4,6.2544876524646E-4,-0.03669468377440664,6.619198710848811E-4,2.5403146210109615E-4,-0.0425374453810563,-2.3211369500368486E-4,-0.20938168733006637,-0.053291236328252965,-1.8192036556699868E-4,-0.4077785677823783,0.3997449657097571,0.3997449657097571,1.1952213763975719,0.20696267509521027,-0.45035628618130474,2.167168180795397,-5.816479343737128E-4,0.2754920564199835,0.2754920564199835,0.7473651821097302,-7.110550627867558E-5,-0.8751790129590871,0.7114721997185005,-1.538408855867414,0.009948144837546689,-0.25731254350286753,1.0646334792098369E-4,0.7458731696893298,-0.22874650991379925,-0.18436117512063177,0.4763602642200879,0.24021039116265003,1.0588565464447557E-4,0.05205555663224722,-0.047164081086928066,-0.047164081086928066,-0.0243661730836242,-0.18590657079646114,0.8400047797662294,-1.1942549949151948,0.05205555663224722,0.05205555663224722,-0.632447967507601,-1.526269034077053,-8.160982807309809E-4,-8.448916444908646E-4,0.40259238421553645,-0.27495610257104397,-0.7437133915996514,-0.025670215055689463,-3.574154969063789E-4,-1.0301433094441144,-3.142874886684385E-4,-3.142874886684385E-4,-6.169633558712187E-4,-3.890408909593521E-4,-1.7350022654785246E-4,0.4227137718637237,-0.2094744436020817,-3.7881263223320553E-4,-3.7881263223320553E-4,-3.7881263223320553E-4,6.341023131740367E-4,-3.220930310723959E-4,-0.7238770323028927,-0.009750992117214495,5.739095004162079E-4,1.2214937677491931E-4,-0.2996781814081775,