3.6143533993112514E-5,0.8854354830496819,0.5447790301998171,1.3383358244388857,4.239676040283884E-5,5.695302528886049E-5,-0.4417009035119251,8.92490161082991E-5,-0.7088818867439137,-0.6715181946002705,1.948802168506977E-5,-0.6577774043656041,-0.3474815514279947,-0.889360157982678,-1.0109001290029922,-1.0321331766321173,-0.9265013229510358,-0.7879663931848824,-2.0910611851803274E-5,-5.6953025288869436E-5,0.7559393627895515,2.8782612887305966E-5,1.136587005459299,1.0311732024029885,-0.4917933784319243,-0.4917933784319243,8.348844406872397E-5,-0.5162703738932268,-0.3963536057570975,-0.7947085547742212,-0.7640292248779159,4.891885580033832E-5,-2.5134238025565844E-5,-0.41559281378381213,2.4004946892342634E-5,-0.6264381304941997,-0.758655668865218,0.8042640219051717,0.8042640219051717,-1.3720231528962205E-5,0.6873687762826771,-0.2562830824896409,-0.2562830824896409,-0.2784451723572193,-6.795326237420466E-5,6.724891600957141E-5,-0.6006088744022977,-6.584527285273821E-5,-0.21670821662282364,-0.062237258595270156,-0.6148993372893118,-1.0220100721713188,-1.0220100721713188,-0.4241149067756405,-0.20751514450846584,-4.881968408968899E-5,4.626648626838796E-8,-0.1302599537193181,4.626648626838796E-8,-0.4480324988356369,-0.5601538924937203,-0.2743162583098039,-0.38866939643271814,-0.38866939643271814,-3.737918411847697E-5,-0.13944877692469146,-0.3802814478854405,-0.315860016693909,0.4022403027277555,0.4022403027277555,0.5515928803794846,4.612483212728218E-5,0.13473661511813687,1.0749960288903326,-0.2512357750063648,-3.90181079262377E-6,-0.0019981346550718253,-0.8112290347288794,8.95253185760663E-5,-0.08547524188866361,-6.919481413630116E-5,-0.40960708004568436,-0.8112290347288794,-0.8112290347288794,-0.2110268235790547,-0.06418618756095869,-5.880410859470509E-5,-5.880410859470509E-5,-0.044414030622227256,8.251612732300473E-5,-0.29058383061204474,-0.39901768286647543,-0.07875060230293084,-0.2977101265759045,-0.2977101265759045,-2.90515534558347E-5,-0.06371710865855505,-0.08008305793688862,-0.05556163107817567,-0.07367971489948888,-6.880817971790367E-5,7.760965545001617E-5,-0.36389332584611156,-0.06174664696495714,-0.06174664696495714,-0.019727216919405228,3.0979135419194375E-5,4.697144943529552E-5,-0.1661801115260983,-0.36389332584611156,-0.03239611475820403,-0.022500960568349476,2.1119032568332714E-5,0.5413133256842251,0.053000561832564616,0.10015213214577841,1.242143804045729,-0.11021073829300455,-0.10951383013818526,-0.4020404365931515,-0.010675332697419897,-0.023568528031730082,-0.7939430019930451,-0.686505199601629,-0.7326841599899878,-0.5472090919823579,-0.5472090919823579,-8.138090895269826E-5,-0.5406518910143805,-0.707756161007235,-0.007716040281694057,-0.007716040281694057,-0.11385672175510599,-3.254709687481111E-6,4.731860248134224E-5,-0.48042353799211973,-0.2428525911933512,-0.2428525911933512,-0.2904203092846753,-0.023681651087672687,-0.07681888810543966,-0.6833863360556671,-0.9926008434547252,-0.9926008434547252,-0.3862794856043889,-0.23163390255742777,-0.0447252913400011,-0.044377144135496566,-0.1036679943762446,4.116891814444356E-5,8.277434849508448E-5,-0.5435805527968938,-0.4936195676098444,-0.03591751487407536,-0.15386785907550218,-0.9350287395154643,-0.9350287395154643,-0.9350287395154643,-0.5331071958588043,-0.3574637036945911,0.23389402262546066,0.2331524449835579,0.663598326151022,0.0661627564499038,0.06558782761948015,-0.5184549407708454,-0.1452850852886191,-0.5765378638187935,-0.665415908427831,-0.3408491792328999,2.223624015337876E-5,-0.26356596534513826,-0.2569029961201206,-0.3762586786438606,-7.409638860050276E-5,-0.2984459457253319,-0.3161865341326389,-0.12110998076168815,-0.10916066056564384,-0.49738591916969216,-0.001642332503026735,-0.01730068795093077,-0.4807850070976814,0.8731910659638402,0.2539857209498785,1.0050508661539672,-0.168685743982909,-0.15932499417165893,-6.932799286670625E-5,-0.061740395722831826,-0.7248414874319344,-0.6458990868756005,-0.024888779859420073,-0.015536005094010322,-1.8451759221878132E-5,-0.1957057346758362,-4.5414039338485E-5,-0.3138454998802769,-0.16852078470298057,-0.046382391695300174,-0.04337124348031638,-3.901738205201488E-5,-0.22777960910282835,-6.375913207559727E-5,-0.40101056003926644,-0.3020425161954135,-0.6089732102150159,-0.12949761399512588,-0.6080126214989676,0.39180906138680477,0.3631721677741398,0.0017807142203158295,0.15009136327574576,1.11898131044009,-2.4465396049123988E-6,-0.24405116999485146,-3.7714603975966705E-5,4.3839095292937723E-5,-0.2212171495973278,-0.7287604436689149,-0.6205618829352982,-6.456241808391173E-5,-0.06461918560258086,-0.005335532211429497,5.444328307814242E-5,-2.7386913982362706E-5,-0.3343197124093687,-0.18314347095923772,8.459718443257768E-5,-0.11403514803589926,-4.243772459501187E-5,-0.005781141011750493,-0.03736745889607532,-0.380770625711257,-0.26854268265221265,-0.11908665448519869,-0.11474128750768389,3.420917894904751E-5,-0.08058006559730636,-0.7713063373172807,-3.771627199235929E-5,0.46483275200062807,0.0827553634330486,0.0586431182707778,0.3586937601236219,5.141808377785381E-5,3.3348793151425905E-5,-0.1602495146464158,-0.9617070811482906,-0.5858203899833931,7.39112685690111E-5,-9.24955921159601E-5,-0.012604696833158067,-0.6788650978536713,-0.1717524406971606,2.8129503513628037E-6,7.620779683200371E-5,-0.022993850775056623,-0.7818907224048861,-0.26713086322692225,7.392100223204437E-6,-0.18381641319926695,-0.015094665713251017,-2.1377619215766453E-5,-0.2202021891518295,-9.205500336847412E-5,-9.89724590056074E-6,0.3263761888800648,5.03172625362258E-5,-0.5590010277286408,-0.8593792279081716,-5.464062577664933E-5,-0.32529213384111494,-0.15694422682348247,2.2464638047143447E-5,-0.3548046650391254,-0.25709643425805023,2.820391766444782E-6,4.353134747511823E-5,-0.22834810601044356,-4.052844490474831E-6,0.9411416573384929,-0.28615364630177537,-0.18662196957280186,-0.05421485259183445,-0.022258374934695003,2.083244928606799E-5,-0.03312670928134874,-0.006211662479283415,8.927739313758587E-5,-6.657737746854547E-5,5.744691431491507E-6,-0.11741953660755756,-0.10183842521565231,-0.051717497533003746,-5.3368818502515705E-5,2.0347084444650444E-5,4.459561832383647E-5,-0.22921781054862878,-4.467895971745768E-5,-0.5334555857640062,0.6054323245308785,0.4937791364300838,0.11865405828831649,0.06464038251517602,6.112710171191551E-4,-0.5711405539001152,2.6559034730658292E-5,-0.1696791910073111,-0.13491344163107513,-0.5951051213366805,-0.18483523149953313,-0.21706687402689728,-5.433657780046232E-5,-0.006957634151383843,-0.3041843504462415,7.02422624876143E-5,-1.7836874810379E-5,-0.2987897010572141,-6.249524079851338E-5,-0.036184773370321076,-0.4401720623738458,-0.055680667960283294,-2.279773451306752E-5,5.331921972551412E-6,-0.4401720623738458,-0.2689774890842337,-0.2689774890842337,-0.014591187461236204,2.0929000534494014E-5,-3.779453188912455E-5,-5.459171704021241E-5,-0.06888752472995394,-9.803862973585713E-5,4.36020244827798E-5,-0.05014580764711986,-0.19446556440639332,9.00898702252963E-5,-0.10967934540789477,-0.06716802189754059,-2.1031997434399773E-5,-7.630787807624515E-5,-6.021379292267466E-5,6.455389162131373E-5,-0.2245685200652705,-0.059519047107404494,4.336606903217522E-5,-7.898906346520697E-5,5.854336354009501E-5,4.823381853029719E-5,7.66028408758354E-5,4.297001920336614E-6,2.9826027827345485E-5,-8.108906881204036E-5,-6.043965306318264E-5,-0.20119986278562083,-0.01662272532945933,2.3903330305536603E-5,-4.43677123512368E-6,-9.062169570119305E-5,9.878558581225683E-6,-0.044133609812843956,0.9878160964600617,-1.3048617038691342E-6,0.3879515051461792,-0.067846405267716,-0.6527459050263898,-0.22113834653628886,-0.672624539245173,-1.0074169840227059E-5,-0.3547156769166604,-4.236792104331882E-5,-0.27653575526131313,-0.7716440473836191,7.75518616933522E-5,-0.48309574045247916,-0.03903674051463489,-0.4156916704986884,-0.21920118110606876,-0.3787550775023646,-0.27202756423915403,-0.038082400931566375,-0.04901434553998851,-5.8322034651460115E-6,-0.8710113777820484,5.6906169979621186E-5,-0.2945067255784653,0.2260373688609396,0.9993956530006941,0.4056878652984269,-2.1555484449512955E-5,-0.19932685941133801,-0.08531066474938688,5.0632682467417864E-5,-0.002776370379918765,1.7088803799168674E-5,-5.009898009469523E-5,-0.020241737562631822,2.476714652158057E-5,-0.759838640989309,-0.09062555119530051,-0.7491663900996248,-0.3068365566557515,1.9579510671240114E-5,0.37783357799214706,0.16949872504679825,-0.27871110520305514,-0.27445956748839895,7.639444845226634E-5,-0.09308428801415437,-0.1210937858490819,-0.02216854151120778,-0.023203260605658086,-5.836159024301837E-5,-4.694596520866791E-5,-0.25431285126548603,-0.0449451921188571,-0.043166715329087474,5.425259881312232E-5,-0.007287960958842949,-0.32965725930619355,-0.04135948981793586,-0.03357476237160434,-0.2955154374923456,-3.172709500340112E-5,-0.07366121320165653,5.605924750045897E-5,-7.3328835105916765E-6,-0.2586030106718934,3.3868834944417555E-5,9.339624407041364E-5,9.153614465149575E-5,7.336689714386095E-5,0.527146436644048,0.51869006772822,-7.067113873241495E-5,-0.431639691008389,-0.431639691008389,-8.048705305594991E-5,-0.08883008486874805,-0.3286396634413969,-0.6697250106529674,-0.1563505754160973,-0.1563505754160973,-1.2484910106593357E-5,5.06168031392651E-5,-0.026301648706827552,-0.23399958448556074,-0.21553764400335018,-0.21553764400335018,8.347658403942892E-5,3.398253102927958E-5,-0.08607117751035163,-0.3318864658827141,-2.1094129820792583E-5,-0.13910219282115724,-0.07546411498455065,-0.2862667678662738,-0.27224067886926123,-0.06915499144191004,-0.2896205086035611,0.8372166782909105,0.8372166782909105,0.0844939699016802,0.25619681840155156,0.5298908949681413,-0.27716597964595785,-0.04444464486620947,-0.2198067073731381,-0.16039629718390516,-0.02439829323661425,-4.000820317147578E-5,-0.01851791681889922,-0.22271443895974202,-0.07015770985561524,5.24941148090538E-5,-0.01951068790222529,-0.42939394042985235,-0.42939394042985235,3.030982109872307E-5,-0.04577672616219233,-0.39090245279192987,0.44441549498485666,0.1000104998969291,0.4121831671989383,-0.5054225615058373,5.109596391530654E-5,-0.3403395131271747,-0.3403395131271747,-0.11214998476246144,-1.3294728858169726E-5,-0.4105129586395052,-0.4105129586395052,-0.18169312118869838,-2.213382854740038E-5,-0.2582163162360269,-8.042493679477881E-4,-0.20878796763102767,0.7113597382923227,0.02735052188784419,-0.34323804067940555,-0.05945591905368461,-0.11624882206459035,-0.42743852694900647,3.990933787293346E-5,0.6396581658261579,-0.5056876477155925,-8.09977694850045E-5,-2.0622873227034498E-5,-0.7255200478914812,-6.0499352624105416E-5,-0.1864112254073008,-0.030556794069937485,-0.46114546360485953,-0.7255200478914812,-0.7255200478914812,-0.137687674544761,-0.5707280233808125,-2.2808257310725572E-5,-7.656968675292396E-5,-0.11165279135785004,-7.673157003820918E-5,-0.3709075422234871,-0.4684000861190163,-0.3589553417520551,-0.3589553417520551,-8.510980379612128E-5,-0.12092756848643431,-0.16492778112531126,-0.21236738460277158,-5.010721407738231E-5,-5.010721407738231E-5,-0.4564723341369556,-0.015499081636556278,-0.015499081636556278,-0.04741214417635506,1.7878492899521797E-5,-6.0030069283830686E-5,-0.25614875574749935,-0.4564723341369556,-0.39585459411370827,-2.848372430968461E-4,-0.32498797760812376,-0.25808026760668973,7.194115937782147E-5,5.574337908356261E-5,-0.507216353730051,-0.11277156153336275,-8.205659543593037E-5,1.7729251836327256E-5,-0.507216353730051,-0.507216353730051,-0.507216353730051,3.320915515300164E-5,-0.34721400496808963,1.7522117088868684E-5,8.790616278543558E-5,-0.1437929984213471,-5.850602903275287E-5,-0.002979899920945381,-0.19681109131710833,-0.2963694246803673,-0.002491219901607565,-0.18626291325629935,-2.0502109190627637E-5,1.5493325909722138E-5,2.1010774231603786E-5,1.0242085012679447E-5,-0.3023022645562758,-4.9633937697442105E-5,-1.5243217471397962E-5,-6.985290084410627E-5,-4.9282672465214223E-5,-0.0035108921568941793,-0.2431638735043663,1.4235556015585273E-5,-6.610126078951633E-5,-0.006465996291960557,-6.257341227671652E-5,-0.28166665910090144,-0.07212304109921172,-0.030926282603191677,-3.4344766751964284E-5,-4.304223766628899E-5,1.2281361651701072E-5,-0.1080723394289325,-0.37325356462667186,1.0058015643996397E-5,-0.07553593889417924,-0.019602683580346447,3.290197956480793E-5,-9.61191362203763E-4,-0.3354508034694583,-0.058472914638659904,-0.2979400239300439,-0.09934142026470566,-4.4630408016217544E-5,1.0047757848014494E-6,-6.466149727520721E-5,-0.0912287532941439,-0.1079035564901997,-0.10046081136095371,-5.663272049564895E-5,-0.025055954050890002,-3.507546770480484E-5,-0.11680981909447231,-0.11680981909447231,-3.125281899472988E-5,-8.239041865644563E-5,-0.04164546555878767,-0.29294934330014505,-0.11764750200715833,-3.345703654487623E-5,3.6791719197875727E-9,-0.003459768048655285,-0.11608999304979323,-0.19897547007247468,2.9290203653608597E-5,-0.1038912921001087,-0.023357122458847475,-0.05244142635713961,0.7376253264766767,5.650883316209564E-5,-6.82693665389635E-5,1.0130618927453057,-0.3076517773516823,-0.3076517773516823,-0.47211048259694793,-0.46415317335412065,-0.5766251814471813,-0.6498452325264874,-0.06500655777855066,-0.06500655777855066,-0.16632058595663463,-0.14409795249303045,-0.17201620327756645,-0.14341279506233498,-0.14341279506233498,-0.22845377140353262,-0.16885246531548392,-0.2419983686790807,-0.2791903076353439,-0.13518027404901353,-0.13518027404901353,-0.24761364793436197,-0.447401315699355,-0.19896279661296326,-0.5013042912408376,-0.6884279550461052,-6.055506224418167E-5,-4.73342055838014E-5,-1.057858470896242,-1.057858470896242,-1.057858470896242,-0.5278242765321155,-0.3320559970834341,0.4667748922007055,0.4667748922007055,0.8575402603340021,0.7426307153405837,-0.48756401261703797,-0.12768877891048092,-0.20771791501102477,-0.037066915494975844,-0.21909876309642382,-0.349723882583574,-0.4310059011566429,-0.4310059011566429,-0.5297524855392287,-0.477149688806426,0.8476206348350447,-0.37931373347413666,-0.3512401309631266,-0.005859879820019803,-0.21652788344656845,-5.078615936647824E-5,-0.19943558609735285,-0.5115125981678496,-0.7575901721559262,-0.3132128467386179,-0.4615321550660215,-7.250956014410492E-5,6.129932372268516E-5,-0.5218679082612091,-8.098778740061064E-5,2.2436915228566247E-5,-0.13125173603701973,9.511276151978214E-5,2.7518007130336797E-5,-0.18493653258964082,-0.29971902495526015,3.017813966893646E-5,-2.6855657007455167E-5,-0.46923580156278777,-0.2780969740045315,0.05640898750166614,0.004317479688102246,-0.043555404337765544,1.5549628749773745E-5,-1.7804302437926734E-5,3.198800879078194E-5,-0.2912458054045558,-0.002566783893528167,6.578327806926239E-5,0.1256407397176998,-0.04464277590339842,-0.5140160474964002,-0.0015199326486653062,-0.14744905520241314,-2.152641391206243E-5,-0.20606517413142608,-3.1902424872507253E-5,-0.40767070404884537,-0.38287459132982765,-0.23648485499813385,-0.015341347080071104,0.10224439549603807,-0.7424960532716148,-0.10674385386974419,-0.14656608785282588,-0.26313382264376045,-0.3238296504025618,-0.22696958440307285,-0.04154833736378629,-7.787209918363476E-5,-0.3703532922244915,-0.3980794571053399,-3.182929978762219E-5,-0.14569911612799513,-0.11484062146288083,-3.3155405321298975E-5,-0.21129029412595707,-0.12431305062434969,-0.1939690208345522,-0.1939690208345522,-8.774127416618731E-5,-0.18794716605540557,-0.15611926230266857,-0.20265866591585222,0.03615490165706885,0.6302799762759692,0.6931674009085106,-0.13776149545174524,-0.06117690168308295,-3.439925293552191E-5,3.234368903812297E-5,-0.5312757732735944,-0.0050370299924284954,-3.7668380245539705E-5,-0.5351493663300111,-0.01076061554098741,-5.270672503951249E-5,-0.2037245567190379,-0.20501515229970052,-2.8005332255950767E-5,-0.429155424210846,-0.33549675840604776,0.3156653935483474,0.13214899915070097,-0.177557189609997,-7.439535030263825E-5,-7.257529779566562E-5,-0.37324650650474883,-0.37324650650474883,-0.012989447049421982,-0.7242412164974134,-0.07999946345819844,-0.028945949704665838,0.2654878747870518,-0.2939518625333156,-0.29584154265492496,-0.18534501591396196,-0.3666671354060481,-0.024515358531469186,-0.03497202547302242,4.0162296777633094E-5,-0.18819990143911233,-0.09573098328443999,-0.1019489890679027,-0.010431215454018703,-0.23872359922892797,-0.15042965254573085,-0.1612665803042488,-0.048414604852664536,-0.471242496196536,-0.29737607761615575,-1.1294688497113424E-5,-1.0342731742524094E-5,-0.471242496196536,-0.4431077567223349,-0.4431077567223349,-0.025459576502946554,-0.3831987219607224,-0.1331229448567695,-0.1331229448567695,-0.18976519502561315,-0.12512404148011777,-0.11116398132009096,-0.09517352424498288,-0.10882703046423825,2.7871343363016437E-5,4.8531443091024795E-5,-0.12177120853311979,-2.7427476706171587E-6,-3.8311005548963964E-5,-0.09882374275567,-3.680636092645162E-5,-0.18365700746214778,-0.030045720382515167,9.160046311313088E-6,-3.967686135031882E-5,-8.409749331745972E-4,0.5567458532221524,0.5608584221963104,0.3258617620822346,-0.419021809307577,5.21509742606975E-5,-0.03971177387235239,-0.17436021987619973,3.843436056666884E-5,-1.904579850736386E-5,-0.18021208905441458,6.445078638533277E-6,-3.165165372273271E-5,-0.20973662680664265,7.43496169378305E-6,-0.002675092565794548,-0.15506460180482923,-0.13685088942954773,-0.03949862578635755,3.279425109701099E-5,-0.002283284764685579,0.7575356558131863,0.030577265467720313,0.18901658847148148,-0.0163423127381525,-9.094108886193022E-6,-2.3855091373035448E-5,-6.108017882022143E-5,-0.2865030627642188,-0.10463794458742415,-0.2576028241436086,-0.2576028241436086,-0.07109620801706734,-0.0031583634546578,-0.22495980100462767,-5.774896681372489E-4,-0.011973905903873058,0.07607837617000661,-0.07871363168164074,-0.02840689561140744,-3.9235717346653933E-5,-7.614776446530647E-5,1.9980022913338282E-5,2.486104437408079E-6,2.486104437408079E-6,9.173036344270111E-5,-4.0635888704748904E-5,2.6179426332138654E-5,7.296966808051288E-5,-0.0043071032643276766,-5.938248447645771E-5,-5.0285046384922335E-5,7.254028977887901E-5,-0.010082512204585682,4.2865232105064745E-5,8.915954732473872E-5,-5.9199643205648696E-6,-6.341460297418715E-5,-0.281939036326068,6.782253826852788E-5,-4.372464619474721E-7,-4.063420762054381E-7,5.2500086586506074E-5,5.097897884427454E-5,0.008887590293846555,0.04728656648183669,-0.061325562540251566,-0.033745829602156836,-0.0017125879578131944,4.357074355622488E-5,-8.482864589477814E-5,4.76567046184826E-5,1.193449757757052E-7,3.0294414881424427E-5,5.36095965356263E-5,6.411751723332808E-5,-3.728627602964002E-5,3.1139611528710145E-5,-0.5085071929326552,-0.1535328078365073,-0.38271245128509307,-0.38186054313470214,-0.15479069184427643,-0.6609430367162847,-0.0026376986747962093,-0.16891764513508073,-0.055076812338970486,-7.327366281752401E-5,-8.006962237663075E-5,2.6790569184587218E-5,-0.047868868302011286,0.09876404324593732,0.08284545427642953,0.04489720829092464,-0.3556857338567137,-6.418451200385067E-5,6.646397145254492E-5,-0.06680694104278585,2.7595955435357318E-5,-3.7944715441826863E-6,-0.07304392495247071,1.7729839191197645E-5,7.112714130087923E-5,-0.2121342514479893,5.854777322148168E-5,-6.152397318097908E-5,-0.06120025723918589,-7.094360704979226E-5,-0.0011521739432915556,-6.970352276534979E-6,-1.0776092244652854E-5,-2.784010614604389E-6,7.827154068311877E-5,3.7166495165551075E-5,-0.14567578729330324,0.6712215983498595,5.550162940488594E-5,0.061806221298255595,-0.18086430839797957,-7.803105113045217E-4,-2.135135981989364E-5,2.3228867355422574E-5,-0.010772509605539257,-7.145443564654698E-5,-0.03324781101014516,-0.01143162352216209,-6.590082359317185E-5,-3.679603402337566E-5,-7.261261642610619E-5,6.668806959355766E-5,-0.4356912880811071,-3.4361885166443186E-5,-0.04199367956781425,-0.35384356680885565,0.3613901305019069,0.057643736454624145,-0.08193893437347174,-3.5800531000751163E-4,-0.0030126209609989516,5.594154428004386E-5,-0.0019214430045120386,-2.9649165341107573E-5,-0.03501738784406107,6.449136616980241E-5,-1.0199603159995722E-4,-0.0037394657903916974,-0.1517242843939665,7.869995319781782E-6,-5.571006165872825E-5,-0.021058318881922968,-4.919195878020961E-5,0.19258871012716633,0.0623845642266851,-0.07910667685344752,-0.06661128019457326,-0.026775745693248074,-5.258134333525569E-4,-5.719306395909518E-4,-1.512868585781658E-5,4.900770805216879E-5,-2.4488038707304628E-5,-7.115809613038249E-5,-0.011377242558472401,-0.01069428291185718,-0.40738977316843716,-7.258690490606339E-4,-0.23516451948796907,-0.001987227729054497,-0.12743858436983152,-0.034220335094595905,0.23559826101527376,0.21349044700400377,0.12422437046875144,-0.03978908049511112,-6.2211024567855E-5,1.6792343774300813E-5,-3.651197750922273E-4,-0.4221181743038968,-0.10342337274842653,-0.07678124308710503,-0.0022460952043443544,0.20411335756735247,-6.738785441531686E-5,-0.5123088423766312,-0.3069090502697339,-2.833847053475428E-5,-0.19456380108995772,-0.035548646314846125,-4.3224038370471586E-5,-0.24171976745533755,-0.07593174306091685,3.0968561194300454E-5,-0.3123552504438072,-0.2726410076018115,-0.07938222782537575,-0.05764053964825908,-6.378157801375526E-5,0.9692592215358098,-0.5686983575505145,-0.42382048482895524,1.3407375020048709E-6,-0.6785797980949797,8.812380748383977E-5,-0.13509798717934945,-0.03647667670122114,-0.4462307863175208,-0.6785797980949797,-0.6785797980949797,-0.345707084368315,-0.5252856551829201,9.854052344144004E-5,9.854052344144004E-5,-0.07344536235069525,-1.9571965766287423E-5,-0.3447420706981824,-0.4202438723874927,-0.3526006141832375,-0.3526006141832375,-5.5224354466264485E-9,-0.10163510105423387,-0.35046493044376414,-0.1614424298126046,5.894903792201691E-6,-0.41474364766647265,-1.0598682562214224E-5,-1.0598682562214224E-5,-0.053561902448152655,9.225059914117438E-5,4.160128074514333E-6,-0.2630783245579004,-0.41474364766647265,-0.4042246726011641,-0.21776287520074003,-0.3239304654583996,-0.35316126637458417,-0.1646647000073559,-7.74631796266241E-5,-0.41013154529099083,-0.02987053759942867,2.638127228148828E-5,7.440029752829147E-5,-0.41013154529099083,-0.41013154529099083,-0.41013154529099083,-0.20546238647053552,-0.309824473884358,-9.657380348950461E-6,2.6470394841600424E-5,-0.08980171331405751,9.427528167320386E-5,-9.12211277229482E-5,-0.2553407719548956,-2.5222214424364467E-4,-0.11776422959712643,-6.554302086342489E-5,7.627880060199208E-6,7.230620329768455E-5,4.387750838628831E-6,-0.24597453697197375,7.639950771007339E-5,-5.444758223399949E-5,-6.13058963097873E-5,7.639950771007339E-5,-0.030196920087080404,-8.757662323361485E-5,7.043262532061443E-5,-0.003475895401431439,-9.91076331508288E-5,-0.24816780031913813,-0.05636850842550485,-0.028079635265478672,-1.5973214700202798E-5,1.278290497662863E-5,1.0309521951495573E-5,-0.33753670143043735,-6.126119051205384E-5,-0.1067418899258537,-0.012331508343504254,-0.2942439484257267,-0.0408286110205339,7.082313446654919E-5,4.460103514791664E-5,-3.399611473463911E-5,-0.11848419735239574,-0.1135124680156733,9.777404187973446E-5,-0.0851712025594762,-0.0851712025594762,1.6433324417302616E-5,5.656763071491836E-5,-0.057322947768511594,-0.019579146488226302,-2.4218072587769594E-5,-5.262945440420185E-4,-0.2132387964259961,9.839894779096339E-5,-1.9468240214640277E-5,-0.383788880030468,-0.2439064853265771,-3.672693769514209E-5,-0.4544756274913924,-0.23363265541985506,-9.081427981766566E-6,-1.0342469286815859E-5,-0.4544756274913924,-0.4544756274913924,-0.4544756274913924,-0.2584136973755156,-0.3513158425486594,-0.1192068851166495,-0.1192068851166495,-0.17285539129034544,-0.0845132492007896,-0.06807925518058354,-3.3656275241146895E-5,7.783790597390312E-5,-4.762680088356104E-5,-9.605687066247974E-5,3.410068713868326E-5,-0.16474148009085668,-0.03725861944157369,6.380571537411086E-5,-3.722220731974204E-5,-0.11731790003548538,-9.051001257375032E-5,-0.11605966285115628,-0.126352518373439,-0.011081470463439946,-0.03957965240321656,-0.23157624930944964,-0.0028197188830477622,-0.016387681347729454,-2.1005426120849832E-4,-0.04756617201852793,-0.08224101120647374,-9.336029055605422E-5,-9.841251274553687E-5,-0.0048710156784881695,-9.425164536195435E-5,9.786226625335052E-5,7.495125868112557E-5,-2.0470905075899642E-5,-6.812196024466507E-5,3.649806680361577E-5,-0.2017363205970229,-0.07091421807368296,-0.12888275382473252,8.528636658138391E-5,3.524066882242414E-5,-0.07319763813720492,-1.4497647373163763E-5,-0.04415874505503083,-6.099896653908412E-4,-0.08998450460414009,-2.6198232610181126E-5,-2.848809017179271E-5,-0.0021775767338251713,2.762531089664852E-6,-4.6400650524402917E-5,8.690260005873171E-5,-0.19243282361332795,-0.08853038477577974,-7.48772737062435E-5,-0.08309273010574418,7.297961072291975E-7,-0.17943268194839718,-0.09160853274857997,0.89208468496843,0.7490545795693998,0.07336186340560147,0.9632760267322146,-8.598890649974604E-5,-0.008720324473070827,-3.460294733615828E-5,-7.881828098114847E-5,-5.672773313604809E-5,-5.684825190352059E-4,4.650202639229205E-5,-0.010457321015969205,-0.05191337601176596,-0.06809338500784479,3.65693894117666E-5,8.001680691568244E-5,1.0379441994075187E-5,-6.170949789551654E-5,5.9782439750837176E-5,3.11173303499674E-5,4.1324477145010486E-5,-0.20486424595015362,-0.14058067114187786,-3.554790443335555E-5,-0.013733134183233246,-0.44542138620842686,-0.36940082024923554,-0.20575995886743023,4.3340422145511474E-5,-0.44542138620842686,-0.44542138620842686,-0.44542138620842686,-0.017423982356444392,-0.004805176762685055,-2.4733086728936216E-5,0.13117323929796326,-0.45729830368987934,-0.08182928796830038,4.123825349290134E-6,-0.527721931946304,7.372548842723929E-5,-0.10857727973556543,-0.024401132768787737,-0.4095409830447386,-0.527721931946304,-0.527721931946304,-0.4033460073682999,-0.4550460169577511,-1.9043401284358038E-5,-1.9043401284358038E-5,-0.05502989421973854,4.050374745556031E-5,-0.29096093293785263,-0.3347208639600848,-0.2735095055784615,-0.2735095055784615,-5.02309945657236E-5,-0.09069111699521124,-0.19755776935900848,1.337393257976494E-5,2.1281345442445077E-5,-0.26934754042264064,-3.0363211406937658E-5,-3.0363211406937658E-5,-1.1675518287289962E-4,5.478070934185938E-7,-0.008499935685881366,-0.17862485217307789,-0.26934754042264064,-0.2516327402217671,-0.15592965254473853,-0.21612419023645058,-0.23591436455191497,8.742226337258679E-5,7.698807291446608E-5,-0.30644500925059975,-0.010719633978290448,-2.413340895523588E-5,4.295168130350518E-5,-0.30644500925059975,-0.30644500925059975,-0.30644500925059975,-0.17220451347320495,-0.23803322385811407,-5.213187727496634E-5,-5.213187727496634E-5,-0.023746927572808066,3.284232148994477E-5,-7.093152239261796E-5,-0.15782087902481576,-8.487742406445802E-5,-0.07891237633457646,-7.88086786826586E-5,9.212453129556494E-5,1.753005189696744E-6,6.944288651866591E-5,-0.18797819983520925,-4.006774349509936E-5,-0.004536043697756431,-8.46747315082058E-5,-4.006774349509936E-5,2.0624732680086535E-5,9.363625358973707E-5,-3.290569236489195E-5,7.089173323809677E-6,-4.6178930682920396E-5,-0.18971713470932455,-0.07162040576162977,-0.040755565543414043,-6.754364628746642E-5,-3.608065417348125E-5,-8.477406155109004E-5,-0.2310228296158242,-3.9819374821268444E-5,-0.05030437103624887,-0.012761592277575059,-0.2119088379224809,-8.285413988026669E-5,-2.938934098196151E-5,-9.004757975774816E-5,8.457392073355523E-5,-0.0472318991170695,-0.04273470312893004,8.935871143174017E-6,-0.06915219090418354,-0.06915219090418354,-7.301758151062354E-5,-8.473332347747303E-6,2.0389815946451705E-5,8.93825702958172E-5,4.403293981677955E-5,5.3642752372755405E-5,-0.11518676355793742,2.795437543073908E-5,7.269366551277175E-5,-0.2725687475266433,2.6847821180719434E-7,-6.586387200028244E-5,-0.3333413097861244,-0.1607042016819312,-8.808550564145422E-5,-8.808550564145422E-5,-0.3333413097861244,-0.3333413097861244,-0.3333413097861244,-0.21970003588754497,-0.29432946052057757,-0.05388881867424498,-0.05388881867424498,-0.1367895340455377,-0.07561239697261343,-0.007612758796967643,-2.0349626451921768E-5,-9.794730764164887E-5,6.736086479428537E-5,-4.3712272891115444E-5,2.055584286198093E-5,-0.12532816388351203,-0.02817353248528534,-9.270397158832972E-6,4.994241854416027E-5,-0.06290143061357414,7.809074119288453E-5,-0.07487827470057307,-0.0684938824999485,-2.6859167920252608E-5,-6.594571623870985E-5,-0.10876125782407989,5.087432218133905E-5,-4.168723289579916E-5,-5.9372159830404323E-5,-0.0029882736559645835,-0.009507820754757439,-1.6587033246279843E-5,-1.6587033246279843E-5,-7.983980800804284E-5,-6.271402855829474E-6,1.2541609851757094E-5,-5.3610232848837905E-5,4.4062519240978596E-6,-0.14242972222855582,-0.019191526107630072,-0.06344842610409981,-1.8785495498468676E-5,-1.943827943983145E-5,-0.003783188044531944,7.701514982888969E-5,-0.029735996320743925,-6.916458735955077E-5,-0.01482565675841524,9.01945512874529E-5,-7.241712122952114E-5,3.736031299828889E-5,5.953571934959274E-5,-5.634586136733575E-5,7.068181630867328E-5,-0.11778184956168673,-0.019655135579512616,-1.0081385378640296E-6,-0.023605577735939597,-5.137665521362004E-5,-0.12284289319609121,-0.032309443961908414,-0.26172988175108713,2.2239876853862728E-5,-8.439663530658109E-5,-0.30483022894722933,-0.2619360871054925,-0.1414691665916734,-8.63113917040932E-5,-0.30483022894722933,-0.30483022894722933,-0.30483022894722933,-0.06040199481833354,-0.012884984423165855,7.320411493418199E-5,-0.003092937666165976,-8.010561712074858E-5,7.016225646309185E-5,0.5632548278774211,0.18206571446546807,0.024041546093908364,0.6249360528423707,-0.09944782077329135,-1.715366367251373E-5,-0.005917096710505103,-0.03695209628298802,-0.033784555416233646,-0.09446764708073893,-0.0999942279735913,-0.011784770072593284,-0.008940665541031102,-0.004821833130607844,-4.57214124218911E-6,-0.00867644574790203,-0.054318479678918445,-0.015329957412009137,-0.006774781998073748,-0.28990292880197965,-0.24112574929706473,-8.18744054364772E-4,-4.8150244543266135E-5,-0.28990292880197965,-0.28990292880197965,-0.28990292880197965,7.47353415580552E-5,6.195214695762114E-5,0.245454781831518,-0.02266391941158813,-0.019570124424723927,-0.008044412389486978,-0.0042369602058957906,4.2263125024332424E-5,-0.061890203776113074,1.8071180206023535E-5,-0.03463328044843387,-2.714516846316956E-5,-1.5387619939892668E-5,-1.5410825688604094E-5,3.620237094194821E-5,-5.6779016003166E-5,2.7793902193516532E-5,-0.051919481965427845,-4.845592018153993E-4,7.974411321720871E-5,-0.1055635263975726,-5.292221299417127E-5,-0.10618316997895286,-0.011042334288314127,-0.02178643077958252,-6.279968311659871E-6,-5.8574486780875074E-5,7.224952697427154E-5,-1.4305694087494991E-6,-2.9560927125370326E-5,-0.19319310152755073,-8.093692916525702E-5,-0.0019646754517068793,-0.20820503616532088,-0.18866303934142362,-0.004932556948373225,-3.489205933196731E-6,-0.20820503616532088,-0.16840784897881078,-0.16840784897881078,-0.010907658760489772,-6.697615400309201E-5,-0.02696118797160207,2.198405557458775E-5,5.03210238892804E-5,0.05803400499279354,0.16035701874951586,-0.06773821701387871,-0.06686210237694916,-0.15577874618596324,-0.4850342065035015,4.837599522827538E-5,2.175060706142816E-6,-5.057892024274411E-4,-0.13146542560329083,-2.4292116207064876E-5,-7.434967316990773E-6,-0.021683956733852754,-0.18856970733829787,1.7264863472338704E-5,3.795478259954691E-5,-0.02862386926399928,-0.1852849344817535,-0.22376871374835589,-0.2334714104555922,-0.2943748422079432,-5.768346499082962E-5,-0.5580106641837839,-4.242841248839738E-5,-1.3324257200544631E-5,-0.04118066881672974,-0.14040378337412404,-0.4287325960967794,-0.46708762192446607,-0.7414679045164357,-0.5375592452892185,6.810869013337127E-5,-0.8357028242441742,-0.8357028242441742,-0.8357028242441742,-0.36324758135087687,-0.17766175973569004,7.926099853397756E-5,-0.008403840654673833,-2.82826591278663E-5,-2.82826591278663E-5,-0.03905774073385143,-0.16193713804451304,-0.3221618597417944,-0.3841568276419644,-0.5438215104167349,-0.1546935920202186,-0.021954604045428643,-0.6183261836660857,-0.6183261836660857,-0.6183261836660857,-0.26273923920358255,-0.1373021163283132,-0.17814261548678204,3.366457388384066E-5,-0.1727776391593084,-0.22084107124388977,-0.18449400948067438,0.19673149624099007,0.19506888610405562,0.26648286924586145,0.8048558227324064,-1.4944656082393598E-5,-0.1968919516032646,7.680006925183704E-5,-0.007440094795360583,-8.402154614422227E-5,-0.020556156594435146,6.447574371724632E-5,-0.13716253671985698,-0.061305530433261445,6.413491613060381E-5,-0.209644640591007,-0.03138475654163265,-0.35093975966206314,-0.03942355036396201,-0.3103257275727266,-0.19059047744502622,-8.036199381734557E-5,-0.1685102281995566,-0.02918176298122084,-0.286338411202171,-0.05991406741632385,-0.27166292357295413,-0.15117724413360928,-0.2882428737204084,-0.15432517143236743,-0.06857863539379719,-0.05936679261493326,-0.09992458099650932,-0.409001866212211,0.39931837098802964,-2.4446188302024624E-5,-5.1854565002749226E-5,8.618941680163041E-5,1.7068193610507556E-5,-0.027556696605257436,4.563144946698086E-5,4.617691361579978E-6,-0.645551044725739,-0.16955835898837102,-4.3793288679109255E-5,6.718146620913311E-5,-0.5788965814741869,-0.1470395072260543,-0.17713715740533087,-0.3017616838255875,0.010152217562422454,-0.2605150437573251,-0.028536865440061943,-0.06503854854727782,-0.0525207215981061,-6.417789188480754E-5,-0.002582214439828398,-0.16702470708490066,8.935353449476308E-5,-0.014832478779805203,-0.14221878871796356,8.887438301911271E-5,0.5154966186032511,-0.331004171392221,-0.10936977696149999,-0.17416238274143814,-0.0726823520009207,-0.06714463210388334,2.586222979485036E-5,-0.22274239661403467,-0.22274239661403467,-0.05993275252237164,-0.05993275252237164,5.245784806900378E-5,-4.794691254306482E-5,-0.035446000677823386,-6.992080358010394E-5,5.366532148468719E-5,-6.224840872649273E-5,-0.10418372394699316,6.429566095960289E-5,2.704036951298164E-5,-0.10751224803970957,-0.10516570768528181,-0.0781470605233647,-0.4880202041006958,-0.25714868675166874,7.537525760449638E-5,-6.769434707963048E-5,-0.4880202041006958,-0.4880202041006958,-0.4880202041006958,-0.1693165599201257,-0.3379286669003363,-0.06046352715434224,-0.06046352715434224,-0.14530309738967673,-0.028683986229052945,-0.009874956861454539,8.235020212862292E-5,8.03717976750261E-5,-5.9235075992950916E-5,-7.098174197752975E-5,9.363393280203035E-5,-0.08371222760873172,-9.494328873309181E-4,5.941770020707711E-5,-7.450128819044114E-5,-3.9263089663927955E-5,-0.055318237193305905,-0.03811389088406039,1.8917797585662997E-5,-2.4297891551188183E-5,-0.14070321895341656,-6.358574820471695E-5,-7.100233707606377E-5,4.032827895295324E-5,6.709313294519011E-5,5.893027697518166E-5,-8.594276354409388E-6,4.418964154414217E-5,5.0858677663169835E-5,-1.9563281155547007E-5,3.819251151383543E-5,1.5873412227650305E-5,7.755905826359457E-5,-0.08930018692951071,-0.04735905915998304,1.3165076063973168E-5,-5.2786518088222475E-6,-7.99944110240767E-5,9.641011012023512E-6,9.638558554770399E-5,6.041515683634797E-6,-8.192371308395727E-5,4.577890263025146E-5,4.894359007391567E-5,-4.0310943508665184E-5,7.522799667462016E-5,-9.853964973891431E-5,-0.11034038745298447,-0.031288221348223004,-0.029771943359126432,-0.018458387825806093,-0.3698483090243651,-0.30903275535199476,-0.1343360116751868,4.7480315086927225E-5,-0.3698483090243651,-0.3698483090243651,-0.3698483090243651,4.384436863571692E-5,-0.27218436518298994,-9.567377413426597E-5,1.074037942075631E-5,-0.015561617340938173,3.457911536600486E-5,1.8749921501703943E-5,3.283038450348222E-5,-4.5973119306641445E-5,-0.22848634511969157,-0.18813947674567044,-0.002911486576657362,-2.6993864610935477E-5,-0.22848634511969157,-0.22848634511969157,-0.22848634511969157,7.830879554478883E-5,-4.6692694521666204E-5,-6.826775062050061E-5,-0.0024516147178058906,5.255920550127475E-5,-0.04853994138297236,8.792264408826898E-7,5.773499316006413E-5,-6.751948379460246E-5,7.603934319903216E-5,-2.0896248287589772E-5,6.763792656122352E-5,-6.199738062882025E-5,-3.153262681833847E-5,-0.029252646312948136,-0.003311203463863798,1.3965183242380477E-6,3.653120693562554E-5,-0.22480897454671767,-0.2533845741516528,2.0949422454258457E-5,-4.8237542949058063E-4,-0.07143687582559866,-0.044096485505013314,-5.75232813737937E-5,-0.10011647454373862,8.206327856522963E-5,-1.1769455540281929E-4,-0.034234565522479256,-0.17346942309582963,-9.564135791380843E-5,-0.019863644479620256,-5.6542104089947506E-5,-0.023788791557158805,-0.040447172447638395,-0.30772609965253583,-0.7242142714520291,-8.440564048831724E-6,-0.021770230173498148,-1.6461609320274741E-6,-0.030135450563347512,-0.04893342394219188,-0.24567590268869088,-0.12257170686778027,-0.2820019147392975,0.4395742215277715,0.39893363944657273,-0.09901916688966703,-0.154860863608889,-8.637879588007568E-5,-0.15785017841481147,-0.39216772412506895,-0.39216772412506895,-0.17132769505619583,3.127414997835672E-5,-0.13519611167356255,-0.3439273602950678,-0.2779866519075776,-0.2779866519075776,-0.1572593615739876,5.43152569160919E-5,-0.09694593755696895,-0.22502737459679484,-0.5572558533641979,-0.2617129202126192,-0.14280234983287682,-0.44113923170807956,3.0020181593838207E-5,-0.16751036611876646,-0.7339014826821737,8.401678287898534E-6,-0.11603906064249594,-0.03383330482050094,-0.4630957745523393,-0.7339014826821737,-0.7339014826821737,-0.38758413664567276,-0.5999220692192703,-9.828745920228895E-5,-7.888299496020238E-5,-0.05755914057145469,4.317104727780965E-6,-0.3477340129010374,-0.4300489901867179,-0.3466968878541849,-0.3466968878541849,4.411869891296098E-5,-0.09674246452208457,-0.25259579609751176,-9.544829075341779E-5,-0.05306454007220008,-0.4617218551197936,-1.0521550942924112E-5,-1.0521550942924112E-5,-0.031837442730617664,4.171020325832012E-5,2.151756912291457E-5,-0.2735289868676378,-0.4617218551197936,-0.3626513006600512,-0.1567324305899411,-0.3188771983170006,-0.175544993059831,8.554559064557777E-6,-0.014852395806527398,-0.4368017213346348,-0.11100061864321344,-4.3085606417834905E-5,-5.7100065726784426E-5,-0.4368017213346348,-0.4368017213346348,-0.4368017213346348,-0.1776546039078069,-0.32385250539204796,6.850459233308557E-6,-3.7935875064521314E-5,-0.11791448282117764,9.240061525625832E-5,-3.359365571772662E-5,-0.261951440821218,3.473169265879214E-5,-0.1559082473441891,-7.314285233235663E-5,-7.314285233235663E-5,-8.787834008094337E-5,1.350577027214018E-5,-0.27637987936282377,-7.327198722648061E-5,3.9657729642853884E-5,3.9733188340450434E-5,9.839613448651166E-5,-8.905113717832554E-5,8.783399572141622E-5,9.675818507221997E-5,-0.0010138404231599864,-7.770167604159367E-5,-0.2464882240114933,-0.007770714201749443,-2.0962396344486006E-5,-4.889954514343496E-5,1.2239925107634841E-5,7.207393861658929E-5,-0.30187955991397764,4.42854020699782E-6,-0.035845072320215055,4.457980425473382E-5,-0.3037712394208451,1.579733788892662E-5,9.368630743522346E-5,-6.882798566215549E-5,7.641320589456507E-5,-0.09635954698922891,-0.09659703648501196,1.713068174117124E-6,-0.10913204714009728,-0.10913204714009728,1.1848696646546479E-5,9.468333159850381E-5,-0.04983411583382904,-4.934349649325888E-4,6.109133102027934E-5,-8.826949594389062E-4,-0.15179088862140847,-7.295429227399321E-5,-2.3745539819850506E-5,-0.18141183228702573,9.234719207779535E-5,-0.01829314404561509,-0.5005411507065238,-0.2025178312887315,-2.2510799551852365E-5,-2.2510799551852365E-5,-0.5005411507065238,-0.5005411507065238,-0.5005411507065238,-0.197962130944996,-0.3664265723683044,-0.10293331142057068,-0.10293331142057068,-0.16934099291678403,-0.10162688455869415,-0.07578934591227456,3.938200277955127E-5,4.163621240664428E-6,-4.901254091270746E-5,4.9397593493978885E-5,-6.133880739543022E-5,-0.15508023950829342,-0.03148973768569104,-1.916658862332479E-5,7.0267687434117385E-6,2.3068904363679515E-6,-0.03998580568067551,-0.0429526354166402,-4.6592144829362596E-4,-4.525508872911235E-4,-0.1810461068543192,6.046041358606893E-5,-6.223260312525473E-4,4.687233137432481E-5,-6.492337594116739E-5,-5.185216405009839E-5,-1.8091725378972112E-5,-5.7853579709979256E-5,1.2874323669631013E-5,-9.8370215397925E-6,-8.144247241535069E-5,4.08081231908233E-5,-5.5609007694823744E-5,-0.1289626076071491,-0.12421051867437068,-8.42066856547639E-5,-4.254655674676124E-5,-0.013780506461389693,-1.7747842276762433E-4,-8.092151708654652E-5,6.372757169702768E-5,3.57453316181044E-7,1.5454416682302314E-5,-6.439432935067654E-5,7.369230950591918E-5,-0.1419953756376382,-6.038888926185852E-5,-8.306792686623488E-5,-0.1306685106438224,-0.13012515911671166,-5.341084074033531E-6,-0.025174197240907997,-0.35939347532981475,-0.3161951615255016,-0.1617809133269024,6.118569308804174E-5,-0.35939347532981475,-0.35939347532981475,-0.35939347532981475,-0.011445196180962479,-0.2930267819093107,-7.457176512642576E-5,-3.227815420910556E-4,-1.2056067086223802E-4,-0.047724678075885915,-4.230139615543834E-5,6.031402012927896E-5,-0.21509622556541186,-0.16337902744616195,-3.26568290355107E-5,-6.082604511451537E-5,-0.21509622556541186,-0.21509622556541186,-0.21509622556541186,-6.040404608672927E-5,-0.19092541319927384,-4.801945813919069E-5,-0.012201731773229727,-0.05405263485281139,3.1599825044975203E-6,9.873355516079379E-5,-7.70743847594754E-5,-6.538466084944927E-4,-3.0724091791128205E-5,1.5075300100062151E-5,5.474474973737054E-5,3.6288708925305492E-6,-0.09473947569331793,-0.24608742687470714,-0.06480929296305628,-0.01538290024523067,-0.256909165049445,-0.07565631922772048,5.398864241889088E-5,-0.083575259101022,-0.00511376113601337,-0.09465697384067495,-5.171087147894651E-5,-7.523873847177622E-5,-0.003037803779067675,8.557219128861024E-5,-0.12060188508719966,-0.06415733685912647,-0.039471553551065866,0.7608448111728068,2.8889026684466717E-5,0.40174905214798257,1.06389923080773,-3.062542269340654E-5,-2.8629660914995942E-5,-0.34141863000321143,-6.418425172955163E-5,-6.418425172955163E-5,-0.051463172795710624,-1.6094509671888622E-6,-1.6094509671888622E-6,-0.1494039916160476,6.870035792701716E-5,6.870035792701716E-5,-0.11399341152873256,7.082851077077083E-5,7.082851077077083E-5,-0.2695689432197433,-0.08390476266782432,-0.25933738599037953,6.66799515830583E-5,6.66799515830583E-5,-0.20774965395571118,7.748293122484274E-5,-0.20165008036334361,1.4833938791712484E-5,1.4833938791712484E-5,-0.3938459994068993,-0.4253090202482031,-0.15182510477830502,-0.5656344907134543,-0.6707287003354966,-8.858911221860835E-5,-0.2960012321882877,-1.0682044706597913,-1.0682044706597913,-1.0682044706597913,-0.5227443160971533,-0.3655024630864605,0.03471010970969733,0.03470575821794,0.6018751857796737,-0.041668940876876934,3.345911838865596E-5,-5.4561633854377326E-5,-0.04813361067878535,-0.04813361067878535,8.227241613295691E-5,-5.923289678417573E-5,4.896453255251924E-5,-6.812525042845048E-5,-0.22205044862825182,-5.875993398946289E-5,-5.875993398946289E-5,-8.120900270889816E-6,-0.21185502546715881,-5.763489634495339E-5,-5.763489634495339E-5,1.9995759172805784E-5,-0.23661609647750997,-0.34399194730685545,5.7089106705514184E-5,7.285160201978145E-5,-2.436056758124786E-5,0.09944092373423435,-6.543525030107967E-6,-0.23205697313091736,-0.3220629703311651,-0.03362026754863309,-0.13194644887198811,6.209730811962756E-5,6.878775032144154E-5,-7.636750444405102E-5,-6.886919636124009E-5,-0.012889463354031483,-6.389037322391514E-5,-0.0012169790565126901,-0.7603835860224425,-0.2663597967467185,0.23970836063785267,0.07790787705590171,0.07790787705590171,0.09087987550364167,0.14081667846977838,-0.15121944597946507,-4.56947539182764E-5,-0.01434733598546769,-0.01434733598546769,4.86356157387991E-5,-0.15696949180215736,0.2359230295635081,4.569475391827141E-5,-0.27145185746520795,7.100644098871243E-5,-6.236794509114919E-5,-0.17457143599259672,6.23679450911507E-5,0.2794062270792007,7.24823687028171E-5,-0.007806887481178197,-0.3536129403439151,-5.83647362563739E-5,2.31492367107456E-5,-0.16151422430539641,-5.001913881170982E-5,0.09471261925684085,0.5948040671772918,0.07680789430600671,3.504709106891439E-5,-5.262911153884827E-5,-1.0950306739021195E-5,-1.0950306739021195E-5,-9.733521747221354E-5,-2.0009087833621647E-5,2.5752733245951512E-5,8.083402628756165E-5,1.5270083318243832E-5,-8.447166753773383E-6,-4.04650874030354E-5,-4.754750647582745E-5,-0.006867463429511765,5.350705671307644E-5,0.0022437856343208726,3.4812863932080245E-5,-2.5272211119454368E-5,-6.048325424066125E-5,-0.31161878496591405,-6.700029734662525E-4,-7.926679159505961E-5,1.7633743671040112E-5,-0.1894644898100632,-0.02509372309971511,0.3833250173986076,-0.18109678849718125,3.584801270901258E-5,-8.961188429821817E-5,-4.454620751067649E-5,-0.15976891989772846,-0.13592625635725755,-0.02315368322836524,-0.004629072442687991,-4.7263618955178463E-5,0.301764690477759,0.24968131607650312,-1.0208738670995743E-5,6.719295290715926E-5,-0.22653260775301767,-0.2170233626336454,5.057159966704348E-5,-0.3346260273895738,-0.0973803006455452,-6.441126033946478E-5,-0.3873105826225783,1.1279363460497401E-5,1.1279363460497401E-5,-2.7267452443400028E-5,-0.15041206429238574,5.907289886413522E-6,-0.3172302615609464,-0.3873105826225783,-0.3873105826225783,-0.14301847609713728,-0.3309244784825782,-2.4536818395496442E-5,5.0352930596642424E-5,-0.2484078229367035,-0.2788131933409741,-0.23097639036057466,-0.23097639036057466,-0.10806196145643183,-0.15216292528333475,-0.05546737740928808,-0.01792933307726327,-5.8566791168194904E-5,-7.871949003337595E-5,-0.15659986277874424,-0.09141635315252539,6.515580016312078E-5,-0.20707727216533803,-0.048761541125337135,-5.462629394759015E-5,-0.17020727110265207,4.2754936993160325E-5,-0.06692310915132671,-0.24740231836029564,2.957857399803844E-6,-0.05687338927927203,-0.10155225819891456,-0.0022309321295868097,2.8403515716070304E-5,-0.15119402445301858,-0.0027964805102600535,-2.0644948558367243E-5,-2.0644948558367243E-5,-0.15119402445301858,-0.15119402445301858,-0.15119402445301858,6.3019338513495E-5,1.916242504631049E-5,-0.0010326760293623816,-0.23852035657072332,-0.09447239426218701,-0.14016181343962636,-0.0609005394785907,-6.718790045801964E-5,-6.718790045801964E-5,-0.24018667292556228,-0.001400119544315258,-0.11635248734082992,-0.15688094035529315,-0.04865406789299044,-0.04719577378568288,-0.04340300349145851,-4.88984053380801E-5,-0.04353676047245808,-0.1639750611957604,-0.056898235523753934,-9.137129920288419E-4,-9.137129920288419E-4,-1.4100364865186747E-5,-0.0922775667062158,-0.055968974200773854,1.6462138501418877E-5,-0.14258776039194804,-0.02719523013517227,0.5134111566499245,0.1855255717557603,-5.202838378615059E-5,0.5621070243699615,-4.45632208778299E-5,-0.04532345156446001,8.018488262648781E-6,-1.6775066644372165E-6,-2.5320024110438508E-5,-0.0599386996511737,-0.007634362221366667,-0.0035360215356155795,7.435631094593299E-5,-0.1564888516002106,-0.13864267152282905,-0.007442235644580795,8.5162239300085E-5,-0.1564888516002106,-0.11382293082994559,-0.11382293082994559,9.546176596729353E-6,-8.912951501431646E-5,0.026946584891193247,0.13791325056887305,-0.08489282817484842,-8.832213414563377E-5,-3.3575415316539084E-5,-5.873161125523183E-5,-0.37084547987631533,-0.3603498916365354,-0.5038743142424374,-0.39066602944341255,-0.1775077193330007,-1.8801918301544627E-5,-0.5659643138308971,-0.5659643138308971,-0.5659643138308971,-0.29844553337954544,-0.23644361601960429,-0.11493070111481817,-0.10011437880208993,-0.2471101221154792,0.10895846128005789,-4.645166282385599E-5,-0.1167018643864658,-1.3445423954197843E-5,5.132224515756273E-5,-0.12986588580891287,-0.11187512493457542,-0.1515504738014623,-0.11952027627302553,8.78007245560451E-5,-0.1449356832851894,-0.1449356832851894,-1.6777194645507094E-4,-7.616631079521166E-5,-0.0026994064899058066,6.680284127114052E-5,-7.533000203091181E-5,1.982542979580521E-5,-1.2081719034677144E-5,-0.04715139883468924,-0.04715139883468924,-0.18740190535480242,-0.04584338604737437,-0.3931250759194716,-0.22605615912542537,-0.1614745323899897,-0.17831199908929535,-0.045802140569881584,-0.034730637095557015,-9.005469287036841E-5,-0.2468612695499932,-0.05192712006633415,-0.14216974778254285,-0.0486770729311744,-0.1745094024685661,-0.3884048531257444,5.6752295876811104E-5,-0.08559100525968723,-3.540583573037019E-5,-0.057684029990119116,-0.3029155486544336,-0.200020380672898,0.6627984911531751,6.831327037920539E-5,-0.27501093319263803,-0.18496516230019924,8.507110464612111E-5,-0.07376450494568673,-0.003586054255394149,1.4921825767737082E-5,-0.00973884407941434,-0.12188909888779294,6.937933130535397E-5,-0.24316680532889778,-0.1134062092492994,-0.27609115350218083,-0.3849139901953319,3.151244523134987E-5,0.5201484660197375,0.30154796925170024,5.5066192307981E-5,6.287236861777793E-5,-0.2772003277789696,-0.2772003277789696,-0.2954771467438035,-1.9800665696451475E-5,-0.230851389059427,-0.1576382543083311,1.5862779068471713E-5,-0.2264829910217484,-0.13018512873183474,4.4202465057015516E-5,8.438143548068452E-5,6.64919260621337E-5,6.64919260621337E-5,-2.283607306415928E-5,-0.002395895132167688,-0.04617171946783701,-2.0244273467035656E-5,2.233369573471927E-6,-0.0727892480398497,-4.096270559672443E-5,-2.3511104748485235E-5,-8.602479587185526E-5,-0.0407973501870138,1.7439865569977652E-5,8.007544227500859E-5,-6.149706557649088E-5,5.834895261932181E-5,-1.6554607421417512E-4,3.070692167805479E-5,5.698203870561084E-5,1.3718501110133037E-5,1.5126522188319024E-5,-0.19770117879563087,-9.009169062748292E-6,5.585872128305186E-5,-0.3158795151860582,-0.14722159621931805,-9.38809875833189E-4,-1.8562932141972296E-5,-0.3158795151860582,-0.3158795151860582,-0.3158795151860582,-1.0589680575830635E-4,-7.517259158653608E-5,7.682660376592803E-5,2.113303529471843E-5,-6.316824759882075E-5,-4.914888725592208E-5,-4.10746759362716E-5,-6.261345573509217E-5,-4.419147389318553E-5,-0.05673139154460793,3.297884334238911E-5,-0.0038989932400963568,1.8876418001769564E-5,-1.9163716935056833E-5,-2.315754222228115E-5,-0.23228273783788247,-0.4982199386018289,-0.13579093066121706,-2.0351571622877852E-5,8.270496991990089E-5,-1.9855418800784273E-5,-0.3646094812290179,-0.5936934009667931,-0.14366831627405569,-0.24090454563136163,-0.0068216860412205205,-0.11803167428641391,-0.11340907979036931,-0.22255203676439814,0.6489017202657423,0.9809281210952686,5.596273037304425E-5,-0.108196882107911,-0.24784517704899117,-0.5509491393503734,-0.10620690907046547,-0.018833748891393165,-0.019572023386906647,-0.008022040131237779,5.1996578297391265E-5,8.05034805861142E-5,-0.2769756873374737,-2.8872538547347983E-5,-0.056324507803973106,-3.503526000599794E-5,8.90541251202066E-6,-0.12566221201628258,0.22474775262863098,-8.664246373107859E-5,1.794385757160962E-5,4.392542670407531E-5,4.392542670407531E-5,-0.0869380889521119,-1.9166368345877738E-5,-0.041621797126822804,-1.9166368345877738E-5,-0.05425160148605149,-0.1259729728553056,-0.15857488575191453,-0.19589905386130657,-4.338647010623215E-5,9.214100481677144E-5,-0.11204336638073248,-0.1720028407482828,1.3084670189985226E-5,0.03556085606351152,-0.1363023232698454,4.903725072763043E-5,-0.03390795333998475,8.543688967814841E-5,-0.04886179554195709,3.0947567906953736E-5,-0.011755229391994065,2.788717228687887E-7,5.842732760155415E-5,1.0126978483953182E-5,0.3106364096670553,0.0021199605425697055,-0.14612003283420028,-0.0038184462934659847,2.243604322991341E-5,-0.016439459531014593,3.339718431442351E-6,-2.4868306297140693E-5,3.354949697317221E-5,0.06690701287929525,-1.3458449230809174E-5,3.659831834391448E-5,6.356413337765215E-5,2.6294175954368645E-5,-4.355178238631829E-5,8.673544836237273E-6,-4.3709363248933304E-5,1.7510460349153586E-6,2.5086449453973832E-5,-0.04666428357185669,7.669983612458597E-5,7.711037521019389E-5,-2.305159697841682E-5,5.4542038914164053E-5,5.9452185761036686E-5,0.0630579283971918,0.018488520743734003,4.429199373062989E-5,6.421760519101156E-5,8.040386880133328E-5,-6.456514851137083E-5,5.339061658440162E-5,-3.937569447345088E-5,-7.343604356114951E-5,-9.159267499570547E-6,7.086230075548328E-6,-4.5684096566691335E-5,-2.920763359505883E-5,0.048343972176354166,-0.047946081990311064,-0.08491584275081464,-0.006717518749123717,-0.008390652565315211,-0.03900712151118623,-4.0108488249028775E-5,8.294389559364941E-5,-1.4369157920780064E-4,-0.022610817207775403,-0.011854663124889312,4.687979184537968E-5,0.1645437329908888,0.27299745949687737,7.22156249371265E-5,-6.029785700519951E-6,5.2620113784916555E-5,6.20766613430824E-5,-0.01732555268722821,-6.453900109685649E-5,-3.783991639940703E-5,1.6949341527564167E-5,-1.8921675451855205E-5,-0.04873894617260395,6.71875296322642E-5,6.71875296322642E-5,-2.0109509326588046E-5,-2.7073235336109354E-5,1.04115416426845E-5,8.738510784251507E-5,-6.135039447878663E-5,-0.0026399316383440975,-0.17405685092672585,6.593735765390634E-5,6.794035003404948E-5,-0.01787481073292535,-9.994146054902354E-5,-0.035293299214513275,-8.44139741184159E-6,4.042031280603598E-5,-0.4124101426890498,-6.639890627757596E-5,-7.758860132943608E-5,-0.017954816517190098,-0.00670059440653528,-3.536175519760427E-5,-4.754408783518596E-5,-6.675422876755278E-5,-0.11675155792547358,-0.1631498292278794,6.430618538457782E-5,-7.065338416217538E-5,-9.740277456573143E-5,0.10791311904278672,0.34002817705394717,-0.3098178546209048,7.5254430566116E-5,-0.1346817912045646,-0.2281631017649386,-0.09510942182933502,-4.7030900003700596E-5,-4.221355551017618E-4,-0.09613336449893328,-0.08835818106278381,9.371391605876231E-5,-0.023529433274506514,-0.0874806023710539,-0.15639083867681686,-0.08129117215537171,1.8815118138867926E-5,-0.018199274592485683,-0.10705901014713749,-0.10705901014713749,-0.05597952379316212,-0.024209320936285486,-8.557364964272589E-5,-0.0012651931677816197,-0.06496383621582694,-1.2371719945784664E-5,-8.767391580180027E-5,-0.16009544465348508,8.344627583186787E-5,-0.0010606186329454202,-0.30974606650947073,-0.14279022141949443,4.422959332356469E-5,-7.028109158300302E-5,-0.30974606650947073,-0.30974606650947073,-0.30974606650947073,-7.834938379873077E-5,-0.2579871535843652,-0.018565107204982778,-0.09453210652577555,-0.04923852400680556,-0.06415607207541899,-0.004177870905960071,-0.0023090045734152826,-6.506981442396885E-5,-6.506981442396885E-5,-0.05384267762698451,-2.7611108486470353E-5,-6.0317360759432797E-5,4.790739004693384E-5,3.909253847208334E-5,-4.6447420830807943E-7,-1.015795591796491E-4,4.093503894605276E-5,-2.5134747734518922E-5,-3.2879847213300486E-5,-0.07508890188874189,-0.0013309024086957074,3.771845699606403E-5,-5.98191704078022E-5,-2.7795618091910174E-5,5.107479004114732E-5,2.3066098006450665E-5,-0.14026287286879674,-7.770047978718393E-5,-7.770047978718393E-5,4.284368707785957E-5,-5.004744884731523E-5,-3.0338854978232506E-5,-0.02703353265173851,-3.4040496546389624E-5,0.4536654943321553,0.0149209326674769,0.2531173700782218,-0.20630964368074006,-0.22331446915222547,-0.0925409626991727,-0.06799775964132543,-0.07627565899565553,-0.0014128765387625148,-0.06814068770817068,-0.07233469328493335,-0.004900873825034597,-0.05043913583322358,-0.007008920676192635,-0.09328029048723993,-0.10259615803793903,4.7653905596363184E-5,-4.8731976068837414E-5,-0.0019061103040428887,3.792496028264111E-5,-0.12358708229118051,1.1428521013139681E-5,-0.05777401101443407,-0.005439662102724615,0.3719694999956122,0.3846988425002611,0.23415834001171432,-0.041213671760904846,6.480742982907376E-5,-3.975727729711559E-5,-0.31420685512673224,-0.1845463150813501,1.9796062074571596E-5,-2.9658237969792316E-5,6.010177717897856E-5,-0.08354451077027827,-0.47861429841086384,3.389823928921342E-5,-0.16635343785342258,-0.3071762389479466,-0.39884128429611015,-0.4006131445905308,-0.09964123877764305,-0.27066671746875054,0.10333440486264338,-0.06313225783661533,-1.0187303441680246E-5,-6.901363982832811E-5,7.829834594530023E-5,-3.619703484498888E-5,7.360799157538848E-5,-5.283424241691624E-5,3.841239318272718E-5,8.521697567018222E-6,-3.330194056463553E-5,-2.407963126241579E-5,-0.17367677514614221,-0.006730214827463851,-8.592790937083755E-5,-0.21485013140590398,-0.1043056141873537,-6.180250410156492E-5,-7.08662359837101E-5,-0.21485013140590398,-0.21485013140590398,-0.21485013140590398,-0.129731336046293,-0.19909179265295698,-4.3691946896374636E-5,6.288604891311808E-5,2.0236849453892074E-5,-0.04606125682447374,5.3588367951346586E-5,-5.200140144801351E-5,-0.07165493479969302,-0.004658293976850937,1.302063229825681E-5,4.153478514152959E-5,-8.270217097135404E-5,6.761981048024289E-5,-0.33665349548723034,-0.006402197163061883,8.776376106673366E-5,-1.4907141654884774E-5,5.6290259206639054E-5,-0.0754404780553352,-0.007502000849194933,-2.1153715841546472E-5,-2.1153715841546472E-5,5.803051751797754E-5,-9.965731790114379E-5,4.570793878492371E-5,3.216906247773034E-5,-3.612960009876505E-5,8.860819049700262E-5,7.873400266189041E-5,7.14311654608626E-5,-2.8543605826250346E-6,3.102222317424643E-5,-1.599103002062168E-5,9.399153511617086E-5,-7.00198770222348E-5,9.866775568292143E-5,-7.644723473565501E-5,-4.662371034813763E-5,-0.09715397291551624,2.0438853703267973E-6,1.1243049084342331E-5,-0.0011773712826900744,8.621008159905583E-7,-0.056376423599352334,-0.06980682574621251,3.173746977062179E-5,5.20480255078356E-7,3.416356090246394E-5,1.1231928000759273E-5,0.24117367088075958,2.7215495560727033E-5,-0.05399580268388324,-0.29780569747080926,-6.413386085511701E-5,-0.08548095235705273,2.8280257528840938E-5,-0.0553919744993668,-4.6728278719038787E-4,-0.02838956503950082,-0.015223016018794031,-0.20665390731296326,-0.006333759730076608,0.1642945734631526,0.5535865417621461,-0.0010871618219078483,-1.213485103090066E-5,-1.977229394411475E-5,-0.19194075796390792,-2.0951445437895184E-5,-2.6689857114910257E-5,-7.643258117293923E-5,1.2242899441787945E-5,4.8607297573825306E-5,-2.6731478863646516E-5,-0.1578018398951879,-2.521656305978323E-5,-0.0022620646457940656,-4.087463473886038E-5,5.688908461811131E-5,-0.02497441737668701,-0.058293577022353306,2.1953158243725318E-5,-3.554625972044342E-5,9.61397124277602E-5,-4.392697251399025E-5,-0.03416878640898229,7.18469092069993E-5,-0.002451462890607983,-8.154049107207818E-5,3.247283247250842E-5,-0.018307420687464812,0.09534865397500453,-3.2398694381155355E-5,-2.3672986356713835E-5,-6.717168529689627E-5,7.359932385687517E-5,6.36131250159541E-5,-1.0580631036170282E-5,3.168634578902614E-5,5.041819961708059E-5,-0.001927346441680373,-0.24450254633092683,-0.03292537244363693,0.009675793133879389,0.010785071185401531,-0.03904843055467172,-0.05040039262939244,3.472339533312866E-6,2.291930271189799E-5,-2.7947123149959667E-5,3.783877059364578E-5,5.611006666743693E-5,-2.9727609751028025E-5,-7.347612445670731E-5,2.0339701301112068E-5,5.6615599713736813E-5,-0.0028532598426998343,-9.850863644952753E-5,5.694407908502088E-5,0.13708968245795577,0.2039500285970365,-0.06223436514183793,5.0128048795914986E-5,-2.948733124777099E-5,8.325419116964691E-5,8.356698648540536E-5,-2.21546294000059E-5,-0.05825769923900554,-0.08691088175207817,0.13546034228674597,-7.16487707112541E-5,-3.9409487600699876E-5,-0.0037105230548407893,-0.2721407221725551,-0.1487987983258162,2.2411290317952065E-5,-0.01416985394280466,0.029450502796996184,2.396954436285583E-5,2.396954436285583E-5,-7.048315934203072E-5,-5.025263008369749E-6,5.397799321782491E-5,5.397799321782491E-5,4.682546876675232E-6,6.847117533169444E-5,6.847117533169444E-5,-5.6804703674710244E-5,-0.01913297975711016,-0.01913297975711016,-0.04442388796903059,-2.1373352509524704E-6,-2.1373352509524704E-6,-9.164383438795217E-5,0.033621381601166504,0.033621381601166504,0.03372557999676791,-0.07092426548458977,8.784929282320067E-5,-0.0034376893932583493,-0.0034376893932583493,-0.0026580061336497454,0.17744103542247588,-8.784929282319416E-5,-0.002557156873370948,-0.002557156873370948,-0.06816852219704436,-9.761132795431677E-4,-0.20163141447266872,-0.13839725421677926,-0.003184334663506644,0.005624971064961725,0.005624971064961725,0.15450534235439448,0.0010197970375288717,0.348088188769927,-0.0010676179729036147,-0.1496373807070154,-0.05711489309800351,-0.02312612929634499,-0.02312612929634499,-0.07779894835296865,-0.0023084845724450484,-0.1608843616760111,0.0010504502447640863,0.26491499996195383,0.18588486448655273,-0.4795461524587203,-0.04569801855766482,-0.02930799146696958,-5.577897802304067E-5,-5.577897802304067E-5,-4.1690869954606876E-5,1.2576297306029116E-5,-2.9902230148531945E-5,-0.08288868235224284,-7.035330854424747E-5,-7.035330854424747E-5,-2.51766145959103E-5,-9.59341459417453E-5,4.91872164827792E-5,-6.925233390050346E-5,-4.951073388164124E-5,4.903540526849217E-5,0.8039292640979846,0.16661044541673453,0.1485952630511823,-0.07418290692175653,-0.09023996749690029,-0.023037207778600532,-0.0015638277589290475,-0.08581158336758639,-0.05102592581398047,-0.0014111044428701004,-0.06585806944023802,9.873397129913784E-6,-0.7533748878083785,-0.09043526620950418,-0.14260260873174876,-0.4514871186981581,0.16290925353862712,0.20909837169575113,0.035341996209670073,-0.06474431615166112,-3.092488166880237E-5,-0.15608761412537597,-0.4146693969473054,-0.0018391067151207253,-0.004910568495342873,-0.0010149295719372984,0.12362648602011654,-0.050523499788368884,5.6328364836960115E-5,-0.23065379198584304,-1.7856728210810866E-5,2.5849909435946163E-5,-0.4474042136439704,-0.24356897172372166,-5.50965227213228E-6,-1.3030249023199036E-5,-0.4474042136439704,-0.19656124067974323,-0.19656124067974323,4.9277824994318116E-5,7.794736084121973E-5,-8.379280011628574E-5,-2.835021919943639E-5,2.728801286294789E-5,7.689575227712006E-5,0.17618122515137535,0.030465331305757275,-0.01996999190891699,-5.145385230288854E-5,-0.06552348549806954,-6.753242125150199E-5,3.1710329224128834E-5,3.732289336587761E-5,-1.8536216675655025E-5,4.8484054108008715E-5,-2.9701519779504356E-5,0.0878665254959472,0.06992483560384131,-0.04905713777331269,-7.232000084757681E-5,7.445252171738674E-5,-0.03322700645193552,7.933190081477246E-5,4.072327417558783E-5,-2.7663242961358805E-5,-0.4894916994933539,-0.2278291905444029,-0.12390003827823254,-0.1234330207916827,-0.01177315661400079,-0.056161725601650864,-0.08914579640506808,0.1900030209591262,-2.193013564443503E-5,0.001648195616947045,-3.770117435011515E-5,-6.930678809319937E-5,-6.930678809319937E-5,4.394935063668373E-5,9.295601698675248E-5,6.600426446017155E-5,-5.280495775356165E-5,-5.280495775356165E-5,-2.8836530083351338E-5,8.844309705257433E-5,2.430368918456189E-5,-5.0993991297319056E-5,-5.192911157298816E-5,-7.516159076245653E-5,-0.11639393416953464,-0.1128543980053661,4.4828350015204386E-5,-0.4701868291138591,-0.22628431679085162,-2.122402857756295E-5,-6.922956061604005E-5,-0.4701868291138591,-0.4701868291138591,-0.4701868291138591,-0.04435500156285279,-2.1599653042192975E-5,-6.212359657092612E-5,2.9178806140884553E-5,4.196718684908834E-5,4.689657962540192E-5,-1.2183355611400842E-5,6.233397789202205E-6,2.407843610515879E-5,-7.615029001316745E-5,-8.094534041341202E-5,-0.0011553674049194084,4.621711685384356E-5,6.940203215352268E-5,8.118070325330843E-5,0.049227426021900375,-0.052085149122276964,2.889834649999156E-5,-0.06269420339056563,-0.18883244192440787,1.2678550495498025E-5,-9.983255379148934E-5,-0.37662674463905604,-0.37662674463905604,-0.04190975421379797,3.60657131287873E-5,-9.181118581696768E-6,-9.222183024082247E-5,-2.2305059827807365E-5,3.562068703323468E-5,8.200766329405063E-5,-1.9293228007058336E-5,7.308662129894259E-5,-2.183481534852353E-4,-4.7333691870655645E-5,0.15848481650048676,-2.3844254813495578E-6,-6.990073387279529E-5,-0.43405657374638956,-0.43405657374638956,-2.8811967736160608E-5,-0.11865348695674464,-0.26688769615585944,-0.1860358030338888,-0.13032112497631326,3.9874607317216405E-5,-5.3654697136556244E-5,-2.6651553504071027E-5,-0.08253025777652813,-0.09728058479023118,-0.0015079548273347915,0.06160077218664933,-0.2192068849709123,-0.21865832684285405,-0.021118642401345557,-0.04761020227941008,-0.00547978559670024,-1.1282209692838958E-5,3.758277088302482E-5,-0.14243907155461166,-0.4728283726792528,-0.7949902981603084,-0.2117709279531697,-3.5258728960288135E-5,0.11171640012416621,-0.03376364821012192,-0.31807800042127315,7.419519967723794E-5,-0.0015444561596352345,-0.10536791516938501,-9.999954914086419E-5,-5.9122243803377186E-5,-0.07438627298407831,8.836681946765117E-5,-0.10014271787616168,0.09836210220443348,0.549012536551453,-6.256846638562173E-5,-3.568180844348108E-5,7.886902570056022E-5,-5.675154216409678E-5,-0.057860822243595615,-0.3611724786962844,-1.3080468328508567E-4,0.004929281289180499,-0.2822865409640883,-0.38072271993016893,-7.798550134917011E-5,-0.008906262375873256,-0.002908446717317941,-0.0056150750760223045,-0.23915388165203683,-9.459103109291485E-4,-4.491437723717561E-4,-4.348668097767776E-4,0.02404947441473115,0.010309611942140721,8.561440108532722E-6,-8.722916328025957E-5,1.8659358726876463E-5,-7.579771871928993E-6,4.0583200821151986E-5,-0.006952387709031475,-0.005273080931622939,8.185535017245873E-5,-3.7487478383945686E-5,-9.766373423586176E-6,-0.334021736603582,9.621685405757557E-5,1.8376871199466099E-6,8.69185863987758E-5,-4.955924461596854E-5,-4.955924461596854E-5,2.4663678557921086E-5,-0.10806530753857138,-9.145023996319916E-5,-9.145023996319916E-5,3.759368030340807E-5,-9.898781953780984E-5,-0.40008336692081703,-0.40008336692081703,-0.3252987139566684,-0.09502502101660124,-0.11562296874579985,4.374324079325859E-5,4.374324079325859E-5,4.270281602051197E-5,-0.16875684809473276,-0.26250121341144594,-0.02814580113827407,-0.16969127533302786,-0.6187947205460178,-0.0028847471591516086,-4.9982949687368226E-5,5.1757708184309344E-5,-7.508277756322102E-5,-7.508277756322102E-5,-0.005371874163645011,-5.3288285130198405E-5,1.0039843896856004E-5,1.9621543944830795E-5,-1.967298967101892E-6,4.211626031189498E-5,-0.4145117314813082,-0.4145117314813082,-0.19615695763034643,3.16207032642407E-5,-0.06714965993447072,-0.43969716318842467,-0.3511626646279381,2.43033266911049E-5,-0.0060760661402978625,-0.615482700551933,-0.615482700551933,-0.5633793474635153,-0.05601563229067777,-0.41028467649730177,8.95997891807315E-5,7.455631458117914E-5,7.17526218084393E-5,-0.00662615052221872,-0.013468156628294807,3.364877576275659E-5,-6.539650973734887E-5,-1.002614283583111E-5,-0.03328924553867318,-5.104210459118356E-4,-4.386456861041235E-7,4.947514105425483E-5,-0.1118482790310777,-0.1118482790310777,-0.11780293451990169,-0.01998921370238894,-0.0185199398417394,-0.3704604466657792,-0.13560441200023726,-0.11685475352359632,-8.599199379557068E-4,-0.6212387676347738,-0.6212387676347738,-0.5974136609147004,-0.04234559149718003,-0.3513070421386229,-0.3128608104416909,-0.002264799856773084,2.5874433302205914E-6,-0.17656859383037748,-0.08078237961750687,-5.392626735294178E-4,-0.02830675065037302,-0.16024544268887508,-0.26622032700531245,-0.07995536469946835,-0.016477579846970458,-0.013947799061510982,1.722718742989828E-5,-0.2922177548095646,-0.11450073213083756,1.7221461556672036E-5,-0.026527355966786934,8.093655001324796E-5,-0.12869292616182948,9.07058782719867E-5,-0.1390352371712797,-9.033771044566012E-5,-9.033771044566012E-5,-0.3543284799247306,-0.39153330100557476,-0.21776253120368644,-0.18873903887931767,7.980300621615022E-5,-0.20234886713562183,-1.593349685920398E-5,-0.1667433692592944,5.891673195205986E-5,5.496577675580506E-5,-0.0876353362779782,0.7551615652017084,0.7551615652017084,0.656191227290182,0.23225030940951435,0.3709331229651716,-0.17398673604946877,-0.011692058487178586,-0.04891522866241384,-0.036400819949502304,-0.3540950256405148,2.7862762809282183E-5,-0.0023404061817788088,-0.19338338238711658,-1.986986595584316E-5,3.575706609710048E-5,-0.044733445186598074,4.7203565827394164E-5,-0.02787952946919922,-0.1012431460859237,-0.19562428256743905,-1.7696895439929793E-5,-5.894316995610528E-6,6.0065042033659365E-5,-1.1980602542687161E-4,-0.010367089170618408,3.83038952627366E-5,-8.623442455519607E-5,8.50842816516705E-5,8.964472868951189E-5,5.790728863893754E-5,7.078885250075802E-5,-5.004485846276616E-6,-0.2963822060174694,-0.2963822060174694,-0.10980000194199704,-4.4129099008588903E-4,-9.67702110118817E-4,-0.1837168137168551,-0.13022732914158738,-0.11316864251487847,-0.43180905314004236,-0.1561827850218443,-0.1284196936981664,-0.24743025872752278,-0.24743025872752278,-0.17003693125725958,-0.007872073487038035,-0.1470493404847562,-0.369255875693257,-0.203108400366447,-0.203108400366447,-0.15694355104486882,-1.0806935808865869E-5,-0.005335987224412376,-0.333174789476532,-0.5653636195063324,-0.22121213395527367,-0.09113660267928334,-0.06876466483834921,-0.04252305505482413,-0.12014319426193586,-0.08980501507814626,0.8336001240546658,-2.12827475326783E-5,-0.02482846693245853,1.3516122487259143E-6,-0.1394900885258116,2.5069079536929357E-6,2.5069079536929357E-6,7.519330614069363E-5,-0.30582709689580884,-0.29516037808613876,-0.3695199198798334,-0.12237707429579969,1.175396368367166E-6,1.175396368367166E-6,-4.654959853814924E-5,-0.14712402413010128,-0.14952901082508238,-0.1504732369413034,-0.042015724443706125,-3.37796761492301E-5,-3.37796761492301E-5,3.893621537538374E-5,-0.13300110159679715,-0.09677585320038706,-0.1334677157890506,-3.681795490208194E-4,8.2415499116008E-5,8.2415499116008E-5,7.555211562568997E-5,-0.047185117459996324,-0.10377948403641449,-0.103117679568359,-0.44874499800541773,-0.09469728963349937,-0.0076194291719296255,-0.18326633659780653,-0.07442014098428985,-0.16537918096211857,-6.535788339967626E-5,-6.535788339967626E-5,0.0019121068827778974,0.5359111362194524,0.6019288829119476,0.6590051866991316,-4.778132783159444E-5,-0.032848617705644276,-5.028635487969396E-7,-5.028635487969396E-7,5.9595024290127975E-6,-0.16294564995149655,-8.844366899761713E-5,-5.6429096358637145E-6,-1.5861073606572554E-5,-1.5861073606572554E-5,8.999170139686345E-5,6.591071963879414E-5,5.494685974452072E-6,3.183236642608636E-5,2.3053416277310593E-5,-6.615982232527649E-5,-0.4250264149558899,-9.961438293981844E-5,-0.011488096592922723,-0.4847887560959871,-0.27478869286899316,-0.002290802878901878,-2.1657670139931868E-5,-0.4847887560959871,-0.4847887560959871,-0.4847887560959871,-0.003040692209141145,-0.3910098676629666,-1.4552929193818953E-5,5.8254754012965795E-5,1.819327017026087E-5,-8.645877194569468E-5,2.265977318096714E-5,-3.6667566241417226E-5,-6.653251520794086E-5,-2.7139753160323495E-6,7.811390572958563E-5,3.8176909085310944E-5,1.2544628684179498E-6,-6.122197140379057E-5,-0.009509154644660706,-8.381156079562459E-5,-4.7578009987295304E-5,-0.1909487354504376,-1.0375997648396588E-5,-9.925943083795272E-5,-0.03184568952168853,1.7448956242658475E-5,-0.01957581714825808,-0.12126572437255122,-0.18813248679205302,-3.593042651492283E-5,7.092149396370834E-5,-2.3583047011731497E-5,-0.19501352444820125,8.767529352988686E-5,-0.024217530123542365,-9.968132209612113E-5,2.1889700282483064E-5,-8.323393748464086E-5,5.775123283494361E-5,-0.06684960094274393,-8.00751009638152E-5,-0.07330555842623748,4.973170515182429E-5,-0.08799105044653595,-8.527197789172668E-5,3.3714983128422756E-5,-0.1387093442869182,-0.1387093442869182,-0.12806566912787734,-0.005928022975207346,-7.115712755553934E-4,-0.01745927339220217,7.5128816742055324E-6,-0.0395439845999561,-0.012817592500101086,-2.5784882023725347E-5,-0.11991314614459557,-7.299990269085003E-5,-4.535958776378115E-5,-6.766950794333773E-5,-6.766950794333773E-5,3.0291970080384713E-5,-0.08340603759446216,-0.07260289727133781,-0.11677740433583415,-3.437943060239794E-4,-0.020566615583929842,-0.003710259031641409,-5.361831215303651E-6,0.0951927760330235,-8.032785124737728E-5,-0.21180151434674552,-9.994106765113E-5,-0.013431073997106947,3.153532972846571E-5,-0.011916441608768672,-6.744996221414694E-5,-0.011002793970025173,1.780499888474248E-5,-0.045758001846066765,-0.001727246544208855,-2.568599370075712E-5,2.808440253404408E-5,-5.993437895572006E-5,-0.3290106903808216,-0.19727810472004925,-9.997799996216636E-5,-0.38926893337974067,-0.3293497998594094,-9.844852864643426E-5,-3.337813251550587E-6,-0.38926893337974067,-0.27703500065328757,-0.27703500065328757,-0.05500147610521792,-0.005783675231293547,-8.325528710300149E-5,-0.0017361883412210647,-0.18920078800310713,-8.584311842395715E-4,-0.2174637341533565,-0.03460095273070466,-0.2226187419630904,6.573043637303076E-5,-0.025669561637480277,-0.26527888424616286,-0.001760807738523159,-0.004050304389633852,-0.45996667924891277,-0.45996667924891277,-0.32321686418949774,-0.08487892811013702,-0.10907295643833875,-0.4740631781901569,-0.004168055753526306,-0.004168055753526306,-0.0067116834540411445,-0.2640614274808597,-0.3403486271113099,-0.37181846546255704,-0.0010712214690749514,-0.006743193975386468,-0.002698702651222086,-0.08956968464031154,-0.3330082558597154,-0.2158293189527776,-0.0012564430731540248,-0.28778807691180436,-0.2268336396618147,0.00907734216228031,0.33621281297307504,-0.19973198393421107,-8.788384386743586E-5,-0.005789815899475284,-0.05703753137831454,4.869686122708629E-5,6.18517082176135E-5,-0.041797186311888765,-9.620026052855842E-8,-0.004476775823878503,-0.06349951381066808,-6.785739557477779E-5,-4.4514114881066195E-5,-4.760927120748968E-5,-0.003235679638513414,-0.06862151185668183,-3.8839920770810074E-5,-0.0029410633729999324,-0.24875097240147706,-0.24875097240147706,6.77146148477431E-5,-0.1896248725274615,-9.866283028546164E-5,6.0329236813694195E-5,-9.36123489041351E-6,-6.436571111489476E-5,-0.043584163672584345,-6.208408861669468E-4,-0.09110207448974411,0.41969951792991145,0.006600797493832409,0.028170128411311727,-0.12092785412714512,5.368626947428121E-5,-4.165516926940863E-5,-0.005503265745418325,-0.10661579538933631,-0.0525401876862912,4.040716287442411E-5,-0.3954633994324804,-0.21615664598267362,-0.23442173885777176,-7.405509193283223E-5,-0.0746675725991724,-0.303596532223841,-0.0025917310294144968,-0.002933068635187486,0.24827256291386732,-2.4148006263357676E-4,-0.0017616041711070902,-9.775319536441796E-5,9.167445027888897E-5,-6.209297651463647E-5,-7.627805405246399E-5,-3.8636580711401425E-5,-2.823890600976026E-4,3.992199608079304E-7,-9.747436200383889E-5,-9.672761338442031E-5,5.997721494064954E-5,-4.3241509925972915E-5,-0.06094162595008436,-4.1023471565034156E-5,-0.00126688561596384,-1.8609095230553394E-5,0.0013071528336019295,0.004906384936008101,2.0630472718628873E-5,-0.1656620709207545,1.7984234310598826E-5,-0.17442126015829762,-0.2197741128791056,-0.11088459422028285,-0.0029148047528279515,-0.01070997558704888,-0.15151854284811145,4.995731775651229E-5,9.273564223086103E-5,-0.08481812677566868,-0.2044317288430153,-2.0726150930921913E-5,4.393449498131614E-5,-0.07428588986094503,-2.5107845022977375E-5,-0.1108490144109857,-0.20213623765228594,6.931730085404503E-4,2.3635213479804838E-6,3.825767879447836E-5,1.243673085095941E-5,-3.333699310069579E-5,-0.28317902760503183,-0.28317902760503183,-7.002326499335272E-5,-0.10560280899759811,-0.10065397748679558,-0.08829535665256043,-0.08829535665256043,-6.58934787921735E-6,-0.03984929224392856,-0.014470638763273138,-0.15643098749912193,-0.15643098749912193,7.83540081911837E-5,-0.0801417512828466,-0.0053236024140106706,-0.04997222175322588,-0.12985484421670176,-0.07021480375777342,-0.07021480375777342,1.7669523566562402E-5,-0.013501469075615525,-0.03800322652745097,-0.37009500825269376,6.012919897267169E-5,6.012919897267169E-5,6.012919897267169E-5,-0.062302869274397654,-0.08351887247211036,-0.17056945089030084,-0.05635444011203039,-0.07698692410645933,-0.07698692410645933,-5.820215727645715E-5,-0.017510481838550272,-0.1205488729173069,-0.2702788346113019,-0.4114736733916299,-6.700652092739431E-5,-7.636182133239594E-4,-0.4590096081000775,-0.4590096081000775,-0.4474553384548081,-0.025069333651311074,-0.320354961242046,-0.1925429990930261,-4.6977949104351854E-5,-0.032814745917304475,-1.682447176745473E-4,8.027373268658413E-5,-0.08559355741899186,3.0496987145795296E-5,-0.07674459111439941,-1.9155608848077642E-5,-0.013794912904691203,-5.575699558773633E-5,-6.937058629664107E-5,5.0862584029159956E-5,-1.5786360687878139E-6,-0.0031583033627696675,-8.256255925118381E-5,-0.03834331230133028,0.5691327070189985,0.5691327070189985,7.33155801751162E-5,0.3125159179108576,-0.039123843595790235,-3.95720184569784E-5,9.670592498172067E-5,9.670592498172067E-5,1.9675307871918447E-6,-1.2128218469873705E-5,-3.618936597282854E-5,-6.810125058726955E-5,-6.810125058726955E-5,5.653299124145386E-5,-4.554177473952461E-5,3.8035334666334315E-5,-3.6168679415960595E-5,7.851679501229531E-5,7.740588067953727E-5,-0.1558201967361401,-0.022739147062659816,-1.1028942869171089E-5,-0.5591736880275565,-0.318480885174601,1.4888392027721385E-5,6.975288602593099E-5,-0.5591736880275565,-0.5591736880275565,-0.5591736880275565,-0.0384156013734452,-0.37775834327592556,3.908210112484182E-5,-4.5108505433486326E-5,5.63618638538401E-5,8.01369683505664E-5,6.331374265900456E-5,-8.943586843326813E-5,-5.405633695187273E-6,-4.94706925718873E-5,-2.2385326060071463E-5,2.2234355672259322E-8,2.949030050169165E-5,2.121903455747922E-5,-2.0067310628100034E-5,3.778756016715841E-6,4.689639607724025E-5,-0.23289457695728377,-5.6258517705739256E-5,-2.0087433957624378E-5,-0.017713546322380445,-7.286726028103405E-5,8.573351566733743E-5,-6.3974283079103785E-6,-0.01206323169721959,-3.143391285792663E-5,8.811408137945716E-5,-7.525880761057147E-5,-4.6623015900851833E-5,3.8137990243295827E-6,-2.558290224445142E-6,-5.194905815287001E-5,-3.205664027476029E-5,-0.11472188672135132,-0.11472188672135132,-0.08935056074178589,-3.4584904830184336E-5,-2.6275471380333504E-5,-7.123060205052004E-5,-0.06975871289147857,-0.02058869865772711,-0.15117041822831762,8.090761517146E-5,8.090761517146E-5,4.0022864295718644E-5,-0.042544478513656954,-0.06570944014505013,-0.11576837207548868,-3.536336526999023E-5,-0.11664247993229673,-0.011960189982392075,-8.429296892421189E-5,1.4127305154817683E-5,9.698436009019648E-6,-0.35527949976306045,-9.860588490964721E-5,-4.309330954545031E-5,-2.2464623764718853E-5,-0.04158801923856656,1.1248460304574267E-5,-6.099148295883807E-5,-4.007128002729335E-4,-4.274873801083687E-5,8.228261643294498E-5,8.228261643294498E-5,-0.005917091029523458,5.872253102464249E-5,-0.10902686309837635,-0.10902686309837635,-3.441576306494683E-8,-5.967362875700387E-6,-0.062049177793968076,-0.03476435582471808,-0.0124168685613145,0.16757042984563442,0.0017347756962363431,-0.21299500938273405,-0.22258159880704192,-0.01706038236982195,-0.13989016877969532,-0.057515326975017704,-1.2720287280348973E-4,-0.003985629600067547,-0.11507519408380651,-0.3176007674008381,-0.3176007674008381,-0.0011718463914167651,-0.1022873146251913,-0.2819192441303191,-0.013491556744194763,-0.10765027692500984,-2.282438067292903E-4,0.40438618258822734,-0.09907612700144518,-0.10214447295378552,-0.02201443269401118,-0.02344721340936195,-6.267272726835603E-4,6.65648704410486E-5,-4.695231984377267E-4,-0.0032096298113247043,-8.038407480758496E-4,-4.058640595853145E-5,8.30079978742038E-5,-2.462357201577433E-4,-3.24230883286086E-5,-0.008440565544949135,-4.0462217113817274E-5,2.692219574450223E-5,0.24765581846163975,0.28831190712163157,-0.03162492922432641,-0.20512827526607746,-6.672501441585983E-5,4.380212722671762E-5,-0.03434499939359517,-6.105931191782009E-5,-0.18470799726112497,-0.22377421517500923,-0.19831483579119377,-0.05343276091050992,-0.004550780456396901,6.315986615707886E-5,-0.16385161764724587,4.985635117062275E-6,1.036413576773928E-5,-0.17943375435072084,-6.94007880666245E-5,-0.010355629264606592,-1.4664736313898864E-5,0.10317521161882745,8.720428045515586E-5,8.720428045515586E-5,-0.006251477816411313,4.248613652786548E-6,4.248613652786548E-6,-5.3423737884924874E-5,-0.0011166790218714426,-0.0011166790218714426,-0.0010817637351826673,-0.04712863331641299,-0.2390092487701629,-0.008954676127398819,-0.06405499950716409,-0.0028138566476220276,-0.19358250496044957,-0.030699849035372307,-0.04839578241705518,0.4416366068169095,-0.05276806889736544,-0.03727514387756727,-0.0012677319533950277,-0.0018877013030739183,-0.0020349087578929665,-0.128433360007232,9.44189614142789E-6,-0.5202225425591841,-3.558219124547825E-5,3.196215692018918E-5,-7.657974142783867E-5,-0.004315677237568844,-0.004349716970173168,-8.130068545017643E-4,-0.006553152574870345,-0.006731956100507797,-0.0017572421407685565,-4.529130327520687E-4,-5.327336056133703E-4,-2.5186830706535284E-5,-0.2282287497187672,0.09158352635098829,0.06646214323427893,0.00796034984507963,-0.06553629969609268,-0.09841209093357386,-6.606386948261806E-4,-8.035463797731205E-4,-1.2840917155744111E-5,2.6719922877934256E-5,-0.0019869412355692593,-0.002193887509527372,-0.003500335655439738,-0.0038109457903659025,-4.911377188571111E-5,-1.57738963439065E-5,-0.31060230055867427,-0.050827255247756956,3.8426427975667995E-5,2.905654395090888E-5,0.14634045599775367,0.18499478423996535,-0.2153343960075128,-3.79852475670156E-4,-4.353526987106666E-4,-0.08499089026231324,-9.711670203309214E-5,-9.637863355784648E-5,-0.2323581176582939,-0.03869122851361453,-7.1920932056129E-6,-7.1920932056129E-6,-2.7019236613506925E-6,8.000252648715449E-5,-0.08362286445949701,-0.10387637874531365,-0.11551597656315721,-0.05721389999550912,9.765442892310841E-5,9.765442892310841E-5,-6.214989396091051E-4,-5.437910656233001E-5,1.845140932679772E-5,1.845140932679772E-5,-9.562783058270221E-5,-0.04818270541887102,-0.08934842079566221,-0.13861046935232826,-1.3038274528023327E-5,-0.0952698539385657,-9.71491810268836E-5,3.4279063364759554E-5,-9.829760954860556E-5,-0.0010331689275576705,-0.01878008841961223,-3.928704518431558E-5,-2.110888314426593E-5,-2.8086672784923125E-6,-0.02183911888928209,1.8089699005713903E-5,-3.5424745551556084E-5,-3.2946934024836376E-6,-3.5396302824478734E-5,-5.012636364879278E-4,1.0648551122655959E-5,-6.836469516407384E-4,-0.02772848368505081,-0.02772848368505081,-4.685983048994195E-4,-4.5616311338700496E-4,-0.0012860903394474473,-0.08414681747396166,6.454588792174421E-5,6.454588792174421E-5,-0.0019022257965997371,1.810809857718542E-5,-4.4159684181308066E-5,-0.007887337281642162,-0.026414406815598528,-6.0724486708886894E-5,-9.694761380525961E-6,-0.0013487777801909479,-9.078007894621023E-5,1.7920062688994124E-5,2.7912156249218777E-5,2.5202713027686584E-5,-1.4939164420408197E-5,0.40369194683195425,0.0020540137995177384,0.001973635480616241,-0.12489829716739129,-0.3619866741649314,-0.007113323507213266,-0.12902852394087647,-0.04231422716267167,-0.09050276701310014,-3.016664542360617E-5,-9.08410305770952E-4,-0.06793418451401526,5.5801026511519464E-5,-0.011482571694882841,-0.11751642375641459,6.285462840101054E-5,-0.0018963059928941643,-0.12011283404201588,4.9215135551588335E-5,-0.018785946147226035,-0.05881461981131021,-0.35273836119501717,-5.9550570140522586E-5,-6.540478848688411E-5,0.29566896153182903,0.621578690769448,-4.041316959672817E-4,-2.1329296436563568E-4,1.0523363747105672E-5,-6.168542969693144E-5,1.0112397517229502E-5,-3.971140967866496E-6,-5.591815996498172E-5,-5.4532021773973194E-5,4.2908911939445037E-5,8.20770144790237E-5,-9.844297772584323E-5,-5.278141038245291E-6,-0.06020225453130997,-6.382054361153364E-5,-5.246442955916869E-5,-1.529229823771859E-4,-0.015820596986787956,0.004557994789257671,0.0588007240852082,-2.120318914108877E-5,-4.60057035685256E-5,-0.2113991816123946,-1.2090425181729795E-4,-4.306600807114393E-5,-0.1871454549989505,-6.102561476439455E-5,-7.511422350022313E-5,-0.20362020007668225,-3.454496655850157E-5,2.9406211530585924E-5,-0.24316488862084065,3.069498058947949E-5,4.0359363595339964E-5,6.442532019818587E-5,9.904365341129886E-6,1.459383171693551E-4,1.3308789775557577E-5,3.841366862700422E-5,-4.8930477216966296E-5,-5.731579768501326E-5,9.517074633096139E-5,-7.552860265544885E-5,8.996332876258097E-5,8.996332876258097E-5,7.450993369649829E-5,7.450993369649829E-5,9.62991364665894E-5,-5.163795888968748E-6,-0.12460588258439505,-0.3398691033304632,-3.654533006427124E-6,-6.998705654535249E-5,-2.9877854620049844E-6,0.006454079171036971,6.110080890441142E-5,-0.02835174329650611,4.0990627854427234E-5,-0.058154853003615496,-0.010039860181944731,9.131678357759902E-6,-7.318105548621251E-5,-5.6398488511851255E-5,-5.727094887400299E-5,-0.04381062054085261,-0.250897349799223,-1.715317176361378E-5,-1.8977659137149768E-4,-0.028913419285565223,-7.848637151891529E-5,2.7119014956688607E-5,0.1649382157808748,-0.17341400101432197,-0.19960834804170902,6.229929821325545E-5,-0.04902732136809934,-0.05380033489836081,-0.1158385637142989,-0.1650030839142775,-0.1650030839142775,6.554556230788067E-5,-0.015964519982840916,-0.44145689507383845,-7.157908605134145E-5,-0.041463911531058995,8.077831245473196E-5,-9.137357863497606E-4,-0.1041178172021806,-0.1041178172021806,-0.0022072644096186194,-0.014916881851684945,-0.2035860873616012,-9.57625540598105E-6,-0.01390948389952955,0.15668599933657837,0.2507712626782039,-0.022265529864804293,-0.0765576009112246,-0.135767544980672,-0.42217782985371866,-8.70985950729359E-5,8.069585465578992E-6,-0.027159152955336927,-0.20524121757444402,3.759043748266396E-5,4.655272573481687E-5,-0.035646919806475566,-0.1910469813453706,-0.08684066727318146,-0.0797643722019712,3.9425995187643444E-5,-0.0207595972044115,-0.04170369339216733,4.2899962315701704E-5,-6.758197749944165E-6,-4.4503971868502343E-4,-6.861030299992998E-5,-0.00472935198901313,-3.2006042532759844E-5,5.366780114503822E-5,-0.029906444826657153,-0.08227693413300446,-0.08227693413300446,-7.264528522515272E-5,1.8155842791625908E-6,-0.03525682181271664,-0.2094414327841318,-0.2094414327841318,-8.175981539086013E-5,6.87130733630551E-5,-0.10851745736975574,-0.028119089828254538,-0.2534800816868753,-0.002022893384158553,4.804565105908198E-6,-0.6706602253450153,-0.6706602253450153,-0.059458109110009275,-0.023630274388692352,-0.45082107739927874,-0.21188054467190798,-3.5620195694593374E-4,-0.0850160775598395,-0.05990955155281459,-0.035545850317882086,-5.4581017714960214E-5,7.130478977198665E-5,-0.036071536972242656,7.123992976775572E-5,6.777654245901301E-5,-0.13301362478397225,3.7359621963485725E-5,-7.198608347735839E-5,-7.423761405707121E-5,-0.05169918047763972,-4.08066960508867E-5,-7.531799578567153E-5,-0.0853784737685995,-0.002847974417321558,-0.003467005265538118,-0.01892350659704841,7.931297882618829E-5,1.1221757502418003E-6,-3.2025156753598156E-4,-2.2536488116840596E-6,-0.011154065382975292,8.616237563736238E-5,8.616237563736238E-5,-8.884523721632874E-5,-0.009857236374650085,-0.09815041564689661,-0.10355714142536594,-0.10355714142536594,-1.6822905567008542E-5,-3.977939264994204E-5,-0.3271048685182154,0.02867785872382963,0.2379647357213793,0.2806307783500846,-0.13083478029028459,-1.0515273651985786E-5,-7.576297324768437E-5,-9.044155611466102E-5,-0.21351850331449104,-1.810834511623924E-5,4.2635049894809964E-5,-7.825322981649679E-5,2.8023350039626935E-5,-4.1676543185841804E-5,-0.0014294676197650173,4.993613961494042E-5,-0.028157836572789727,8.485388898093767E-5,-0.01839539318976333,-5.945854736377828E-4,-0.060777934117098475,1.7937484711161387E-5,-0.01568763505716028,-0.0013739092080245398,4.842261124283458E-5,8.164672656071477E-5,-0.004586394147135152,3.788336888131043E-5,6.093775954463761E-5,3.6195176692859307E-6,5.993090696261447E-5,-5.4096311160391444E-5,-0.0711189282188327,4.030961894833563E-5,4.030961894833563E-5,-0.045663145399466976,-0.014661160358012584,-8.01441505771157E-5,-0.012986752057167412,4.299112650799826E-5,-4.8967802851829066E-5,-0.00788570702985365,7.545421984464749E-5,-0.016872344109233536,3.8331257840602435E-5,5.909549582555534E-5,-1.9875632845955637E-4,-8.435203827453463E-5,-5.432667749673084E-4,-8.26707832685698E-5,-5.7501576307360765E-5,3.750780067497884E-6,0.3153565910955207,0.029802679965012197,-1.1902549334749912E-5,2.43535073468286E-5,-4.423110723918687E-4,-3.581078415820205E-4,7.796485371558884E-5,-4.926188148173228E-5,6.76649690272305E-5,-6.967437396174584E-5,3.768470463440756E-5,-5.7827812126531315E-5,4.4700910700282305E-5,-2.9355899417641418E-5,7.460223347115295E-5,-1.0464269725608236E-4,-7.87675927305924E-5,3.3726070995811317E-5,-7.703184426443881E-5,-1.0233977373814621E-5,-8.414471096162804E-5,7.643953398643962E-5,-5.116824244690181E-5,9.033132755393463E-5,-8.451131675566093E-5,2.8648601351443265E-5,-6.114101762298039E-4,-5.4770108529461005E-5,-0.013793491172920143,-1.3850898117271631E-5,5.8369255592443135E-5,4.86874501669568E-5,-0.016006875525981682,3.72909459973899E-5,0.002818804356888124,0.12765223272729223,-0.12804167825701632,-0.06250476921877918,-0.05676481357373618,-0.18247915249611132,4.718152201775698E-5,-0.015554190993996714,2.0125982605293126E-5,-0.0596699443768957,-0.08330518820024567,-0.16384521151046452,-5.1811533925547664E-5,5.399351785633852E-5,-0.008528732191281165,-0.19831779020422635,-0.056028866736341096,-0.013695451910251493,2.6513622482698804E-5,-0.016159251897287334,-0.040667399804373026,0.338219212214135,-0.0017819238559669606,5.9921539877616785E-5,1.073130166988348E-5,-0.06495706277145699,5.3557495983376313E-5,-3.842161522209861E-5,-0.13156778464069288,6.508687739302662E-5,5.2758225614214484E-5,-4.1145296836202005E-4,-0.15030968450981433,6.084563868538032E-5,-8.992468593522308E-5,-3.768370743709791E-4,-4.1078869728886774E-4,-4.227199671929003E-5,2.5847730923922013E-6,9.292474185462014E-5,-2.6222028083827426E-5,-6.308175043562648E-5,3.7018942011859E-5,7.236519640528157E-5,7.236519640528157E-5,-7.664316546722617E-5,-3.5090984071499274E-5,-9.610717032714184E-5,4.105208405829701E-5,-0.03668754386329332,3.3369097160909606E-5,0.00358022870101851,0.0032095126632947788,-7.808091210022759E-5,7.169124756824984E-5,7.223914489857492E-5,5.8473542444587384E-5,8.690005110731272E-5,2.359516373213093E-5,1.9141637690739418E-5,5.7297146449052826E-5,-9.997927474488593E-5,-8.328727998866825E-5,6.658342799547375E-5,-8.487080275813654E-5,-5.083207394894707E-6,7.158334003969094E-5,0.0024569069287176636,7.35780869428664E-5,-0.22684977020474156,-0.007901203692720012,-0.05117039801715704,-3.442014614854368E-5,-0.01914338399257202,-4.793939457555212E-5,-0.005494708880158405,8.004693834694551E-5,-0.051065278037261054,-1.7065080726057756E-5,-0.1604471895663661,-0.042451586346117516,-2.6773795251209986E-5,-1.1906428188196075E-4,-2.5358940815379348E-5,0.4575253883093997,0.0365168916231289,-4.568788745092529E-4,-0.010427740111714675,5.333000611562871E-5,7.977113291052518E-5,7.19920360816371E-5,-4.2904412917640247E-5,-3.404442759958148E-5,-1.696621347428973E-4,-8.476874245489735E-5,5.0715217501660106E-5,-0.1831857055489943,-3.304917187906591E-5,5.3381044321395643E-5,-0.0011391890655465028,-3.991212397182481E-5,-8.356609615057392E-5,3.928103064444589E-5,-0.030786171331293376,-6.069537137890906E-5,-3.2201082985288806E-5,-8.795375883619122E-5,7.629696037165781E-5,-0.024979654996364967,-6.014402060955615E-6,0.0052580128126912574,0.118693424072614,-0.1928118862800577,-0.1978991794813636,-0.5434656971512911,-0.3416178780627256,-0.01506007266360784,-3.4287203730840255E-5,-0.0425997552771485,-0.24380266153140046,5.869107241890099E-5,-1.3934834770901904E-5,-0.03617239658416723,9.738249229730532E-5,4.958195897836692E-6,3.999757672038853E-5,6.356749410470673E-5,-3.608211784009952E-5,-6.270007075190865E-5,-0.0083470105918702,3.731042484076232E-5,-6.296905298429025E-5,-0.04185617400602544,4.2504108134461304E-5,8.418737367645604E-5,-0.006274365427170805,-0.11713538343203757,-0.0013914183588505469,1.2978533559929525E-5,4.458889116311254E-5,-0.034772776742421435,-0.06680201021891752,2.165643702158263E-5,-4.186015585455846E-5,-0.0012859577875027832,-6.857818856622145E-5,-0.03732503584456701,-0.07437114804070949,5.1775197363063905E-5,-0.026488951150210178,-0.12303978762687885,0.04230563836118855,-0.02052037906544993,-1.1116592365248155E-5,-0.001451449322856627,7.414295448032819E-5,-5.2829422885540976E-5,-6.014052589753634E-5,-7.612025691334038E-5,7.180520726953642E-5,-2.711309209144803E-5,-1.0470560187820569E-5,-1.3599615826444272E-6,3.230652309241427E-5,-6.775151166506841E-5,0.07450192646603618,4.581024074318164E-5,4.9151429520626766E-5,-9.717413927030971E-5,-5.854474136037406E-4,-6.595681077325237E-5,6.218035526001832E-5,3.0507963308118398E-5,7.741439330158982E-5,6.710937939353185E-5,0.00793848799276257,-0.015239985365094928,5.9886422396022106E-5,1.6759809772558896E-5,3.725915451211017E-5,-1.7040383431590555E-5,2.6065094433342875E-6,-4.6007267923835836E-5,0.07212655565829566,4.503103877586331E-5,-7.679950925216578E-5,9.380536070389866E-5,7.356848760352824E-5,-9.999733129375062E-5,9.140040987187278E-5,-1.421214569074312E-4,6.978372350876147E-5,-0.07893296624296611,-0.10448581898698588,-0.10674844812381659,-0.007500814014976551,-5.688760528063177E-5,1.0339363809249867E-5,-4.892832559215883E-5,-0.013896016151581132,-0.003399912335908011,-0.014184568583223684,-5.8324570198295514E-5,3.3112143191531255E-5,7.425356097482608E-5,-4.336754230916436E-5,-8.267505872663439E-5,-4.157484768277137E-5,0.2070548633242284,-6.410413907757635E-4,-1.4565747372694156E-4,-0.04167587254187601,7.428728554423805E-6,5.965851234401539E-5,3.77835048454889E-5,-0.023207018780397735,-4.5134499952191034E-5,-0.07842413951929011,-1.6718594558059658E-5,-0.12903645351438098,0.006508419900306112,4.432992570352359E-5,9.065801219888467E-5,9.411382455122825E-5,7.536008447403903E-5,-9.999755505290317E-5,7.669686769267745E-5,-0.020501847528102475,1.8741507348721807E-5,-0.03945758396772624,9.763171750372164E-5,-1.6589479130659234E-5,-0.015042696190424063,-0.17416258789414496,-0.010980786695311365,-0.020774845854191093,-0.0022393909293662406,-0.0324798233856051,-0.03515532364929017,0.36894879329226427,8.677440285072247E-5,-0.1780748916525508,-0.1780748916525508,6.746308177895397E-5,9.864585628465775E-5,6.375470085313959E-5,-0.14980196994437808,-0.14980196994437808,4.2812944127144875E-5,1.5372130797576506E-6,-5.540365388205753E-5,-0.03926732953301789,8.025286035633858E-5,-7.244693614236764E-5,-7.515789346955915E-5,8.257638073001187E-6,-6.785633550042582E-5,-7.54394891507463E-5,-2.4561385495204982E-5,8.087846600107346E-5,-8.280116379122E-5,-8.391061583571218E-5,-8.391061583571218E-5,3.018208523179191E-5,3.018208523179191E-5,-5.02453430560978E-5,-5.02453430560978E-5,-3.512453114529796E-5,-3.512453114529796E-5,4.372117433645061E-6,4.372117433645061E-6,-3.455573257575655E-5,-3.455573257575655E-5,-4.876696029052923E-5,0.0076945295025054984,0.0076945295025054984,-7.086546088827471E-5,2.992549611414836E-5,0.26603531118792456,1.0725436589056821E-5,-0.09422963462216516,-0.13404921517021404,-1.0725436589047822E-5,0.2209867200257061,-7.757361133777584E-5,-5.876381728650791E-5,-1.828658771151073E-5,-0.05965584048256797,0.11135278191893473,5.8763817286517413E-5,7.531547024787698E-5,3.1812518197839795E-5,-0.05079116512179302,-8.915275469388498E-5,-7.5315470247873E-5,-1.8839702489550377E-5,1.9219144730823714E-5,-3.100757985833063E-5,6.130309502369247E-5,2.1588300464977318E-5,3.2262365773340595E-5,-8.191238135944187E-5,8.365198709228493E-5,3.1007579858335837E-5,0.007454371289613968,3.8524401893995065E-5,-9.35921330227621E-5,-5.617998152121366E-5,-9.392165041521708E-5,4.5733751910270975E-5,-5.628524308372281E-5,-8.273005893630603E-5,-4.33857139830963E-5,-0.20163298498315424,-0.20163298498315424,-0.29876583472907137,-1.2810475695489067E-4,-0.019997146241990973,-0.0039835290785834475,-4.2701186158165566E-5,6.522092434003426E-5,6.905136759660451E-5,-7.983017112683155E-4,-0.01703881167824108,-9.59357887067778E-6,2.3932957099390113E-5,-2.760059671209767E-6,-3.193019097895951E-5,-9.117387662464007E-6,-7.869115169930066E-5,-1.1626979720627556E-5,4.1037861170483835E-5,-5.977826801846954E-5,-0.01882222474471615,0.48248354794836906,0.48248354794836906,0.5461670172245511,1.281047569548872E-4,0.0876588169470963,-5.83629467224926E-5,-3.0880723618499867E-6,-0.21334535204908872,-0.21334535204908872,-0.2419764599224956,4.403005669009329E-5,-0.0199962071346535,-0.0020543939096779166,-1.3062004240577932E-6,-3.14731078519149E-5,-0.16099042565363128,1.7706066296918242E-6,-0.007105253923950514,-5.403391518827093E-5,0.06193026614029912,0.32593710204922405,-0.009398010257800791,3.5791906970246326E-5,-0.15354222606418225,-0.4906528205566992,-3.27675841475561E-5,-0.020080360411222315,-0.8465313421522951,-0.43055702687375763,-0.43055702687375763,-0.3059337777259891,-0.0015558801564073794,-0.04840185699472897,-0.1520005199805894,-0.8465313421522951,-0.8465313421522951,-0.31595297785508836,-0.6456143765897192,9.839000932689522E-5,7.048590982645236E-5,1.7354620051169097E-5,-0.6158402118530512,6.169024927416042E-5,-6.862084419229981E-5,-6.560196178780975E-5,-0.2124717539292206,7.209727429542891E-5,7.209727429542891E-5,-2.0190988503760273E-6,5.0176736578406886E-5,-5.568440340500236E-5,-0.4680290895153229,-0.12332088245157952,6.295276398227581E-5,6.295276398227581E-5,6.295276398227581E-5,8.163527516812391E-5,-0.31326166577009024,-0.15456735438897493,3.886453407797436E-5,2.8950225542788926E-5,-0.14135235001937965,5.697463590861266E-6,8.181077601288461E-5,-0.14959014042379734,6.833494189892817E-5,-0.016245929125356683,-0.4514877550794146,-0.13751662560352454,-0.1542078722376752,4.1370466245660886E-5,8.034147870082458E-5,-0.5073217518173625,-0.12207682606701872,-0.12207682606701872,-0.12193201635467071,7.148400633523043E-5,-0.15256189777154727,-0.010915184310306383,-0.5073217518173625,-0.4167356219567624,-0.046305339162858346,-4.370996090433515E-4,-6.844756635577351E-5,-0.38786641213365214,-0.37645155707212546,-0.17552006382060747,2.3660437140945567E-5,-6.217611940252513E-4,-0.16129098159968955,-0.17839815858188357,-0.203386304652176,1.7803675686524058E-5,-0.16153983194277172,0.7320603751234855,-7.961882260327515E-5,0.050447760271643834,1.173479112403312,-0.33684731774483917,-0.33684731774483917,-0.2316517703336483,-0.054868957668106046,-0.42517972356631006,-0.1311046822913424,-0.5808693717526286,-6.153326834011343E-5,6.959718945176271E-5,-0.9703835950885348,-0.9703835950885348,-0.9703835950885348,-0.37207783761362884,-0.29292699010059503,-0.11056533993906964,-0.3040951324271987,-0.23482385729498909,-0.042136383632695146,-0.1147527734807907,-0.23722560747254104,-8.590721619323484E-5,6.903822365322864E-5,-0.029198018159738773,-0.008512433504404266,-0.34065374848780505,-0.16100953701354995,-0.2840037637657522,-0.0343897674909527,-0.011221616630938853,-0.45061642218449083,-0.2791345850700269,1.449757204999378E-7,-6.432732233707458E-5,-0.45061642218449083,-0.24033286733353898,-0.24033286733353898,-0.02150922116479092,-0.03205862548610463,-0.2102275167884492,-0.07020720270683291,0.12764273538744733,0.2823542759648118,1.1815314766161711E-5,5.15549533686905E-5,-4.946772073841034E-5,3.8411507516924965E-5,-2.2919824224509E-5,-3.0257742950356623E-5,-6.773601479241968E-5,7.827763431767633E-5,4.0014685708800505E-5,-2.715702085920641E-6,8.534029600207266E-5,2.9656568625619222E-5,2.967359326612546E-5,6.98220699169564E-5,9.221573193599408E-6,6.527421879643972E-5,-1.9664493210353763E-6,8.05641083332513E-5,-1.910422515602475E-5,-1.910422515602475E-5,-0.005765799776265975,6.374831139821491E-5,-0.10336805299650693,3.331675740923386E-5,-4.298736995773704E-5,-8.454862966583196E-5,6.515400455027841E-5,-3.606389566278143E-5,3.097716632177269E-5,-0.27212082260217146,1.9383806353719867E-5,8.864490519511074E-5,-0.3699547097742648,-0.15295028149011017,2.651551071349378E-5,6.914447463727356E-5,-0.3699547097742648,-0.3699547097742648,-0.3699547097742648,-6.556581698622927E-5,7.956282795301288E-5,-6.813391007295748E-5,-3.8236557124127863E-4,-0.0021761697505427407,4.690952246923596E-5,-2.887265317859879E-5,0.1730370080311517,-0.05025516810292428,1.8103612592097816E-5,-0.05593533961737913,-0.7258604947384255,-0.38002370671117947,-0.20089196803931839,-0.03575223079863467,-0.12116371762029407,4.9961228543364495E-5,-0.08624236926139361,2.262491365579385E-5,-7.468404068476029E-6,-1.5487892000617357E-4,8.648875792251227E-5,-3.9748026718173626E-5,2.869356512712193E-5,9.655996782036474E-5,3.151320734302596E-5,7.68100160332878E-5,-1.6733980348087896E-5,7.023341627342887E-5,3.494816536766721E-5,-2.7626416096608188E-5,3.233170827548226E-5,-5.5960369377940696E-5,7.695024475358574E-5,7.695024475358574E-5,-0.004720206335149365,-0.004720206335149365,-0.05078308757459483,3.5613948354463305E-5,-7.281157599472703E-5,5.019983852884826E-5,-9.100607007756233E-5,-7.230462695604568E-5,-1.2713482727315064E-4,-2.5513302787540223E-5,-0.05591734368612127,-4.588804905343801E-5,-4.588804905343801E-5,-0.42113805410042243,-0.17937576665441077,2.789318592670166E-5,